FANN_FLO_2.1
num_layers=3
learning_rate=0.700000
connection_rate=1.000000
network_type=0
learning_momentum=0.000000
training_algorithm=2
train_error_function=1
train_stop_function=0
cascade_output_change_fraction=0.010000
quickprop_decay=-0.000100
quickprop_mu=1.750000
rprop_increase_factor=1.200000
rprop_decrease_factor=0.500000
rprop_delta_min=0.000000
rprop_delta_max=50.000000
rprop_delta_zero=0.100000
cascade_output_stagnation_epochs=12
cascade_candidate_change_fraction=0.010000
cascade_candidate_stagnation_epochs=12
cascade_max_out_epochs=150
cascade_max_cand_epochs=150
cascade_num_candidate_groups=2
bit_fail_limit=3.49999999999999977796e-01
cascade_candidate_limit=1.00000000000000000000e+03
cascade_weight_multiplier=4.00000000000000022204e-01
cascade_activation_functions_count=10
cascade_activation_functions=3 5 7 8 10 11 14 15 16 17 
cascade_activation_steepnesses_count=4
cascade_activation_steepnesses=2.50000000000000000000e-01 5.00000000000000000000e-01 7.50000000000000000000e-01 1.00000000000000000000e+00 
layer_sizes=70 41 2 
scale_included=0
neurons (num_inputs, activation_function, activation_steepness)=(0, 0, 0.00000000000000000000e+00) (0, 0, 0.00000000000000000000e+00) (0, 0, 0.00000000000000000000e+00) (0, 0, 0.00000000000000000000e+00) (0, 0, 0.00000000000000000000e+00) (0, 0, 0.00000000000000000000e+00) (0, 0, 0.00000000000000000000e+00) (0, 0, 0.00000000000000000000e+00) (0, 0, 0.00000000000000000000e+00) (0, 0, 0.00000000000000000000e+00) (0, 0, 0.00000000000000000000e+00) (0, 0, 0.00000000000000000000e+00) (0, 0, 0.00000000000000000000e+00) (0, 0, 0.00000000000000000000e+00) (0, 0, 0.00000000000000000000e+00) (0, 0, 0.00000000000000000000e+00) (0, 0, 0.00000000000000000000e+00) (0, 0, 0.00000000000000000000e+00) (0, 0, 0.00000000000000000000e+00) (0, 0, 0.00000000000000000000e+00) (0, 0, 0.00000000000000000000e+00) (0, 0, 0.00000000000000000000e+00) (0, 0, 0.00000000000000000000e+00) (0, 0, 0.00000000000000000000e+00) (0, 0, 0.00000000000000000000e+00) (0, 0, 0.00000000000000000000e+00) (0, 0, 0.00000000000000000000e+00) (0, 0, 0.00000000000000000000e+00) (0, 0, 0.00000000000000000000e+00) (0, 0, 0.00000000000000000000e+00) (0, 0, 0.00000000000000000000e+00) (0, 0, 0.00000000000000000000e+00) (0, 0, 0.00000000000000000000e+00) (0, 0, 0.00000000000000000000e+00) (0, 0, 0.00000000000000000000e+00) (0, 0, 0.00000000000000000000e+00) (0, 0, 0.00000000000000000000e+00) (0, 0, 0.00000000000000000000e+00) (0, 0, 0.00000000000000000000e+00) (0, 0, 0.00000000000000000000e+00) (0, 0, 0.00000000000000000000e+00) (0, 0, 0.00000000000000000000e+00) (0, 0, 0.00000000000000000000e+00) (0, 0, 0.00000000000000000000e+00) (0, 0, 0.00000000000000000000e+00) (0, 0, 0.00000000000000000000e+00) (0, 0, 0.00000000000000000000e+00) (0, 0, 0.00000000000000000000e+00) (0, 0, 0.00000000000000000000e+00) (0, 0, 0.00000000000000000000e+00) (0, 0, 0.00000000000000000000e+00) (0, 0, 0.00000000000000000000e+00) (0, 0, 0.00000000000000000000e+00) (0, 0, 0.00000000000000000000e+00) (0, 0, 0.00000000000000000000e+00) (0, 0, 0.00000000000000000000e+00) (0, 0, 0.00000000000000000000e+00) (0, 0, 0.00000000000000000000e+00) (0, 0, 0.00000000000000000000e+00) (0, 0, 0.00000000000000000000e+00) (0, 0, 0.00000000000000000000e+00) (0, 0, 0.00000000000000000000e+00) (0, 0, 0.00000000000000000000e+00) (0, 0, 0.00000000000000000000e+00) (0, 0, 0.00000000000000000000e+00) (0, 0, 0.00000000000000000000e+00) (0, 0, 0.00000000000000000000e+00) (0, 0, 0.00000000000000000000e+00) (0, 0, 0.00000000000000000000e+00) (0, 0, 0.00000000000000000000e+00) (70, 4, 5.00000000000000000000e-01) (70, 4, 5.00000000000000000000e-01) (70, 4, 5.00000000000000000000e-01) (70, 4, 5.00000000000000000000e-01) (70, 4, 5.00000000000000000000e-01) (70, 4, 5.00000000000000000000e-01) (70, 4, 5.00000000000000000000e-01) (70, 4, 5.00000000000000000000e-01) (70, 4, 5.00000000000000000000e-01) (70, 4, 5.00000000000000000000e-01) (70, 4, 5.00000000000000000000e-01) (70, 4, 5.00000000000000000000e-01) (70, 4, 5.00000000000000000000e-01) (70, 4, 5.00000000000000000000e-01) (70, 4, 5.00000000000000000000e-01) (70, 4, 5.00000000000000000000e-01) (70, 4, 5.00000000000000000000e-01) (70, 4, 5.00000000000000000000e-01) (70, 4, 5.00000000000000000000e-01) (70, 4, 5.00000000000000000000e-01) (70, 4, 5.00000000000000000000e-01) (70, 4, 5.00000000000000000000e-01) (70, 4, 5.00000000000000000000e-01) (70, 4, 5.00000000000000000000e-01) (70, 4, 5.00000000000000000000e-01) (70, 4, 5.00000000000000000000e-01) (70, 4, 5.00000000000000000000e-01) (70, 4, 5.00000000000000000000e-01) (70, 4, 5.00000000000000000000e-01) (70, 4, 5.00000000000000000000e-01) (70, 4, 5.00000000000000000000e-01) (70, 4, 5.00000000000000000000e-01) (70, 4, 5.00000000000000000000e-01) (70, 4, 5.00000000000000000000e-01) (70, 4, 5.00000000000000000000e-01) (70, 4, 5.00000000000000000000e-01) (70, 4, 5.00000000000000000000e-01) (70, 4, 5.00000000000000000000e-01) (70, 4, 5.00000000000000000000e-01) (70, 4, 5.00000000000000000000e-01) (0, 0, 0.00000000000000000000e+00) (41, 4, 5.00000000000000000000e-01) (0, 0, 0.00000000000000000000e+00) 
connections (connected_to_neuron, weight)=(0, 1.77243360513939074430e+00) (1, 4.46056608394568776532e+00) (2, 3.25032201830345091054e-01) (3, 1.50000000000000000000e+03) (4, 4.31791412405447605494e+00) (5, 6.39695067120961180507e+00) (6, -4.63805722314518942273e-01) (7, 4.10095888755718185337e+00) (8, 3.22223188544404681721e+00) (9, 6.15803727549274926290e-01) (10, -9.36553873041696238744e-01) (11, 1.42055428812379008763e-01) (12, 2.50567346114390332446e+00) (13, -9.69374693009061177973e-02) (14, -8.08557189079922994379e-02) (15, 4.18716038049701300139e+00) (16, 3.89908509923431578770e+00) (17, 5.80447989971920708108e-01) (18, -3.22406621260418246866e-01) (19, 8.30703394179481913184e-01) (20, -8.78556511375111898188e-02) (21, 2.12578532960782595751e+00) (22, 3.77466790287653231051e-01) (23, -1.68507891865853798308e-01) (24, 1.50000000000000000000e+03) (25, 8.02720784421898869709e-01) (26, 8.47086113796771233986e-01) (27, -2.97895527896559952907e+00) (28, 3.14032481005398711460e+00) (29, 6.59628155174190267118e-01) (30, 3.67378648949513131328e+00) (31, -5.17200029689200402316e+00) (32, 5.38295287409795819578e-01) (33, -1.95126574969165300644e+00) (34, -7.48041329628565919430e-03) (35, -1.75641857662263728423e-01) (36, 1.69238742792464180731e+00) (37, 7.91134490985959670795e-01) (38, -5.69204258943995955455e-01) (39, -4.55687452770396017598e-01) (40, 5.35345368597807125255e-01) (41, -5.48619484687480271634e-02) (42, 5.39093211122050597339e+00) (43, 1.75621399965708913093e+00) (44, 1.69306126956082803048e+00) (45, 1.50000000000000000000e+03) (46, 4.35773643475424155014e+00) (47, 3.62179252820886254938e+00) (48, 7.60668249328506851370e-01) (49, -5.43569936132429876174e-01) (50, -1.12279575751524807181e+00) (51, -3.03631951442923009310e+00) (52, -2.59863888123677755360e+00) (53, -3.09197635912644352985e+00) (54, 6.91541676847591091359e+00) (55, -1.80034921147886189940e-01) (56, -9.90672713304196900230e-02) (57, -2.01422847937597460088e-01) (58, 6.48144664356982369569e-01) (59, 3.36215648649464649012e+00) (60, 1.21080725630093324896e-01) (61, -5.58366103758193244033e+00) (62, -5.88759338641795804126e-02) (63, 9.33100779405874436456e-01) (64, -8.71461620451488894190e-01) (65, -8.23219208144655545389e-01) (66, 1.50000000000000000000e+03) (67, 3.61322361926394997056e+00) (68, 8.87750962781651664635e-01) (69, 5.37695503789141660000e-01) (0, 6.60677839838973710584e+01) (1, 3.76215180362810883707e+01) (2, 1.28864126962117904185e+01) (3, 1.50000000000000000000e+03) (4, 2.93069760909873835431e+01) (5, -3.49198880206666260051e+01) (6, -4.78286026025289956465e+00) (7, 7.26708025098857834934e+00) (8, 2.99097755916371355056e+00) (9, 9.71832940279877455225e+00) (10, 6.77528862648050989037e+00) (11, -1.14358848792289236052e+00) (12, -8.52231847379084861416e+00) (13, 2.11875126144461756184e+00) (14, 2.18894364318423351179e+00) (15, 4.62741808140196775323e-01) (16, 1.17287062255859524385e+01) (17, -2.10326859601352111895e+00) (18, 1.73257411855506369136e+01) (19, 9.45809617091194532179e+00) (20, 2.18232040485911493732e+00) (21, 2.60499868891081032274e+00) (22, -1.72753627334895165646e+00) (23, 7.05041245702288144059e+00) (24, 1.50000000000000000000e+03) (25, 4.40727881199974458326e+00) (26, 1.59497684239348984647e+01) (27, -5.10301425521993312628e+00) (28, 8.42943988493106566295e+00) (29, 4.08885370790983238010e+00) (30, 1.61685136708883838708e+01) (31, -3.52117287356111541285e+00) (32, -1.71624026864803909120e+01) (33, -7.73522887615357834790e+00) (34, 7.59066047520380227098e+00) (35, 7.65059667826633571508e+00) (36, 2.88828056071617522704e+00) (37, 6.27956307721355599938e+00) (38, -1.22216583069533180073e+00) (39, 4.98908031590464151606e+00) (40, -2.03568577069921063938e+00) (41, 7.67752084136943935277e+00) (42, -8.53309073972924325702e-01) (43, -2.51880093412324868041e+00) (44, 9.87391681868314163850e-01) (45, 1.50000000000000000000e+03) (46, 1.96912466445234564105e+01) (47, -3.21513319808943052180e+01) (48, -2.04803693963819917201e+01) (49, 2.22920948881061109503e+00) (50, 5.61996764526737635492e+00) (51, -3.00986739335300645948e+00) (52, -8.10714457635731733376e+00) (53, 1.58345586250170526910e+01) (54, -2.89321362636653045541e+00) (55, 7.54281714187007068517e+00) (56, 7.54755365849475978735e+00) (57, -3.06961393026433748688e+00) (58, 1.02518526797851112775e+01) (59, -4.28505581087880660363e+00) (60, 5.30807736497314497370e-01) (61, 4.37185353300299173185e+00) (62, 7.57439574600200771215e+00) (63, -3.55373583245911839334e-01) (64, 8.37838257292488819417e+00) (65, 7.29281401244015969887e-01) (66, 1.50000000000000000000e+03) (67, 1.56858280891436674409e+00) (68, -6.33118514233056117746e+00) (69, -1.18593309110889189029e+00) (0, 3.89216429927784668408e+00) (1, 2.61448540938613938067e+00) (2, 3.54794812045330310024e-01) (3, 1.50000000000000000000e+03) (4, 5.05047378261132351440e+00) (5, -2.65631139597598897595e+00) (6, -5.37309815900767961949e+00) (7, 9.12963626059683924785e-02) (8, 2.09179015520943112350e+00) (9, -2.44412096286016966573e+00) (10, 1.56985621484374515688e+00) (11, -1.17349913409287905791e-02) (12, 7.14123815682678131367e+00) (13, 1.33097185172926985031e-01) (14, 1.13944880448693559860e-02) (15, 4.09718831631766811086e+00) (16, 1.60652544729703183890e+00) (17, -8.43501364923525259742e-02) (18, 9.06839442803752837641e-01) (19, -8.23918001840784786083e-01) (20, -4.13286552048806807291e-02) (21, -5.01068010489062487522e+00) (22, -5.21276060299290744382e-01) (23, -9.97089865362259297754e-01) (24, 1.50000000000000000000e+03) (25, -1.11450925252215982120e+00) (26, 1.27325475076890759496e+00) (27, -1.00445502795966081777e+01) (28, -1.12060143363434527863e+00) (29, -6.28469233501455115665e-01) (30, 3.85037565268497994353e+00) (31, 1.69033525653187388649e+00) (32, 4.64536743889410463915e-01) (33, 9.02831489863547220764e-01) (34, 2.04659547511175099466e-01) (35, 3.02636202279166655060e-01) (36, -8.99135947953162650848e-01) (37, -1.41382540582442195465e+00) (38, 6.44064324853291569895e-01) (39, -1.42731201346870839597e-01) (40, -1.47029385661598377411e+00) (41, 1.54188014421298896783e-01) (42, 2.40462610629364981207e+00) (43, -5.81655880983878215140e-01) (44, 2.99393344872676214763e-01) (45, 1.50000000000000000000e+03) (46, 2.84243218321689417039e+00) (47, -9.14879359754524479342e+00) (48, -6.70419017873137290664e-01) (49, 4.86199520161862630552e-01) (50, -1.29610215623695168574e+00) (51, 2.24185069821930982314e+00) (52, 1.65436193689902966142e+00) (53, 1.61683034889449084304e+00) (54, -1.82951743561967861140e+00) (55, 4.74467328122216910891e-02) (56, -2.13708007404251436323e-02) (57, 5.33543021961483088234e+00) (58, -4.37809720732356688622e-01) (59, 1.04939925608528938916e+00) (60, -1.50571545175196641608e+00) (61, 1.53200862921239644443e+00) (62, 5.84009787371713370852e-02) (63, -1.10039783561027304515e+00) (64, -8.89819374499400073120e-01) (65, 1.40947367032151782418e+00) (66, 1.50000000000000000000e+03) (67, 8.33160887833688315607e-03) (68, -4.65633151755024865537e+00) (69, 4.90313873384767506813e-01) (0, 9.75767994225138437514e+01) (1, 6.10834728230284369488e+01) (2, 6.08333939726901906653e+00) (3, 1.50000000000000000000e+03) (4, 5.28531875950332548086e+01) (5, -7.94895568736200264226e+00) (6, 2.34025079275859049233e+01) (7, 4.19632987310877325626e+01) (8, -1.75366579100593114049e+01) (9, 6.19542655110441558008e+01) (10, 3.27215714908317822918e+00) (11, -1.99634273797362693514e+00) (12, -1.98344983214579464459e+01) (13, 5.39525757893749080552e+00) (14, 5.36418563291259697934e+00) (15, -3.16880414979555595778e+01) (16, 5.88908824588571100378e+00) (17, -3.97713730668128206958e+01) (18, 2.49880918453454654582e+01) (19, 4.35564500930113922550e+01) (20, 5.31481082156129680527e+00) (21, 2.91724846065873677503e+01) (22, 4.85697883692925658217e-01) (23, -1.91799674577311263235e+00) (24, 1.50000000000000000000e+03) (25, 3.37638192532030601001e+01) (26, 2.57177365465763685393e+01) (27, -3.81963270380065225140e+01) (28, 2.50237775021675652454e+01) (29, -6.33337272371724591125e+00) (30, 3.25755428616724573843e+00) (31, -1.12072895340402478581e+00) (32, -1.36557365739523337567e+01) (33, -3.01340752134186029565e+00) (34, 8.02898209757014846844e+00) (35, 7.96415495342417845137e+00) (36, -7.70117232934635431718e+00) (37, 3.12348303108340852319e+00) (38, -2.66619189633479836132e+00) (39, 6.19890122905876150838e+00) (40, 2.58767997720885460922e+01) (41, 7.92248883313342400214e+00) (42, 1.79697849079081217738e+00) (43, -6.25094887902193185880e+00) (44, 6.86530783131842570199e-01) (45, 1.50000000000000000000e+03) (46, 2.23290556544026266295e+01) (47, -2.90951569271547469953e+01) (48, -1.73990037714205980635e+00) (49, -2.04094046115388536577e+01) (50, 5.00188274235049412653e+00) (51, 2.41864246359355341554e+01) (52, 1.30080755964607472919e+01) (53, 2.90188445406740989085e+01) (54, -4.15352353036153303378e+01) (55, 8.00638199067517497554e+00) (56, 7.92391870385810204169e+00) (57, -7.04753427060969812601e+01) (58, 4.57500873227473445204e-02) (59, -8.17499567144489347470e+00) (60, 5.55528552830183208755e+00) (61, 3.79855447371805965417e+01) (62, 7.98812408215209313056e+00) (63, 1.32260494724557489121e+01) (64, 3.08864797232273835537e-01) (65, 8.98864122495327100282e-01) (66, 1.50000000000000000000e+03) (67, -8.42083230196069187912e+00) (68, 2.80938236645499088695e+01) (69, -3.38031714561820750831e+00) (0, -1.50000000000000000000e+03) (1, -1.55440357095454061209e+02) (2, 1.42683273347450718660e+01) (3, 1.50000000000000000000e+03) (4, -1.15462890238139084431e+03) (5, 1.50000000000000000000e+03) (6, 1.04482021054496203760e+03) (7, 1.71276223830990548258e+00) (8, 2.71144345643110220578e+01) (9, 1.89824196259808502418e+02) (10, 1.99961716984881188175e+00) (11, -1.17124777297133917386e+01) (12, 1.50000000000000000000e+03) (13, -1.50000000000000000000e+03) (14, -1.50000000000000000000e+03) (15, -1.48236244808315041155e+03) (16, 4.32773204933867873478e+02) (17, 1.50000000000000000000e+03) (18, -1.74984443284988572032e+02) (19, 1.44913959487162082951e+03) (20, -1.50000000000000000000e+03) (21, -1.50000000000000000000e+03) (22, 3.74314238508835401831e+01) (23, 7.13352819155897210912e-01) (24, 1.50000000000000000000e+03) (25, -1.50000000000000000000e+03) (26, -1.50000000000000000000e+03) (27, -1.50000000000000000000e+03) (28, 1.96145817659289093626e+02) (29, -1.49552000633716625089e+03) (30, -1.50000000000000000000e+03) (31, 1.81129080380371938475e+01) (32, 1.50000000000000000000e+03) (33, 4.07608932400121304340e+01) (34, -1.50000000000000000000e+03) (35, -1.50000000000000000000e+03) (36, 4.93607042311564669035e+02) (37, 1.49035911278847197536e+03) (38, 1.50000000000000000000e+03) (39, 1.56900745054758576913e+01) (40, 1.49695346800994002479e+03) (41, -1.50000000000000000000e+03) (42, 1.50000000000000000000e+03) (43, 1.49715179428862847999e+03) (44, -1.52876819881193337647e-02) (45, 1.50000000000000000000e+03) (46, -1.50000000000000000000e+03) (47, 2.87729296465476579669e+02) (48, 1.35436593083478169319e+03) (49, 1.50000000000000000000e+03) (50, -8.75692041361268138644e+01) (51, -1.50000000000000000000e+03) (52, -2.94745413434012739629e+01) (53, -1.50000000000000000000e+03) (54, 1.50000000000000000000e+03) (55, -1.50000000000000000000e+03) (56, -1.50000000000000000000e+03) (57, 1.50000000000000000000e+03) (58, 2.73953544480696848495e+02) (59, 1.46999999880790710449e+03) (60, 1.21943612379167554138e+00) (61, -1.50000000000000000000e+03) (62, -1.50000000000000000000e+03) (63, 9.59864993031036874527e+02) (64, -1.47500000000000000000e+03) (65, -1.50000000000000000000e+03) (66, 1.50000000000000000000e+03) (67, 3.15796188821963248472e+01) (68, 1.15645251739288497106e+02) (69, 1.50000000000000000000e+03) (0, 3.05404368193158726186e+00) (1, 1.17369393172693268212e+01) (2, -1.17688036728400918784e-01) (3, 1.50000000000000000000e+03) (4, -2.18018581424046642425e+00) (5, -2.43448618169954222878e+00) (6, 2.80864916196377345514e+00) (7, -1.27245504542163412331e+00) (8, -4.46594582224188185737e-01) (9, -8.88571456255387692735e-01) (10, -7.01822616600442739099e+00) (11, -1.53107755355173003053e+00) (12, 2.02675581597080878282e+00) (13, 1.49423046644443141551e-01) (14, 2.55111979927533760737e-01) (15, -1.08678654682718134339e+00) (16, 2.88559887694040118067e-01) (17, -4.65373511998742162010e-01) (18, 4.12236054239777216512e-01) (19, 6.15562953516458510883e-01) (20, 2.59765597667211523003e-01) (21, 3.78353477996026876795e+00) (22, 1.73429107786198621888e+00) (23, -2.32785672666928233898e-01) (24, 1.50000000000000000000e+03) (25, 3.70061199702988452565e-01) (26, 1.02327836604886823757e+00) (27, -2.32625533237827086808e+00) (28, 5.02377399923106349178e+00) (29, 6.97276479833828677357e-01) (30, 2.88346417406514277104e+00) (31, -1.45479092443987179095e+00) (32, -1.80727103768416941243e+00) (33, -3.93589202345716904219e+00) (34, 1.29140326730170951208e-01) (35, 2.17818247131267156425e-01) (36, 2.60596284516567244793e-01) (37, 1.29830426687745181802e+00) (38, 6.39203833536827525919e-01) (39, 2.19253129353784981248e+00) (40, 9.70202754115596421869e-01) (41, 3.11849834374349044186e-01) (42, -5.12902358193458862701e-01) (43, 1.16455574190970256865e+00) (44, -1.45037257681586539970e-01) (45, 1.50000000000000000000e+03) (46, 3.58508343760988257287e+00) (47, -1.31272555812647429008e+00) (48, 2.26386849669289702547e+00) (49, 1.43723433974520165002e+00) (50, -8.83238339058862731434e-01) (51, -6.10969718220321400537e+00) (52, 1.75075132248110176825e+00) (53, -2.82011779830610009867e+00) (54, -2.59463375412550156796e+00) (55, 1.36458682559670949758e-02) (56, -2.22131659162626109161e-03) (57, -8.45457762038673066307e-01) (58, -8.58699874475720714706e-01) (59, 2.51666759742080248241e-01) (60, 5.01703228868118911166e-02) (61, 1.72287411956811159497e-01) (62, -3.38593174589261851348e-03) (63, -2.90038993919745102801e+00) (64, -1.98205914358978829704e-01) (65, -1.16903041802223259249e-01) (66, 1.50000000000000000000e+03) (67, 1.90502954784916589404e+00) (68, -8.86518129609872446162e-02) (69, 2.51122331077652138909e-01) (0, 2.13334988247788004401e+00) (1, 3.91312855528879843803e+00) (2, 9.97283315593844199576e-01) (3, 1.50000000000000000000e+03) (4, -7.96867935105286750996e-01) (5, 1.24104434948183484089e+00) (6, -1.57205180801577526495e+00) (7, -7.27027059842351075503e+00) (8, 1.46512607809651695945e+00) (9, -2.83153034993660002172e+00) (10, -1.00689855681292250722e+00) (11, -2.16487265169335962867e+00) (12, 1.05773909263779919421e+00) (13, 1.30945075823915402236e-01) (14, 3.17037333323610170943e-01) (15, -5.58151703171352542299e-01) (16, 1.06092560854781181590e+00) (17, 1.10570135279613768198e+00) (18, 1.65871060192968289293e+00) (19, 1.42366805057694811865e+00) (20, 2.46625464930189053359e-01) (21, -5.56156344413588965558e-01) (22, -6.39941466990526564018e+00) (23, -1.67871216659215227729e+00) (24, 1.50000000000000000000e+03) (25, -1.95611377529242291828e+00) (26, 4.42925009244077960702e-01) (27, -6.41474529121429792866e+00) (28, -6.09677265687721514631e-01) (29, -4.51953874466038207913e+00) (30, -6.86205424045770895347e-01) (31, 1.15808593931523290399e-01) (32, -3.41405536214048899168e+00) (33, 8.38257880411089839612e-01) (34, 2.76786867081280807401e-01) (35, 3.51187698095198619352e-01) (36, 1.92077745588899673201e+00) (37, 8.67525556832449362687e-01) (38, -1.35764467549682604774e-01) (39, -8.95426096697177875683e-01) (40, 1.04318079511193873010e+00) (41, 4.15112278907652620941e-01) (42, 4.20005974490387057330e+00) (43, 3.35101194604274121858e+00) (44, -3.18543481798114480608e-01) (45, 1.50000000000000000000e+03) (46, 9.53189682774109980912e-01) (47, -3.33172753893350048759e-01) (48, 2.19464662411885891302e+00) (49, 2.29515852216776616856e+00) (50, 1.18169755663042863603e+00) (51, -1.29106194446698396838e+00) (52, 2.29462332162018611825e+00) (53, 2.05870557065926496065e-01) (54, 6.04707455668723525832e+00) (55, 3.83566982596274252959e-01) (56, 4.04521129577513460784e-01) (57, 5.71905704517090995864e-01) (58, -8.07426929717473818027e-02) (59, 3.03299360124790917670e-01) (60, -7.71703516121887284074e-02) (61, -1.47394555073616917440e+00) (62, 4.24659184663649325042e-01) (63, 2.71892962404357163564e+00) (64, -3.78382400444564837017e+00) (65, 2.60938067258362216272e-01) (66, 1.50000000000000000000e+03) (67, -3.02432346359259707214e+00) (68, 1.68433772063208619940e+00) (69, 3.43843555263528721788e-01) (0, -1.50000000000000000000e+03) (1, -8.08289495249965057155e+02) (2, -2.62158847594027747618e+02) (3, 1.50000000000000000000e+03) (4, -1.90086437063330890851e+02) (5, 1.50000000000000000000e+03) (6, -8.09092688504701413876e+01) (7, -1.47626517079917007891e+01) (8, 2.79127694818577332114e+00) (9, 5.71261096535179376588e+02) (10, 4.52196914753080037030e+00) (11, -1.85096180608868152717e+01) (12, 1.50000000000000000000e+03) (13, -1.50000000000000000000e+03) (14, -1.50000000000000000000e+03) (15, -1.48236244808315041155e+03) (16, 2.53414503872325767020e+01) (17, 1.50000000000000000000e+03) (18, -2.73678236853710865617e+00) (19, 1.38801351226379006221e+03) (20, -1.50000000000000000000e+03) (21, -1.50000000000000000000e+03) (22, 7.87161242682126243153e+01) (23, 5.08331666773800927572e-01) (24, 1.50000000000000000000e+03) (25, -1.50000000000000000000e+03) (26, -1.50000000000000000000e+03) (27, -1.50000000000000000000e+03) (28, 2.07471353359531143212e+01) (29, -1.49731200369548832896e+03) (30, -1.50000000000000000000e+03) (31, 4.80691889920865733643e+01) (32, 1.50000000000000000000e+03) (33, 9.34979049439049170189e+00) (34, -1.50000000000000000000e+03) (35, -1.50000000000000000000e+03) (36, -2.70499521632897241830e+01) (37, 1.22740182819102392386e+03) (38, 1.50000000000000000000e+03) (39, 1.40418832758719780429e+01) (40, 1.48862261002297373125e+03) (41, -1.50000000000000000000e+03) (42, 1.50000000000000000000e+03) (43, 1.50000000000000000000e+03) (44, 2.21179036502331705094e+00) (45, 1.50000000000000000000e+03) (46, -1.50000000000000000000e+03) (47, 1.86090090351570864868e+02) (48, 2.16734945296319438057e+02) (49, 1.50000000000000000000e+03) (50, 2.59527531296393920712e+00) (51, -1.50000000000000000000e+03) (52, -1.20780114860442927238e+03) (53, -1.50000000000000000000e+03) (54, 1.50000000000000000000e+03) (55, -1.50000000000000000000e+03) (56, -1.50000000000000000000e+03) (57, 1.50000000000000000000e+03) (58, 1.48429863168988663347e+03) (59, 1.46999999880790710449e+03) (60, 1.25104440504988545513e+01) (61, -1.50000000000000000000e+03) (62, -1.50000000000000000000e+03) (63, 1.43500925567439662700e+03) (64, -1.47500000000000000000e+03) (65, -1.50000000000000000000e+03) (66, 1.50000000000000000000e+03) (67, 9.95502395334780544545e+02) (68, 6.31716497262446750938e+02) (69, 1.50000000000000000000e+03) (0, 4.58610189545752575668e+01) (1, 3.75133328344941361365e+01) (2, 6.26267455770524250624e+00) (3, 1.50000000000000000000e+03) (4, 1.43507658204204897601e+01) (5, -5.91399937025383426459e+00) (6, 4.97948306818238695115e+00) (7, 5.62916089121126272943e+00) (8, 3.66713477200924176103e+00) (9, 4.17079967088368874784e+00) (10, 5.67633387616703011247e+00) (11, 1.32648866447201574381e+00) (12, -1.14481487563073769387e+00) (13, 4.35417345233620523004e+00) (14, 4.23586326159895687482e+00) (15, -4.48708828981761982391e+01) (16, 3.91980465364841279552e+00) (17, -5.19186231705011103088e+00) (18, 1.41803516580176669493e+01) (19, 2.35151153087054121116e+00) (20, 4.31507057018936990289e+00) (21, 1.08722709555634313716e+01) (22, -1.11694784087675369477e+00) (23, 6.96839816281897728167e-01) (24, 1.50000000000000000000e+03) (25, 6.29961998098707987026e+00) (26, 6.01364218867086286480e+00) (27, -2.61566427573955406771e+00) (28, 1.99358614118423354000e+01) (29, 9.71366566653816398969e+00) (30, 1.94401650455253900418e+01) (31, -2.37230834501434717509e+00) (32, -1.17713445186173828461e+01) (33, -1.13989928404724203403e+01) (34, 6.83652724708174730495e+00) (35, 6.82683425779198671535e+00) (36, 1.87485254935015599465e+00) (37, 6.08726226301575135125e+00) (38, -4.82428244685340867903e+00) (39, 2.69357742402306099549e+00) (40, -9.13842421965288131958e+00) (41, 6.86679901565169359401e+00) (42, 4.49023303551773533826e+00) (43, -3.84591926956609864163e+00) (44, 7.31056160316505332375e-01) (45, 1.50000000000000000000e+03) (46, 8.29492118634831676616e+00) (47, -4.85934140458166474730e+00) (48, -4.54281192530231603399e+00) (49, 5.97442299175957369783e+00) (50, 1.11775280293141427990e+01) (51, 3.43891241016189708191e+00) (52, -4.25040698935567107242e+01) (53, -2.89734835116163325086e-01) (54, -8.73606444521469249764e+00) (55, 6.87357708449219728664e+00) (56, 6.92330321307038332179e+00) (57, -7.50163633426495035650e+00) (58, 5.52057684509099821923e+00) (59, -2.53986048852185746227e+01) (60, 4.26881447926215407129e-01) (61, 1.47405647954059730864e+01) (62, 6.85387139404868328540e+00) (63, 9.47652785712298495469e+00) (64, -3.49016254875030140781e+00) (65, 1.13190171514839210687e+00) (66, 1.50000000000000000000e+03) (67, -7.84681354727924240677e+00) (68, 9.70118887126148798927e+00) (69, -2.79964408574684586739e+00) (0, 1.34199412732521827785e+00) (1, 7.16468268487885229234e+00) (2, -1.51139879216948669338e+00) (3, 1.50000000000000000000e+03) (4, 8.30641823475887552952e-01) (5, 2.67235520934103520929e+00) (6, 2.48911624106410567236e+00) (7, 5.67140909434661022459e+00) (8, 1.27023564163821323092e+00) (9, 2.68600344474121044414e+00) (10, -5.32504003813222936969e+00) (11, 1.42679268286030414004e+00) (12, -8.48535448062092534371e+00) (13, 4.42029103857390220922e-02) (14, -1.37496649998315439295e-02) (15, -1.15750367073105242532e+00) (16, 1.47613357506942777242e+00) (17, -2.92286458458628828350e-01) (18, 3.66552004348023263702e+00) (19, -2.95642072202590133756e+00) (20, -3.85611489194521289692e-02) (21, 1.68865783832905824724e+00) (22, -7.36659914017315897716e-01) (23, -4.73374487924579090414e-01) (24, 1.50000000000000000000e+03) (25, 3.91117692696681173992e-01) (26, 1.73251909019852612381e+00) (27, -1.18633571949617189212e+00) (28, -4.05002551875095484490e-01) (29, -1.23085603408864296959e+00) (30, 9.28704891598252313401e-01) (31, -2.02480755982921900582e+00) (32, -3.20952383246899275449e+00) (33, -2.84864726337041229698e+00) (34, 4.54918851076349384233e-02) (35, 6.46946241079553174824e-02) (36, 1.70364020384108538764e+00) (37, -3.45622790072960528462e+00) (38, -2.13430498812521829421e+00) (39, 2.09554898252750687604e+00) (40, 1.67471602557475662820e+00) (41, -2.49664525569693387941e-02) (42, 1.19592082704786650815e+00) (43, -3.48107205144962295051e-01) (44, -5.51402324692491022096e-02) (45, 1.50000000000000000000e+03) (46, 2.80453283956977816871e+00) (47, 2.81841542823025292819e+00) (48, -1.94169695015167703689e-01) (49, 2.18601713205707159915e+00) (50, -2.05993885675729709872e-01) (51, -1.00409929530478225779e+00) (52, -2.84376174980639095935e+00) (53, 1.52339357888295534593e+00) (54, 1.03488506416807197752e+01) (55, -3.54672486962096245033e-02) (56, -1.53770635904089871676e-02) (57, 1.06272665303852953400e+00) (58, 1.39397909526257013368e+00) (59, -1.06912649401196491183e+00) (60, -2.58971446936945293160e+00) (61, 9.89991934755265257095e-01) (62, 6.43726249157174634785e-02) (63, -2.98355055545604708200e+00) (64, -5.81760462645278142446e-01) (65, -3.49596159575987608381e-01) (66, 1.50000000000000000000e+03) (67, -9.24487093806673709828e-01) (68, 1.83526009028619996322e+00) (69, 4.04447973304200236733e-01) (0, 2.08174257847387272902e-01) (1, 4.34396446458274620994e+00) (2, 3.16403542954274996646e+00) (3, 1.50000000000000000000e+03) (4, 6.55592429734904391658e-01) (5, 2.96423274037821538052e-01) (6, -6.16643939157301090859e-01) (7, -6.05001096835332230484e+00) (8, 1.41945293119656712477e+00) (9, 5.97130853239529635346e+00) (10, -1.70739025255642173917e+00) (11, 4.48398421919614598163e-01) (12, -2.79283536490528483398e+00) (13, 2.14009411975110613868e-01) (14, 1.21618837460244350046e-01) (15, 1.57909556872660505888e+00) (16, 3.24817211266893168808e-01) (17, 3.64704356684683927980e-01) (18, 2.92232615375723447926e+00) (19, -1.90120717475089007209e+00) (20, 2.19375960870946545844e-01) (21, 1.37526001517463081214e+00) (22, -1.00747840061363613806e+00) (23, -1.24243059848681536295e+00) (24, 1.50000000000000000000e+03) (25, -8.97875766981573036896e-02) (26, 1.50679728387358413677e+00) (27, -2.16627870003917838426e-01) (28, -3.63210252574638614576e+00) (29, -1.68673038846028411353e-01) (30, -2.40885216111401545547e+00) (31, -6.01822423167043596415e-01) (32, -1.03247884891720320688e-01) (33, -2.92293924650454428615e+00) (34, 1.28665049925448665702e-01) (35, 2.73412933006885738862e-01) (36, -1.41212908344438003994e+00) (37, 7.08639113487285476900e-01) (38, -1.73511200621090877494e-01) (39, 2.44474229219266647739e-01) (40, -1.85324139388042263832e+00) (41, 2.34282990351321607214e-01) (42, 1.74164525897957322975e+00) (43, -2.30035756765612386943e+00) (44, -2.44937292267957545944e-01) (45, 1.50000000000000000000e+03) (46, 1.11475086840082004969e+00) (47, 2.08586307191329467514e+00) (48, 2.19406879545813726651e+00) (49, 3.28827865483755754639e+00) (50, 1.01683883046269674111e+00) (51, 3.72412397950734941343e-01) (52, -4.19829381013038993586e+00) (53, 8.18219555079703453337e-01) (54, 1.53513579347104589523e+00) (55, 1.86261763229968402289e-01) (56, 3.01334758654239864839e-01) (57, -4.24886684110371692924e+00) (58, -3.31966922046498177923e-02) (59, 2.67192409494785898527e-01) (60, -8.95356452782548051239e-01) (61, -1.13879026657530468825e-01) (62, 2.89397274509075375093e-01) (63, 4.53730286318741793394e+00) (64, -3.63593712011663239281e+00) (65, -1.12266531247194389920e+00) (66, 1.50000000000000000000e+03) (67, 4.59388936000245440283e+00) (68, -1.41972628090692332137e+00) (69, 3.29441932759190370117e-01) (0, 3.13597306526826136164e+00) (1, 1.87016282015313972664e+00) (2, -1.64346935959990281262e+00) (3, 1.50000000000000000000e+03) (4, -4.09150568366904832107e-01) (5, 2.96984162808887131035e+00) (6, -8.96454577849255329625e+00) (7, 3.22206098905441962188e+00) (8, -3.30986837769215469507e+00) (9, 6.54661218591334304051e-01) (10, -1.45116442483159691079e+00) (11, 8.16619619532102491988e-01) (12, 5.81722069000825126039e+00) (13, 3.60175367595993167757e-01) (14, 4.01489559712253751833e-01) (15, -2.01859386819734837326e-01) (16, 2.33692361642650325848e+00) (17, 2.25407607296236128791e-01) (18, 1.21584056341018809100e+00) (19, 3.94256752015335543149e+00) (20, 3.46393328311287163057e-01) (21, -2.96837133631178939908e+00) (22, -9.17854275863280610892e-01) (23, -1.17883097368223754842e+00) (24, 1.50000000000000000000e+03) (25, 6.65217352116901139425e-01) (26, -2.08051119192533467972e-01) (27, -5.36412393410605481403e-02) (28, -1.46635297413847376369e+00) (29, 1.11955535639361447586e+00) (30, -2.36066788274482242116e+00) (31, -1.07857323560759987835e+00) (32, 1.40631505740731577170e+00) (33, 4.10735500730611313713e+00) (34, 3.76091473004169729588e-01) (35, 3.71942050954647274175e-01) (36, 1.62590586555217658793e-01) (37, -4.27349742510359287273e-01) (38, 1.80976011517130208617e+00) (39, 4.20313455884574804777e-01) (40, 1.47417843420119099029e+00) (41, 3.29184979399986477056e-01) (42, 5.36069562772429097919e+00) (43, 1.11446067373271939793e+00) (44, -8.89391058832828158842e-03) (45, 1.50000000000000000000e+03) (46, 1.71216849393756676001e+00) (47, -1.44937778647815007638e+00) (48, 4.47715055131528816279e-01) (49, -4.95359931899089445118e-01) (50, -4.72765110061941995490e-01) (51, -1.41186051038555704373e+00) (52, 2.41826359715423144792e+00) (53, 1.18454066232107169121e+00) (54, 8.11197726014686870677e-01) (55, 4.22217302223987844823e-01) (56, 4.08884041210956838963e-01) (57, 4.80705884645188508131e+00) (58, 1.81275658920025684040e+00) (59, 1.30506004395973240761e+00) (60, 1.60712026234695048998e-01) (61, 2.47649187470181858517e-01) (62, 3.53337235948391226170e-01) (63, 1.43586748146839471296e+00) (64, -3.65322361058543254586e+00) (65, 3.79373283628262780720e-01) (66, 1.50000000000000000000e+03) (67, 1.74230536897988019795e+00) (68, -3.00270288248179317847e+00) (69, 2.73309452597702451371e-01) (0, -1.50000000000000000000e+03) (1, -7.78061444271767868486e+02) (2, 2.86130544388404416623e+02) (3, 1.50000000000000000000e+03) (4, -1.49046689875430865868e+03) (5, 1.50000000000000000000e+03) (6, -1.45555597481930590220e+03) (7, -9.59447349196212329048e+00) (8, 1.40923311606683137143e+03) (9, -3.09877012196651719478e+02) (10, -1.17109290157145801459e+03) (11, -5.08704707874479368002e+02) (12, 1.50000000000000000000e+03) (13, -1.50000000000000000000e+03) (14, -1.50000000000000000000e+03) (15, -1.48236244808315041155e+03) (16, 1.49540595525953835931e+03) (17, 1.50000000000000000000e+03) (18, 1.02886397460650277935e+03) (19, 1.45830468562277133060e+03) (20, -1.50000000000000000000e+03) (21, -1.50000000000000000000e+03) (22, 2.49426821149273706624e+02) (23, -9.81492380317124855083e+01) (24, 1.50000000000000000000e+03) (25, -1.50000000000000000000e+03) (26, -1.50000000000000000000e+03) (27, -1.50000000000000000000e+03) (28, -3.93991735598207810654e+02) (29, -1.49552000633716625089e+03) (30, -1.50000000000000000000e+03) (31, -1.71940005061000277919e+02) (32, 1.50000000000000000000e+03) (33, -2.25290131651077587094e+02) (34, -1.50000000000000000000e+03) (35, -1.50000000000000000000e+03) (36, -1.49437526276605422026e+03) (37, 4.99963048982389068442e+02) (38, 1.50000000000000000000e+03) (39, 3.45066761655337757020e+01) (40, 1.48759346838187320827e+03) (41, -1.50000000000000000000e+03) (42, 1.50000000000000000000e+03) (43, 1.50000000000000000000e+03) (44, -1.39965359643587885330e+03) (45, 1.50000000000000000000e+03) (46, -1.50000000000000000000e+03) (47, 1.49493409899177481748e+03) (48, 1.49998566186497328090e+03) (49, 1.50000000000000000000e+03) (50, -1.29848997895607499231e+03) (51, -1.50000000000000000000e+03) (52, -1.49471783541780632731e+03) (53, -1.50000000000000000000e+03) (54, 1.50000000000000000000e+03) (55, -1.50000000000000000000e+03) (56, -1.50000000000000000000e+03) (57, 1.50000000000000000000e+03) (58, -9.67578753303259873064e+02) (59, 1.46999999880790710449e+03) (60, -1.12740907184044067435e+03) (61, -1.50000000000000000000e+03) (62, -1.50000000000000000000e+03) (63, -1.24515287586144449961e+03) (64, -1.47500000000000000000e+03) (65, -1.50000000000000000000e+03) (66, 1.50000000000000000000e+03) (67, -1.20417066576396473465e+03) (68, -1.45349618207227717903e+03) (69, 1.50000000000000000000e+03) (0, 3.99004122494885660188e+00) (1, -5.07051077840581343459e-01) (2, 1.52776629819931519805e+00) (3, 1.50000000000000000000e+03) (4, -3.49957998846467221998e-01) (5, -2.63032319345709253433e-01) (6, 2.53504153658147379780e-01) (7, 4.22002421075363276515e+00) (8, 1.85609388336504399497e+00) (9, 1.05655061744475453622e+00) (10, -2.20525596101917376046e+00) (11, 5.44854209211337980889e+00) (12, 2.21270102997884743345e+00) (13, 4.99782807370808754288e-02) (14, 1.30944961979069990354e-01) (15, -4.62932561676067180767e-02) (16, 4.12095599192513373232e-01) (17, 3.78366893753349697871e-01) (18, 3.79072339142269187917e+00) (19, 6.33308657110431494353e-01) (20, 4.55456434926179501432e-02) (21, 4.36085499461076597782e+00) (22, -1.31126549949767440273e-01) (23, -8.93762891280132421024e-01) (24, 1.50000000000000000000e+03) (25, -3.44141726366060884956e+00) (26, 7.28538546063511205375e-01) (27, -1.73111044293396876270e+00) (28, 4.90026091989012169137e+00) (29, -7.21354554277410797702e-01) (30, -9.22861701861416916515e-01) (31, 1.10020566061532498736e+00) (32, -9.99598414809278801307e-01) (33, -3.36055891877263257506e-01) (34, 5.11194459584493277049e-01) (35, 4.42369728770991843536e-01) (36, 5.04102337643146884011e-03) (37, -1.30112141607545495070e+00) (38, -3.05982566947659573309e-01) (39, 1.66865983421737040793e+00) (40, -4.40970223820023399242e+00) (41, 5.66889501598615397349e-01) (42, 5.24062458236236849984e+00) (43, 2.45633590758099673579e+00) (44, -2.63325381179294770728e-01) (45, 1.50000000000000000000e+03) (46, 1.32644851007786668262e+00) (47, -1.88927943041903811938e+00) (48, 2.47987474082495129579e+00) (49, -1.74658477287521540777e-01) (50, -5.92293723258271342935e-01) (51, 1.11075969645150207654e+00) (52, -6.17721162396223721913e+00) (53, -5.34131103153761888080e-01) (54, 5.37919960220729542755e+00) (55, 4.67395111408969443634e-01) (56, 5.06787210193414439097e-01) (57, 1.37142679360978836378e+00) (58, 1.27030654040496271406e+00) (59, 3.84196648664323303635e+00) (60, -6.21646055467601321709e-01) (61, -2.60915862866370185102e+00) (62, 5.66211662677068461313e-01) (63, -5.07372842953559555212e-01) (64, 1.57181807872350365329e+00) (65, 1.58774899882520886818e-01) (66, 1.50000000000000000000e+03) (67, 8.18609030364794709733e-02) (68, -1.35942048239227786244e-01) (69, 2.57658575857740101966e-01) (0, 1.33315968333781881938e+02) (1, 2.30668215347327958398e+01) (2, 1.61321556842529396647e+01) (3, 1.50000000000000000000e+03) (4, 1.97942899670974021831e+01) (5, -1.44246465297409400819e+01) (6, 1.03865066844893561004e+00) (7, 1.89331632540355232486e+00) (8, 1.40295930628782343774e+01) (9, 2.70092389825607526177e+00) (10, 8.32288336593644295647e+00) (11, 1.22141476829874040533e+00) (12, 2.51528228094086170330e+00) (13, 4.11659916169387507523e+00) (14, 4.17400610871059019047e+00) (15, -6.74784999504395841541e+01) (16, 3.72743646225926372750e+00) (17, -1.14629758713945921755e+01) (18, 5.36619669606429781084e+01) (19, 1.12672420464284037678e+01) (20, 4.15990622765761930424e+00) (21, 7.20256254382114757817e+00) (22, -1.17920431470475914892e+01) (23, 4.65038908610735768345e-01) (24, 1.50000000000000000000e+03) (25, 4.20299902454141616204e+01) (26, 7.55478376272357632359e+00) (27, 1.71702724500064896063e+01) (28, -8.77400908685772695783e-01) (29, 1.00465519845164834578e+01) (30, 1.39296707771894858752e+01) (31, 2.53343381345692630902e+00) (32, -2.07127366741605882794e+01) (33, -7.34301447882668778533e+00) (34, 8.30771115803146997791e+00) (35, 8.27455249064589359875e+00) (36, -3.16597485165909020566e+01) (37, 2.32749789060620759784e+00) (38, -4.48911164643593529888e+00) (39, 5.05693887376475892381e+00) (40, 6.37168623835405067979e+00) (41, 8.28048459821368076916e+00) (42, -4.25745428994715435778e+00) (43, -6.61919324779497930678e+00) (44, 8.76261738134134104961e-01) (45, 1.50000000000000000000e+03) (46, 3.96301875153851241862e+01) (47, -4.18579247760724726390e+01) (48, -9.00634044809182654490e+00) (49, -1.76379396729480646400e+01) (50, 1.07055571424673701131e+00) (51, 1.88324784339890847207e+01) (52, -1.57680050739165036333e+01) (53, 2.81132066610699169473e+01) (54, -8.32424409915986984743e+00) (55, 8.26173104726696827527e+00) (56, 8.28685711705113270398e+00) (57, -4.35727115014292465389e+01) (58, 1.53047795951578819995e+01) (59, -5.40574949053845088542e+00) (60, 7.72390315668281157713e+00) (61, 1.85822588642105515078e+01) (62, 8.37488744043732324940e+00) (63, -5.49622550953329999657e-02) (64, -5.74072354412078378338e-01) (65, 1.76938266986092820332e+01) (66, 1.50000000000000000000e+03) (67, 5.15973953615055935806e-01) (68, 7.51721483204677820567e+00) (69, -2.67154897853038209021e+00) (0, 7.32699713865774676647e-02) (1, 4.67580633763566400063e+00) (2, -4.61054126270407760302e-01) (3, 1.50000000000000000000e+03) (4, -1.05635907413917401465e-01) (5, 7.87619832613085879558e-01) (6, -5.29656906953918649172e-01) (7, -1.65384350496345544634e+00) (8, -4.33662974957515268137e-01) (9, 1.05549790401485110714e+00) (10, 4.89640893211944749908e+00) (11, -5.00116913199040280524e-01) (12, 7.03860111455513060008e+00) (13, 3.66596466277997190542e-02) (14, 4.54276724134842629921e-02) (15, 1.00469922696001212614e+01) (16, -1.93519175812848298612e+00) (17, 1.32536972148668885652e+00) (18, 2.96789504617044397339e-01) (19, 2.32267498536387373420e+00) (20, -1.71951429570754606158e-02) (21, 2.06526821224240864083e+00) (22, -5.30825478047825871641e-01) (23, -1.41356790182585267956e+00) (24, 1.50000000000000000000e+03) (25, 3.74626321823853913884e-01) (26, 2.34027499477740930089e+00) (27, -6.24037600815993354075e+00) (28, -4.60105345132771792471e-01) (29, -2.09482789122589796449e+00) (30, 2.13217819214504888947e-01) (31, 2.55140659452230744719e-01) (32, 9.52949903951292576210e+00) (33, -9.62887786008392154713e+00) (34, 2.03727155122232272966e-01) (35, 4.79768730134490922756e-02) (36, -3.92826244436989435727e-01) (37, -6.97244211054171336706e-01) (38, 1.18425025634619629500e+00) (39, 1.05288333851518034479e+00) (40, -6.19095099864569786696e-01) (41, 6.55029408068183993663e-02) (42, -9.84708808102111032845e-01) (43, -1.05898563242327825584e+00) (44, -4.75906604533710003713e-02) (45, 1.50000000000000000000e+03) (46, 2.68097021614857933258e+00) (47, 1.30004786687569484638e-01) (48, 2.80425130200485372978e-01) (49, -1.92280423872347006053e+00) (50, -1.68029457370041868103e+00) (51, -1.72971337547711678795e+00) (52, 1.15816247757658766226e-01) (53, -2.37112443497587976893e+00) (54, -4.17034655055118985700e+00) (55, -5.13398355191508216216e-03) (56, 3.00892322664900215001e-02) (57, 1.01458625044843198104e+00) (58, 6.85986917176821253683e-01) (59, -1.30688169608776516561e+00) (60, -6.70948077261716013808e-01) (61, -5.53997092250086797804e+00) (62, -1.58867359752014845886e-02) (63, -2.09803136820214986002e+00) (64, 6.67285697077338091354e-01) (65, -2.46959749871500933160e-01) (66, 1.50000000000000000000e+03) (67, -1.64722927657367312904e+00) (68, -8.96747710009269449749e-01) (69, 3.24202014465464261050e-01) (0, -1.50000000000000000000e+03) (1, -3.12660268352295474870e+02) (2, 2.84279229394571927969e+02) (3, 1.50000000000000000000e+03) (4, -1.49046689875430865868e+03) (5, 1.50000000000000000000e+03) (6, -1.38708454265105115155e+03) (7, 9.49450413813050744238e+01) (8, 1.49980002931104877462e+03) (9, -1.39736099400425132444e+02) (10, -1.12941055155774506602e+03) (11, -2.43548828805258068542e+02) (12, 1.50000000000000000000e+03) (13, -1.50000000000000000000e+03) (14, -1.50000000000000000000e+03) (15, -1.48236244808315041155e+03) (16, 1.49540595525953835931e+03) (17, 1.50000000000000000000e+03) (18, 1.02700347311641098713e+03) (19, 1.45830468562277133060e+03) (20, -1.50000000000000000000e+03) (21, -1.50000000000000000000e+03) (22, 9.46597513356918511818e+02) (23, -8.08416794605451286770e+02) (24, 1.50000000000000000000e+03) (25, -1.50000000000000000000e+03) (26, -1.50000000000000000000e+03) (27, -1.50000000000000000000e+03) (28, 1.93218316854983640951e+02) (29, -1.49552000633716625089e+03) (30, -1.50000000000000000000e+03) (31, 3.93031113267579996773e+02) (32, 1.50000000000000000000e+03) (33, -3.85807965680695090782e+01) (34, -1.50000000000000000000e+03) (35, -1.50000000000000000000e+03) (36, -1.48525000610840561421e+03) (37, 1.44962738968910412041e+03) (38, 1.50000000000000000000e+03) (39, 7.28875190947088071880e+01) (40, 1.48759346838187320827e+03) (41, -1.50000000000000000000e+03) (42, 1.50000000000000000000e+03) (43, 1.50000000000000000000e+03) (44, -1.38702520370047500364e+03) (45, 1.50000000000000000000e+03) (46, -1.50000000000000000000e+03) (47, 1.49788920799711308973e+03) (48, 1.49999402577730893427e+03) (49, 1.50000000000000000000e+03) (50, -1.25551677179128205353e+03) (51, -1.50000000000000000000e+03) (52, -1.45388278515279148451e+03) (53, -1.50000000000000000000e+03) (54, 1.50000000000000000000e+03) (55, -1.50000000000000000000e+03) (56, -1.50000000000000000000e+03) (57, 1.50000000000000000000e+03) (58, -1.18071078346617173338e+03) (59, 1.46999999880790710449e+03) (60, -1.00680090659572806544e+03) (61, -1.50000000000000000000e+03) (62, -1.50000000000000000000e+03) (63, -1.24515287586144449961e+03) (64, -1.47500000000000000000e+03) (65, -1.50000000000000000000e+03) (66, 1.50000000000000000000e+03) (67, -1.39253590887616451255e+03) (68, -1.49953560426472290601e+03) (69, 1.50000000000000000000e+03) (0, -1.50000000000000000000e+03) (1, -2.11108964119215329447e+02) (2, 3.36446494341042694032e+02) (3, 1.50000000000000000000e+03) (4, -1.22161055847813486253e+03) (5, 1.50000000000000000000e+03) (6, -7.92853096356951596135e+02) (7, -8.95807310007790014161e-01) (8, 1.96189315964936128012e+02) (9, -9.34372370652277850489e-01) (10, 1.10568236938394375102e+03) (11, -3.14470518975496702296e+02) (12, 1.50000000000000000000e+03) (13, -1.50000000000000000000e+03) (14, -1.50000000000000000000e+03) (15, -1.48236244808315041155e+03) (16, 1.26354496875061317951e+03) (17, 1.50000000000000000000e+03) (18, -3.23909039367286879951e+02) (19, 9.77801730516879388233e+02) (20, -1.50000000000000000000e+03) (21, -1.50000000000000000000e+03) (22, 2.90364760645792500782e+02) (23, 8.73961229237341683529e+01) (24, 1.50000000000000000000e+03) (25, -1.50000000000000000000e+03) (26, -1.50000000000000000000e+03) (27, -1.50000000000000000000e+03) (28, 3.74043121596906686932e+01) (29, -1.49552000633716625089e+03) (30, -1.50000000000000000000e+03) (31, 4.74564625281848350369e+02) (32, 1.50000000000000000000e+03) (33, -1.05413945820710335255e+01) (34, -1.50000000000000000000e+03) (35, -1.50000000000000000000e+03) (36, 6.86851603291793253447e+02) (37, 2.30922868556265427742e+02) (38, 1.50000000000000000000e+03) (39, 8.09831011592764156148e+01) (40, 1.48759346838187320827e+03) (41, -1.50000000000000000000e+03) (42, 1.50000000000000000000e+03) (43, 1.50000000000000000000e+03) (44, 2.92795990726817422001e+02) (45, 1.50000000000000000000e+03) (46, -1.50000000000000000000e+03) (47, -4.55997873882811575186e+02) (48, 1.54135085617603930785e+01) (49, 1.50000000000000000000e+03) (50, 1.34630491930904554465e+03) (51, -1.50000000000000000000e+03) (52, 2.12890911277629271581e+02) (53, -1.50000000000000000000e+03) (54, 1.50000000000000000000e+03) (55, -1.50000000000000000000e+03) (56, -1.50000000000000000000e+03) (57, 1.50000000000000000000e+03) (58, 1.25872564083507100463e+02) (59, 1.46999999880790710449e+03) (60, -1.52791546133595687706e+02) (61, -1.50000000000000000000e+03) (62, -1.50000000000000000000e+03) (63, 1.35677151961376421241e+03) (64, -1.47500000000000000000e+03) (65, -1.50000000000000000000e+03) (66, 1.50000000000000000000e+03) (67, -7.81204676061388880726e+01) (68, 8.88673143878706241594e+02) (69, 1.50000000000000000000e+03) (0, 5.27232998078084946769e+00) (1, 1.16481125315340072746e+01) (2, 6.66373671545345480638e+00) (3, 1.50000000000000000000e+03) (4, 5.30164708955966457182e+00) (5, 7.03046246360635862516e+00) (6, -2.11670280273544086924e+01) (7, 4.32640680559355228496e+00) (8, 4.82870177723060933772e+00) (9, 3.61464162704453695341e-01) (10, -3.23912447682604565102e+00) (11, 4.36410974088982239749e+00) (12, 6.03414250337989077622e+00) (13, 2.74656952240280327615e+00) (14, 2.59309871562532645584e+00) (15, -2.40002916038510516472e+00) (16, 1.28342617954108053624e+01) (17, 7.59529572692239196563e-01) (18, 4.70095186708856882518e+00) (19, 3.57703679337162760987e+00) (20, 2.72012507238201362014e+00) (21, 1.59007338436852907471e+00) (22, 4.75608840499239460264e-01) (23, 4.85563710921939561960e-01) (24, 1.50000000000000000000e+03) (25, 2.84770995214410227447e+00) (26, -2.81450793407917176925e-01) (27, 2.15364210561241753439e+00) (28, 3.99859694464860293550e+00) (29, 9.95001535226990863059e-01) (30, 1.02148379962942126298e+01) (31, -1.87186286772383270183e+00) (32, 3.78899164822241563133e-01) (33, -1.66941192020177915367e+01) (34, 2.75617265809720590752e+00) (35, 2.80090606321042567828e+00) (36, -2.32458426134929396767e+00) (37, 5.23196557069068024504e+00) (38, -2.61049845954055204089e+00) (39, 1.01148299525760920758e+00) (40, 3.97676825817733536894e+00) (41, 2.76624156643098428887e+00) (42, 1.45490692779843833193e+01) (43, 3.36137108677007656610e+00) (44, 1.68790804617036793722e+00) (45, 1.50000000000000000000e+03) (46, 2.78827875564467575487e+00) (47, 5.25184200846893567416e+00) (48, -5.49778865131051341919e-01) (49, 1.47142354099093042308e+00) (50, 1.34359974049787993522e+01) (51, -6.13464619127339627624e-01) (52, 4.62428922580541551524e-02) (53, 1.99861218679984187219e-01) (54, 1.09857480819821802243e+01) (55, 2.79053074229901820758e+00) (56, 2.65693167705482080621e+00) (57, -1.14781436951258219992e+00) (58, 6.25468583846183645569e-01) (59, 1.26621217330413688984e+01) (60, -1.10023210043739813613e-01) (61, 2.40989954582016396856e+00) (62, 2.65302577723210886163e+00) (63, 2.31167834082091294690e+00) (64, 3.50618043938354384537e+00) (65, 6.60580135519705402558e-01) (66, 1.50000000000000000000e+03) (67, 1.75340960633665998714e+00) (68, 4.26424492302769075902e-01) (69, -3.80724415961496531757e-01) (0, 3.77448294697147357368e+00) (1, 7.06648285053596225680e+00) (2, -1.01961234302384928796e+00) (3, 1.50000000000000000000e+03) (4, 1.61015463614694875893e+00) (5, 3.71378843127474622676e+00) (6, -3.20955930529648436611e-01) (7, 1.66695015181138495031e+00) (8, 1.66583246046819311026e+00) (9, -1.15073394005087958902e+00) (10, -5.49698414789174472084e-01) (11, 3.17249465295235077988e+00) (12, 7.31688997907747395999e+00) (13, 1.59534286407545466968e-01) (14, -1.56251753887384700614e-02) (15, -9.40997359758393159268e-02) (16, 9.94984196625758654520e-01) (17, 2.00086437969982267049e+00) (18, -2.65629150394835455984e+00) (19, 5.61088372066873386501e+00) (20, 4.70508743801863679734e-02) (21, 1.23214643715142746494e+00) (22, 4.13347473474501647672e+00) (23, -2.10019661799939916236e+00) (24, 1.50000000000000000000e+03) (25, -1.74638552607363051195e+00) (26, 1.47306744488371954560e+00) (27, -5.09537566833474198091e+00) (28, 4.12761727692454538641e+00) (29, -3.35700768211999900359e+00) (30, 6.41844285073518516782e+00) (31, -8.65311929423284809104e+00) (32, 5.41370685189518852098e+00) (33, -3.41728343683673241316e+00) (34, 1.84430144235212395420e-01) (35, 9.61589584794823731828e-02) (36, 1.97481336504392895881e-01) (37, -7.76355521622461908215e-01) (38, 1.20723886876058797424e-01) (39, 2.25522649787909967856e+00) (40, 7.99939164813830938527e+00) (41, 1.46932072445470796040e-01) (42, -7.51182265610306432180e-01) (43, 4.60425684671273927062e-01) (44, -4.16969095751077600820e-01) (45, 1.50000000000000000000e+03) (46, 2.38564835953473242114e+00) (47, -4.54196868965003197616e+00) (48, -1.74136479821359213549e-01) (49, -1.73898646631224651493e+00) (50, 3.32916858260364101341e+00) (51, -1.08781865863484821233e+01) (52, 1.24888210601338242589e-01) (53, 6.29819669960048766910e+00) (54, 4.69511899490811135394e+00) (55, 8.27194372859780119311e-02) (56, 4.41843713370151658371e-02) (57, 8.68618835336042893758e-01) (58, -1.43117275257478193673e+00) (59, 3.99785564122625558525e-01) (60, -5.30319454683834790032e-01) (61, 1.51863688402542296174e+00) (62, 8.66662705984895392897e-02) (63, 7.26055560630513574516e-01) (64, -1.25650734510918526965e+00) (65, -1.04964097503268050104e+00) (66, 1.50000000000000000000e+03) (67, 4.78318609588082921391e-01) (68, -1.73040620374213549582e+00) (69, 4.52671734912944601081e-01) (0, 3.34177358217390674255e+00) (1, 3.55906406241534467583e+00) (2, -2.37172090137601487836e-01) (3, 1.50000000000000000000e+03) (4, 4.65146540129646446360e+00) (5, 3.52977019240630163210e+00) (6, -2.73585600244296145434e+00) (7, 5.51362909242689092082e+00) (8, -8.49724164994430153364e-01) (9, 3.42083734356532076504e+00) (10, 2.25026074149707255856e+00) (11, -1.40455523127368442360e+00) (12, 4.63166421811568618239e+00) (13, 7.69198989039725500305e-02) (14, -2.48096952670745114766e-02) (15, -3.42599706603435816277e+00) (16, 1.01900766923784225071e+00) (17, -2.05972383665311703504e-01) (18, -4.40918110525305106950e-01) (19, -1.85648785398428706195e+00) (20, -6.15639271670511689649e-02) (21, 1.89736753058069496092e+00) (22, -1.43499334643035858505e+00) (23, -7.59149358064647339361e-01) (24, 1.50000000000000000000e+03) (25, 1.97603609046462486143e-01) (26, 7.18719944532564269934e-01) (27, -2.47056820046976710614e+00) (28, -2.77534644833382104778e+00) (29, 1.70203023918092033462e+00) (30, 1.27140869041264070738e+00) (31, -2.15204779732125572878e+00) (32, 4.75917315305525878699e+00) (33, -1.32475723714466631087e+00) (34, 4.97804687190011169173e-02) (35, 1.36375830340340342683e-02) (36, -1.97276168222982573042e+00) (37, -7.15247937765721986114e-02) (38, 1.25656412753475543731e+00) (39, -1.46223785133150974147e+00) (40, -7.01861713509114415466e-01) (41, 9.56973538565589754157e-02) (42, 4.45790408622142531048e-01) (43, 4.35722184690147451569e-01) (44, -5.15066922490242884436e-01) (45, 1.50000000000000000000e+03) (46, -3.99881755374950909054e-01) (47, -6.47412497510080164886e+00) (48, 7.42853702770897555280e-03) (49, 1.13186851424989920467e+00) (50, 1.70212997454667136488e+00) (51, -3.65848786681467874615e+00) (52, -5.32225974207217511491e+00) (53, 8.67735379542355134141e-01) (54, -3.72814843636786452663e+00) (55, 9.33262512850715486579e-02) (56, 8.76556143927528230719e-02) (57, 5.50292715228902218350e-01) (58, -3.09506847436916032734e-01) (59, 1.30322013704251937760e+00) (60, 2.21654234844386532899e+00) (61, -4.30861295285143075517e+00) (62, 6.30396262574151322600e-02) (63, 1.17225291125068431519e+00) (64, -3.32169359929785379393e+00) (65, -5.14857892552780596618e-02) (66, 1.50000000000000000000e+03) (67, -9.13412822784099298623e-01) (68, 1.21056552054456023626e+01) (69, 3.75308931890764529982e-01) (0, 8.88755145236606551862e+01) (1, 8.60301368502610444011e+01) (2, 4.35949498007130955557e+01) (3, 1.50000000000000000000e+03) (4, 6.40584299389664835189e+01) (5, -3.52249454768131613491e+02) (6, 4.32579167860236601939e+00) (7, 5.31274243991566130774e+00) (8, 1.24991128191626845734e+01) (9, 3.93283300830893196576e+01) (10, 7.13139756264664868013e+01) (11, 3.73634207132223252756e+01) (12, -6.10200981897251466535e+01) (13, 2.24522461694027919421e+00) (14, 2.39625760864760417590e+00) (15, -7.10627645944261199240e-02) (16, 7.78780292153934272648e+00) (17, -1.11716101287405074061e+01) (18, 1.92682488368005309098e+01) (19, 3.73623920099064648070e+01) (20, 2.34116969209458369860e+00) (21, 4.36692053977311260837e+01) (22, -2.17903866978066540483e+00) (23, 7.11884187689076797234e-01) (24, 1.50000000000000000000e+03) (25, 2.96779080583661567516e+01) (26, 1.16967172797020939612e+01) (27, -2.80835858346377413852e+01) (28, 4.17283302830744560197e+01) (29, 1.36515875536094792864e+01) (30, 6.93905624384689332373e+01) (31, -9.08040563161219060895e-01) (32, -1.55509285101911913785e+01) (33, -3.99654216279526197653e+00) (34, 4.34428189715803156901e+01) (35, 4.34246040678084384012e+01) (36, -9.62295922945765482837e+01) (37, 1.03438051561561605851e+00) (38, -3.45917956956981029748e+01) (39, 3.43670833796778030234e+00) (40, -3.20555634994345028943e+00) (41, 4.34599321654499064493e+01) (42, 2.12409314028925422235e+01) (43, -3.08227886596617484116e+00) (44, 2.84352802292296225062e+00) (45, 1.50000000000000000000e+03) (46, 3.32515777581787830286e+00) (47, -1.55083896818519093586e+02) (48, -5.02612331211641460982e+01) (49, 3.22486895261762152032e+00) (50, -3.43476717452490865057e-01) (51, -1.17947510632762253557e+00) (52, -6.82347679973006915333e+00) (53, 1.85290460903151910088e+01) (54, -5.73871838153452173970e+01) (55, 4.33143585121691714335e+01) (56, 4.33895693814814578104e+01) (57, 3.89625769370182206686e+00) (58, 3.08686636578739070913e+00) (59, -3.13329825065968847753e+01) (60, 1.00886905417169958632e+00) (61, 7.35991836309231928226e+01) (62, 4.33833427226603518534e+01) (63, 3.48149273784712107727e+01) (64, 6.97704087731197852840e-01) (65, 5.05152746408392694377e+00) (66, 1.50000000000000000000e+03) (67, -1.45264076283758107877e+01) (68, 1.58562867632818402797e+01) (69, -1.33650116153207343395e+00) (0, 3.27623128881247449584e+00) (1, 3.37786054182860295825e+00) (2, 7.66953799893112408981e-01) (3, 1.50000000000000000000e+03) (4, -1.53675071504314009196e+00) (5, -2.55027603822625703600e+00) (6, 2.06477097797251074596e+00) (7, 3.10974162425827715950e+00) (8, -2.95265191376297142511e+00) (9, -9.34256998405002314634e-01) (10, -4.06499486885058747276e+00) (11, 5.55875453868348490261e+00) (12, 2.63126883443843961885e+00) (13, 4.33269544199536393858e-01) (14, 4.49877052262852739073e-01) (15, 2.35634421547705041888e+00) (16, 3.63520791609536164657e+00) (17, -2.09366132861176135194e+00) (18, 4.21336313921627692025e+00) (19, -4.80344493822438711739e-01) (20, 5.79842230931349567058e-01) (21, -2.35804572441672100069e+00) (22, -7.18443125202660737294e-01) (23, -1.40615294385116468279e-01) (24, 1.50000000000000000000e+03) (25, 1.37788657078885590224e+00) (26, -3.08179895273840376291e+00) (27, 3.47282683401488150021e-03) (28, -3.63363628794172210945e+00) (29, -3.25921312348338543252e-01) (30, 4.81218712012752236618e-01) (31, 1.12244088691301602267e+00) (32, -6.33152088289174397318e+00) (33, 1.94070253643867030036e+00) (34, 6.68711751508544227640e-01) (35, 5.29408100801538328284e-01) (36, -3.74893310968559767549e-01) (37, 1.20174052351265658878e+00) (38, -8.28526340880840428404e-01) (39, 2.53569872461993139900e-01) (40, -3.60308782128808458012e+00) (41, 5.75264192926715600684e-01) (42, 5.08072428302442524739e+00) (43, 2.43741808571342311041e+00) (44, 1.18620577081069811243e+00) (45, 1.50000000000000000000e+03) (46, 4.22766948590842606137e+00) (47, 8.06761367754691605114e+00) (48, -5.76146771409535740638e-01) (49, 1.81962840822938343166e+00) (50, 4.97469814362774542804e-01) (51, 9.00038378328024912811e-01) (52, -7.39430718878482640122e+00) (53, 4.02982850306513817884e+00) (54, -1.49899387367770953183e+00) (55, 5.36609615939687700781e-01) (56, 4.89099442767930270293e-01) (57, 2.11201338310200004145e+00) (58, 1.37579771585058074912e-01) (59, -6.38312807503233714534e-01) (60, -1.48477726654241259929e+00) (61, 4.66267969574326368587e-01) (62, 5.67796848523448804968e-01) (63, -2.06744057164564143392e+00) (64, -1.68208691369017993011e+00) (65, 3.06062263724971750367e-01) (66, 1.50000000000000000000e+03) (67, -2.87459783792868872609e+00) (68, -2.89787125196132988592e+00) (69, 6.46637676848371700800e-02) (0, 5.16354989635962482453e+01) (1, 2.65395503459692001513e+01) (2, 5.74424877400701205943e+00) (3, 1.50000000000000000000e+03) (4, 1.63612939324190402590e-02) (5, -7.84385874043393815924e+00) (6, 4.26356220060967938679e+00) (7, 1.92802275864242322889e+00) (8, 3.38384008398513402849e-01) (9, 4.28969589880711854590e+00) (10, -1.31345038977856853890e+00) (11, -4.66322508780608036005e+00) (12, 9.03586943500879336000e+00) (13, 3.47800529912753475514e+00) (14, 3.48730939046187682351e+00) (15, -4.51188305452926812222e+01) (16, 7.89515476117776682230e+00) (17, -1.84953616038461676752e+00) (18, 1.55431206066368101659e+01) (19, 1.53466553878319924564e+01) (20, 3.47884928599639309255e+00) (21, 1.64464452905917575265e+01) (22, -5.78104713006578130319e+00) (23, 1.02405523167459788780e+00) (24, 1.50000000000000000000e+03) (25, 4.42359720363060571202e+00) (26, 7.47847749485010382386e+00) (27, -7.80100661141379969621e+00) (28, 2.18247286773622555245e+01) (29, 1.43831929470868979948e+00) (30, 2.62033396086565559813e+01) (31, -2.18598940329114954650e+00) (32, 1.04817719119716667997e+00) (33, -1.67960904255066023616e+00) (34, 8.35563646467440435117e+00) (35, 8.41871005507223735265e+00) (36, -1.01646861695012429294e+01) (37, 2.02149271688117337931e+00) (38, -1.57832244775557928307e+00) (39, 1.06555161370889805994e+01) (40, -1.64424651745634003985e-01) (41, 8.35955094011538335508e+00) (42, -4.91199470249275016442e+00) (43, -2.55748230692088149851e+01) (44, 5.49990678007986621978e-01) (45, 1.50000000000000000000e+03) (46, 1.50065824082288568064e+00) (47, -8.18335969260847484463e+00) (48, -2.06536029658343665005e+01) (49, -1.35911162947937436130e+00) (50, -6.00279139814660300800e+00) (51, 3.61119909815009432208e+00) (52, -4.64704351987100458543e-02) (53, 3.74190634014508427541e+00) (54, -4.46445097763999942941e+00) (55, 8.36048571975939580625e+00) (56, 8.32009804459326929305e+00) (57, -6.26910069356605337276e+00) (58, 1.01154818180439018960e+01) (59, -1.27024581974082657609e+01) (60, -8.84818364583754395081e-03) (61, 1.99490000957066087039e+01) (62, 8.23720433028453236091e+00) (63, 1.42229470718681749730e+01) (64, 2.79426756842610590770e-01) (65, 5.62504004423860148876e+00) (66, 1.50000000000000000000e+03) (67, -4.01004964054799195594e+00) (68, 7.94981656508979828146e+00) (69, -2.06149014939457764228e+00) (0, 1.50000000000000000000e+03) (1, 1.12410320756756118499e+03) (2, 1.41811163168810344359e+03) (3, 1.50000000000000000000e+03) (4, 1.48131172158417348328e+03) (5, -1.50000000000000000000e+03) (6, -1.21132791953319747336e+03) (7, -1.68956292567587631481e+01) (8, 1.45142136506011934216e+03) (9, 3.58182730752246740735e+01) (10, -1.07962917657035450247e+03) (11, 1.03823301776419949505e+01) (12, -1.50000000000000000000e+03) (13, 1.50000000000000000000e+03) (14, 1.50000000000000000000e+03) (15, 2.35231422357583113580e+02) (16, 1.14064333839684152849e+02) (17, -1.50000000000000000000e+03) (18, 1.08753838638497563807e+03) (19, 2.13731739710910545682e+02) (20, 1.50000000000000000000e+03) (21, 1.50000000000000000000e+03) (22, -1.31850624715587969149e+02) (23, -6.65202427765024495443e+00) (24, 1.50000000000000000000e+03) (25, 1.50000000000000000000e+03) (26, 1.50000000000000000000e+03) (27, 1.50000000000000000000e+03) (28, -1.34480025499628197849e+02) (29, 1.50000000000000000000e+03) (30, 1.50000000000000000000e+03) (31, -3.80452795639495917612e+01) (32, -1.50000000000000000000e+03) (33, -6.22157428790979505351e+00) (34, 1.50000000000000000000e+03) (35, 1.50000000000000000000e+03) (36, -1.45612408969089443644e+02) (37, -2.75723663550126389055e+02) (38, -1.50000000000000000000e+03) (39, 1.33078748081956046434e+01) (40, -7.46252917506553330895e+02) (41, 1.50000000000000000000e+03) (42, -1.30820816177650499412e+03) (43, 1.19259060690307364894e+03) (44, 1.22201847964266452351e+00) (45, 1.50000000000000000000e+03) (46, 1.50000000000000000000e+03) (47, 1.29806643485303112584e+02) (48, 1.37197570905417842368e+03) (49, -1.50000000000000000000e+03) (50, -8.35421604659748879840e+01) (51, 1.50000000000000000000e+03) (52, -1.00856040334138469916e+03) (53, 1.50000000000000000000e+03) (54, -1.50000000000000000000e+03) (55, 1.50000000000000000000e+03) (56, 1.50000000000000000000e+03) (57, -1.50000000000000000000e+03) (58, -7.33895886353359117038e+01) (59, -1.44499999880790710449e+03) (60, 2.15794143724666191986e+01) (61, 1.50000000000000000000e+03) (62, 1.50000000000000000000e+03) (63, -6.56913781144583253990e+02) (64, 1.50000000000000000000e+03) (65, 1.50000000000000000000e+03) (66, 1.50000000000000000000e+03) (67, -3.50430534431280138463e+00) (68, -6.48784167665661243518e+02) (69, -1.50000000000000000000e+03) (0, 3.47574493326221567457e+00) (1, 2.67479025351633348251e+00) (2, 2.89071322129048713379e+00) (3, 1.50000000000000000000e+03) (4, -3.48959003229984521255e+00) (5, -5.44030796161162388813e+00) (6, -2.25859028960084451398e+00) (7, 2.24674860554119248945e+00) (8, 3.80514419292151462315e+00) (9, -4.74858339586138211708e-01) (10, 3.46279110570739723229e+00) (11, 9.74821654331858411524e+00) (12, 8.05992278623471780641e-01) (13, 3.20298020280249562397e-01) (14, 4.11960054672606434956e-01) (15, -2.21362612211447901123e-01) (16, 5.48710520677708868398e-01) (17, -2.66695178437066027222e-01) (18, 2.06067861727244983072e+00) (19, 1.39257817063191691176e+00) (20, 4.16947994864829030170e-01) (21, -5.30707194072492782766e-01) (22, -4.41851565675728918947e-01) (23, 4.94548576747442895918e-03) (24, 1.50000000000000000000e+03) (25, 3.36442678467804345832e-01) (26, 1.79414643758296277198e+00) (27, 4.51894829289463451083e-01) (28, 1.68476739908337724838e-01) (29, -1.72553685509816145949e-01) (30, -2.64903181609272575514e+00) (31, 4.15851143841271930768e+00) (32, -4.97458974542852505607e+00) (33, -2.11030284232262443922e+00) (34, 3.97333393363111464502e-01) (35, 3.67525944975965357386e-01) (36, 8.02813628616998897769e-01) (37, -5.08806329985559524509e-01) (38, 1.01652070290699692023e+00) (39, 2.81510881292043269042e+00) (40, -2.79169742979372736968e+00) (41, 4.43465101091020552637e-01) (42, 7.78991970581015280573e+00) (43, 2.41365612738668611215e+00) (44, 1.08262858745756163081e+00) (45, 1.50000000000000000000e+03) (46, 3.00151349846819481826e+00) (47, -3.62930365283107070340e-01) (48, 9.54435756707139870691e-01) (49, 2.52511159714972244217e+00) (50, 4.23790191321150189196e+00) (51, 2.28598418663256541805e+00) (52, -3.76737769114754605937e+00) (53, -2.64618058221725738210e-01) (54, 1.25966670090799182091e+00) (55, 2.93881575135343409144e-01) (56, 4.52806788055055475795e-01) (57, 1.88937392966726047661e+00) (58, -1.85310468417413248821e-02) (59, 4.74738356760394442091e-01) (60, -8.57249465989563974588e-01) (61, -1.62813705187437562927e+00) (62, 4.64258881775491683008e-01) (63, 4.60676296302126697668e+00) (64, 3.32277516587029864148e-01) (65, 3.29885287116921865902e+00) (66, 1.50000000000000000000e+03) (67, -1.08232232137070583100e+00) (68, 6.70621551205361599024e-01) (69, 2.03373275877188064431e-01) (0, -1.50000000000000000000e+03) (1, 4.58653716574608552037e+02) (2, 8.58951992402406574456e+01) (3, 1.50000000000000000000e+03) (4, -5.08113142773048139134e+02) (5, 1.50000000000000000000e+03) (6, -1.34317298836773125004e+03) (7, 4.53289215047387017421e+00) (8, 2.44506580248898686136e+00) (9, 2.49596367726292989175e+00) (10, -7.63944851937260338559e+00) (11, 1.36296406785985202426e-01) (12, 1.50000000000000000000e+03) (13, -1.50000000000000000000e+03) (14, -1.50000000000000000000e+03) (15, -1.48236244808315041155e+03) (16, 1.35406758927418445637e+03) (17, 1.50000000000000000000e+03) (18, 1.49882798184636021688e+03) (19, 7.80083827908352077429e+02) (20, -1.50000000000000000000e+03) (21, -1.50000000000000000000e+03) (22, 4.91364602179829034867e+02) (23, -6.32402549442417472036e-01) (24, 1.50000000000000000000e+03) (25, -1.50000000000000000000e+03) (26, -1.50000000000000000000e+03) (27, -1.50000000000000000000e+03) (28, 9.13667257032686563889e+00) (29, -1.49552000633716625089e+03) (30, -1.50000000000000000000e+03) (31, 1.13181580762821590724e+03) (32, 1.50000000000000000000e+03) (33, -9.42397149523496180379e-01) (34, -1.50000000000000000000e+03) (35, -1.50000000000000000000e+03) (36, -8.37850707207349998384e+00) (37, 1.02231953217702243819e+03) (38, 1.50000000000000000000e+03) (39, 1.32021450285488821663e+01) (40, 1.48759346838187320827e+03) (41, -1.50000000000000000000e+03) (42, 1.50000000000000000000e+03) (43, 1.50000000000000000000e+03) (44, 5.02467624638588128416e-02) (45, 1.50000000000000000000e+03) (46, -1.50000000000000000000e+03) (47, 3.02155792426197820078e+02) (48, 8.21356891943057974004e+01) (49, 1.50000000000000000000e+03) (50, -2.71298922563133771746e+02) (51, -1.50000000000000000000e+03) (52, -6.21739190366316847758e+02) (53, -1.50000000000000000000e+03) (54, 1.50000000000000000000e+03) (55, -1.50000000000000000000e+03) (56, -1.50000000000000000000e+03) (57, 1.50000000000000000000e+03) (58, -1.44636000895669880606e+01) (59, 1.46999999880790710449e+03) (60, 1.15803759320598143034e+01) (61, -1.50000000000000000000e+03) (62, -1.50000000000000000000e+03) (63, -3.15561141506745798324e+02) (64, -1.48199999856948852539e+03) (65, -1.50000000000000000000e+03) (66, 1.50000000000000000000e+03) (67, -1.71857869287138176340e+00) (68, -1.49362698892205571610e+03) (69, 1.50000000000000000000e+03) (0, 8.45062665955305014620e+00) (1, 9.90777679735254146465e+00) (2, -2.01145739644742871377e+00) (3, 1.50000000000000000000e+03) (4, 2.87404328291797961370e+00) (5, -4.05456300343004105713e+00) (6, -8.51566127766522296128e-01) (7, 2.96874263416936079452e+00) (8, -8.70014451651105780172e+00) (9, -1.44321618417291674952e+00) (10, -5.31630527355535331679e+00) (11, -6.68838950277534927125e-01) (12, 5.72699420522669866429e-01) (13, 1.48714057254812503928e+00) (14, 1.60304833474776509128e+00) (15, 6.05974226262389392694e-01) (16, -1.02892075776126179498e+00) (17, -1.93099871857098071004e+00) (18, 5.45705621602173263085e+00) (19, 6.36080406425634015122e-01) (20, 1.55250797691962505453e+00) (21, 1.06422676123510373536e+00) (22, 8.96220434832033174821e-01) (23, -1.75856505565011977943e-01) (24, 1.50000000000000000000e+03) (25, 9.67849605226560272264e-01) (26, 2.13833279805676523821e+00) (27, 1.59288583963092666984e+00) (28, -2.19725139874312702659e+00) (29, 1.87518547247491484953e+00) (30, -1.06806098501726801087e-01) (31, 2.07846923476807754483e+00) (32, -2.02970933812070919444e+00) (33, -9.71904270556270377668e-01) (34, 3.60157241127067750952e+00) (35, 3.44593033394390380053e+00) (36, 1.25826240403524169942e+00) (37, 2.88755291767015143112e-01) (38, -3.16041037612696573689e+00) (39, 6.29971011009286763205e-01) (40, 4.83080744321609661940e-02) (41, 3.46834218701893037817e+00) (42, 2.22172934377967745689e+00) (43, 2.51268618451442682371e+00) (44, 1.57251281192252578833e+00) (45, 1.50000000000000000000e+03) (46, 3.15381192080570027514e+00) (47, -4.40122339817841934373e-02) (48, 9.91659035054302639978e-01) (49, -3.05737666269119079399e-01) (50, 3.90797302396730383833e+00) (51, -5.32634505342585296006e+00) (52, -2.72327151324064420379e+00) (53, 4.44606234313740600328e+00) (54, 1.85541384320904967353e+00) (55, 3.49406058541113084814e+00) (56, 3.49467696449333375952e+00) (57, 1.76692788092924080168e+00) (58, 8.07855219382397016226e-01) (59, 1.83664002491857103472e-01) (60, -7.99329906088290798039e-01) (61, 8.50866855176666381233e-01) (62, 3.57396541735702699683e+00) (63, -1.83542809376442805913e+00) (64, -8.54584029449685034230e-01) (65, -8.40126405384240548813e-01) (66, 1.50000000000000000000e+03) (67, -2.83313660174689063709e+00) (68, -3.10456205277594587955e+00) (69, -6.83751249146870243578e-01) (0, 6.45365625044024824319e+01) (1, 2.58740913909736818255e+01) (2, 9.50940601031175347657e+00) (3, 1.50000000000000000000e+03) (4, 5.20319551417452856867e+01) (5, -1.19511320700353891766e+02) (6, 1.45300795712444075214e+00) (7, -1.42066724694365298376e+00) (8, 1.33512865879614750497e+01) (9, 3.78672520952226676627e+01) (10, 2.30961701679309854285e+01) (11, 3.42684918267256435342e+01) (12, -1.86239540624487922571e+01) (13, 8.15358656043360774390e+00) (14, 8.15092613691638057105e+00) (15, -3.21966278795337075280e+01) (16, 4.89773741930262040967e+00) (17, -1.07038970778955757623e+01) (18, 2.06099348683088550160e+01) (19, 1.66734801532871017571e+01) (20, 8.19414828116248017409e+00) (21, 3.61384615603392411742e+00) (22, -3.57752428057172089382e+00) (23, 2.85929355212658542484e+00) (24, 1.50000000000000000000e+03) (25, 2.15693476328640478812e+01) (26, 1.87489202197794888605e+01) (27, -9.83708931797638186367e-01) (28, 3.85226131938075369021e+01) (29, 4.16067965342565493359e+00) (30, 4.36547308431406904106e+01) (31, -1.39297528280415789936e+01) (32, -2.52591540907016067763e+01) (33, 7.18323607408166031618e-01) (34, 2.08133154973202927351e+01) (35, 2.08332282915526612044e+01) (36, -1.33919935011567208250e+01) (37, 2.38124063377969328315e+01) (38, -6.73989745282692398476e-01) (39, 8.50040702141432724659e+00) (40, 6.49224301598395481250e+00) (41, 2.07900341018849594832e+01) (42, 9.06676126708669727350e+00) (43, -1.48383526365952551629e+01) (44, 1.70631475426479140012e+00) (45, 1.50000000000000000000e+03) (46, 4.02046963188032790981e+00) (47, -1.20587115718659738661e+01) (48, -4.32710352120556649425e+01) (49, -2.33136471996220322467e+01) (50, 9.08086643110704194726e+00) (51, 1.96861790555187035068e+01) (52, -7.64498956033440180136e+00) (53, -1.21658396816778202609e-01) (54, -7.66073875781847601907e-01) (55, 2.08324226751738770247e+01) (56, 2.07675603642874939680e+01) (57, -4.07152108722711947308e+00) (58, 6.79390548009261419082e+00) (59, -1.24677909436766647389e+01) (60, -4.65936631416982116605e+00) (61, 1.86056712754642319396e+01) (62, 2.08046161174589379073e+01) (63, 1.15630586998672910681e+01) (64, 2.72772497913578426676e+01) (65, 5.47738544161443074998e-01) (66, 1.50000000000000000000e+03) (67, 3.30110559145688486904e-01) (68, 6.41663102666098517091e+00) (69, -5.18269963717515480539e+00) (0, -1.50000000000000000000e+03) (1, 1.32477469075214503391e+03) (2, 1.49509539353890954771e+03) (3, 1.50000000000000000000e+03) (4, -1.19293075454343397723e+03) (5, 1.50000000000000000000e+03) (6, -1.49290586799235802573e+03) (7, 3.50998795544972819194e-01) (8, 6.52883499931125811599e+02) (9, -5.07422010586977307867e+02) (10, 1.19498892879354116303e+03) (11, -6.44270957390922262675e+02) (12, 1.50000000000000000000e+03) (13, -1.50000000000000000000e+03) (14, -1.50000000000000000000e+03) (15, -1.47736550354548649011e+03) (16, 1.49767530635564071417e+03) (17, 1.50000000000000000000e+03) (18, 1.49957878537199212587e+03) (19, 1.46697114111283212878e+03) (20, -1.50000000000000000000e+03) (21, -1.50000000000000000000e+03) (22, 1.22438788143208535075e+03) (23, 6.03003325769862726702e+02) (24, 1.50000000000000000000e+03) (25, -1.50000000000000000000e+03) (26, -1.50000000000000000000e+03) (27, -1.50000000000000000000e+03) (28, -6.05384175214169545143e+02) (29, -1.50000000000000000000e+03) (30, -1.50000000000000000000e+03) (31, 1.23642081937324041974e+03) (32, 1.50000000000000000000e+03) (33, 9.18856260403394117020e+02) (34, -1.50000000000000000000e+03) (35, -1.50000000000000000000e+03) (36, -1.45003722371340563768e+03) (37, 1.50000000000000000000e+03) (38, 1.50000000000000000000e+03) (39, 5.05682691241297845863e+01) (40, 1.47020992622574271991e+03) (41, -1.50000000000000000000e+03) (42, 1.50000000000000000000e+03) (43, 1.50000000000000000000e+03) (44, 1.34807248565944337315e+03) (45, 1.50000000000000000000e+03) (46, -1.50000000000000000000e+03) (47, -9.44014674397843464249e+02) (48, 6.11334897987227279259e+01) (49, 1.50000000000000000000e+03) (50, 1.25146825313208842090e+03) (51, -1.50000000000000000000e+03) (52, -2.86521542842529584050e+02) (53, -1.50000000000000000000e+03) (54, 1.50000000000000000000e+03) (55, -1.50000000000000000000e+03) (56, -1.50000000000000000000e+03) (57, 1.50000000000000000000e+03) (58, 1.17702207667064658381e+03) (59, 1.47839999742507916380e+03) (60, 3.41266091186297956028e+02) (61, -1.50000000000000000000e+03) (62, -1.50000000000000000000e+03) (63, 1.35182751617227677343e+03) (64, -1.47500000000000000000e+03) (65, -1.50000000000000000000e+03) (66, 1.50000000000000000000e+03) (67, -1.27086393943407119878e+03) (68, 1.46972445926809967887e+02) (69, 1.50000000000000000000e+03) (0, 4.82424659503248420833e-01) (1, 3.23946416786258906129e+00) (2, 3.02571141384970232480e+00) (3, 1.50000000000000000000e+03) (4, 1.18452181231146247420e+00) (5, -1.25840104427475552029e+00) (6, -1.89067060288888422193e+00) (7, 1.10797002070707755195e+01) (8, -3.41430386947193875713e+00) (9, 1.15276360323412374598e+00) (10, -2.24523815084910705053e+00) (11, 7.52202047971816667449e-02) (12, 8.77043382686494332745e+00) (13, -1.17695287871601564356e-01) (14, -1.36943244445564576983e-01) (15, -8.56212770109884724334e-01) (16, -1.02567001969084947710e+00) (17, -4.68730909983259502738e-01) (18, 1.03186708276869087975e+00) (19, -5.26627653670475384673e-02) (20, -2.06626092154027940495e-01) (21, 3.74321138434181710508e+00) (22, 1.14109663753258394614e+00) (23, -3.95144008145864200632e-01) (24, 1.50000000000000000000e+03) (25, -2.35912828398170848487e+00) (26, -1.52144051427660048637e-01) (27, -1.14252532513330318231e+00) (28, 5.00796176707358320357e+00) (29, 4.17369787240222556157e-01) (30, -4.65152209456959481182e-02) (31, 7.29041508924111014700e-01) (32, -7.67743507175070671877e+00) (33, -3.47929099150244125482e+00) (34, -8.07673088240213332689e-02) (35, -8.58167610096522426311e-02) (36, -6.50842430563513540953e-01) (37, -2.47170293744393010371e+00) (38, 4.44668742536598382564e-01) (39, 8.64687216849560069676e-01) (40, -5.86162276984835362015e-01) (41, -1.47697602860886151310e-01) (42, -5.07687382719942612019e-02) (43, 3.17064900667803961642e-01) (44, -5.68088617866788103683e-01) (45, 1.50000000000000000000e+03) (46, 1.59794234097511189674e+00) (47, 1.04949503142832245572e+01) (48, 3.84746018127002209486e-01) (49, 4.06771271793699007446e+00) (50, -1.59355773291684710280e+00) (51, -2.50077888278916837805e+00) (52, -4.77188133014443405244e+00) (53, -9.92642060286412664105e-01) (54, 3.66548423181502602830e+00) (55, -5.54723194765632948711e-02) (56, -1.52794433288532788273e-01) (57, -1.36862004816972016030e+00) (58, -2.34532452317173900624e+00) (59, -6.45400241837614463414e-01) (60, -4.07432968136670736747e-01) (61, 1.07397958314459041063e+00) (62, -7.86514482426233785262e-02) (63, 1.93163933637271534316e+00) (64, 1.27187880954143839318e+00) (65, 1.02117202917460003775e+00) (66, 1.50000000000000000000e+03) (67, 3.82019661863415849190e-02) (68, 1.67125589118952522227e+00) (69, 5.67651397131844426269e-01) (0, -1.50000000000000000000e+03) (1, -2.40298058995611256705e+01) (2, 2.88618396850909597617e+01) (3, 1.50000000000000000000e+03) (4, -1.45278824837057845798e+03) (5, 1.50000000000000000000e+03) (6, -6.57137373095212524277e+02) (7, 1.74939431758745200796e+01) (8, 1.33321462507464673308e+02) (9, 2.39679697347368829696e+01) (10, -8.39408678949730415297e+02) (11, -5.90234054846500271196e+02) (12, 1.50000000000000000000e+03) (13, -1.50000000000000000000e+03) (14, -1.50000000000000000000e+03) (15, -1.48236244808315041155e+03) (16, 2.08288340103025113592e+01) (17, 1.50000000000000000000e+03) (18, 1.49900659238552657371e+03) (19, 1.45478965670151887934e+03) (20, -1.50000000000000000000e+03) (21, -1.50000000000000000000e+03) (22, 1.56176449358762340580e+02) (23, -1.68956252374378446124e-01) (24, 1.50000000000000000000e+03) (25, -1.50000000000000000000e+03) (26, -1.50000000000000000000e+03) (27, -1.50000000000000000000e+03) (28, 5.94060522544438427417e+01) (29, -1.49552000633716625089e+03) (30, -1.50000000000000000000e+03) (31, 5.26497467556246974141e+01) (32, 1.50000000000000000000e+03) (33, -1.02698576044733229651e+02) (34, -1.50000000000000000000e+03) (35, -1.50000000000000000000e+03) (36, -1.13093001943003423548e+03) (37, 4.43904122570994047692e+02) (38, 1.50000000000000000000e+03) (39, 1.16582437671488872155e+01) (40, 1.48759346838187320827e+03) (41, -1.50000000000000000000e+03) (42, 1.50000000000000000000e+03) (43, 1.50000000000000000000e+03) (44, -7.75435465385150290984e-01) (45, 1.50000000000000000000e+03) (46, -1.50000000000000000000e+03) (47, 1.03323559163988693399e+03) (48, 1.33002817472052106496e+03) (49, 1.50000000000000000000e+03) (50, -1.26187859811045154856e+03) (51, -1.50000000000000000000e+03) (52, -1.45388278515279148451e+03) (53, -1.50000000000000000000e+03) (54, 1.50000000000000000000e+03) (55, -1.50000000000000000000e+03) (56, -1.50000000000000000000e+03) (57, 1.50000000000000000000e+03) (58, 3.29971184501169858549e+01) (59, 1.46999999880790710449e+03) (60, 3.51941484485584965114e+02) (61, -1.50000000000000000000e+03) (62, -1.50000000000000000000e+03) (63, -1.21858834398356157180e+03) (64, -1.47500000000000000000e+03) (65, -1.50000000000000000000e+03) (66, 1.50000000000000000000e+03) (67, -1.21639250149057238559e+03) (68, -1.49953560426472290601e+03) (69, 1.50000000000000000000e+03) (0, 3.07601338917436484266e+00) (1, 2.01899563643840007643e+00) (2, 1.39349170936235644547e+00) (3, 1.50000000000000000000e+03) (4, -1.03018417747755086644e+00) (5, -2.62083037284979170067e+00) (6, -3.21958534654651795659e-01) (7, -2.57135754916951775328e+00) (8, -1.50127253092104895327e-01) (9, 4.65119949750601513472e+00) (10, 1.61691082508537875562e+00) (11, 1.71755806925668164098e+00) (12, 4.35513675577947712014e+00) (13, -2.52921619195486335752e-01) (14, -1.82375200767065315244e-01) (15, 3.13900757243360661874e+00) (16, 1.46107973726465178999e+00) (17, -1.14844806404578846787e-02) (18, 1.03513121090994156259e-01) (19, 1.46422422900484505703e+00) (20, -2.26658613163973066129e-01) (21, 5.97141893004699664260e+00) (22, -1.55853186907626373170e+00) (23, -2.06282308820223159174e+00) (24, 1.50000000000000000000e+03) (25, -2.34926321217319422630e+00) (26, 2.74405818429486902943e+00) (27, -3.78310209729720359206e+00) (28, 1.73644903371058578756e+00) (29, -5.16677529546103908586e+00) (30, 1.62678051183111338496e+00) (31, -1.78792657998711845835e+00) (32, 5.28840564161213144700e+00) (33, 1.82764690672865870447e+00) (34, -9.43788661883572937983e-02) (35, -1.18006292663643749807e-01) (36, 2.30004018747750693663e+00) (37, -2.12770457257338874157e+00) (38, -7.18326876359163035701e-01) (39, 1.98959378092787075865e+00) (40, 3.01368744834811730371e+00) (41, -1.31459075890610427306e-01) (42, 5.21666727527412010801e+00) (43, -1.01851338206066205361e-01) (44, -3.72674791189209209108e-01) (45, 1.50000000000000000000e+03) (46, 1.09764942290338018971e+00) (47, 1.12589370241634600944e+00) (48, 9.54039130091516085486e-01) (49, -8.60366493889778594095e-01) (50, 1.05110527026039202170e+00) (51, -5.34394673143195841902e+00) (52, -3.50562965670111870153e+00) (53, -1.57110401271018718106e+00) (54, 1.93347774321308202294e-01) (55, -1.07702631436417547994e-01) (56, -5.05586601124503945415e-02) (57, 1.04154494074104131407e+00) (58, -1.66346008459238925425e+00) (59, 1.05248247627680990846e+00) (60, -9.32478467295545510041e-01) (61, -1.15453977970934351660e+00) (62, 9.30048904555041792974e-03) (63, 4.54062879200925917367e-01) (64, -3.25069673806564862772e+00) (65, -6.39020275949552102324e-02) (66, 1.50000000000000000000e+03) (67, 1.08756910615847290913e+00) (68, 1.62268147683136132464e+00) (69, 7.22525187750609143578e-01) (0, 1.08215001512999986488e+00) (1, 2.75236371532126433692e+00) (2, 2.53909867549478196480e+00) (3, 1.50000000000000000000e+03) (4, 4.48206028025026625983e-01) (5, 4.65220527254921245586e-01) (6, -2.52606514478109778210e-01) (7, 1.16238562533049840653e+01) (8, -3.53917704780239716911e+00) (9, -4.79994991834596618219e+00) (10, 1.37105414225380961568e+00) (11, -6.86709061428634526258e-01) (12, 1.42240726605657924475e-01) (13, 5.48971153541327333558e-02) (14, 6.00821234031439152523e-02) (15, 2.25744696273074592352e-02) (16, 9.35905533766678843222e-01) (17, 8.40116839276369709033e-02) (18, 1.51265122417125885690e+00) (19, 2.83998086382894365798e+00) (20, 4.93684483010767890393e-03) (21, 7.87824817857215142780e-01) (22, -1.10184393200296759652e+00) (23, -1.49788545569391895462e+00) (24, 1.50000000000000000000e+03) (25, 3.15675185618505604879e-01) (26, -8.16379871251768918228e-02) (27, -2.71227410113227485056e+00) (28, 1.54693637144351203716e+00) (29, 7.65167282359298095429e-01) (30, 2.96289206978402308579e+00) (31, 8.77409413304476415441e-01) (32, -1.90962499247543848746e+00) (33, -3.14970635853398928106e+00) (34, 1.89128140252789650466e-01) (35, 2.03982314884273568945e-02) (36, -2.99117673344616008535e+00) (37, -5.91586859266256426260e-01) (38, 1.75994342873675080341e+00) (39, 5.57149153155849896635e-01) (40, 2.60863808165721466903e-01) (41, 1.66787302910892214214e-02) (42, 3.26165909817963450834e+00) (43, -7.82779236257465371729e-02) (44, -3.11440194580780538303e+00) (45, 1.50000000000000000000e+03) (46, -3.78848776534399700466e+00) (47, -3.77930393486344007314e+00) (48, -5.96440699237474003525e-01) (49, 2.19793027160466181158e+00) (50, 4.51288849409682768510e+00) (51, -2.13066284087871382624e+00) (52, 1.28784973671552949170e-01) (53, -5.26123362415194251174e-02) (54, 3.17865375112695724980e+00) (55, 7.94297701537220041113e-02) (56, 1.19928689938744600929e-01) (57, 2.89054940908114677001e-01) (58, -2.05627504903966729088e+00) (59, -2.97073915201707894340e-01) (60, -1.45709557028115543886e+00) (61, -1.39563030867208248686e+00) (62, 1.25420326632222273178e-01) (63, -3.01179007017670863355e-01) (64, -4.54605767027843299388e+00) (65, 7.65751469212501589823e-01) (66, 1.50000000000000000000e+03) (67, 1.83027760785194759663e+00) (68, 2.60251078296916460442e-01) (69, 4.60870932529816867973e-01) (0, 3.19824739929493073731e+00) (1, 2.59380599404211453773e+00) (2, -2.04298735278617904498e+00) (3, 1.50000000000000000000e+03) (4, 5.56823239604754594012e+00) (5, 7.30161385287606812255e+00) (6, -2.97912316303216995195e+00) (7, -1.89401937980865175959e+00) (8, -4.93303473398873926214e-01) (9, 4.54558900677239585697e-01) (10, -4.99626391377971668106e+00) (11, 2.41440333319338051865e+00) (12, 5.34669140997852210262e+00) (13, 1.30203117059802364608e-01) (14, 9.07189589014995440008e-02) (15, -7.44125020152608485091e+00) (16, 3.54641263952012952831e-01) (17, -8.06032081143538636780e-01) (18, 3.31231460721414450177e+00) (19, 2.26664103746218703606e+00) (20, 1.05118338393305574274e-01) (21, -4.47932106352984238384e+00) (22, -1.45676617973623989677e+00) (23, -1.95843280953129056376e-01) (24, 1.50000000000000000000e+03) (25, 1.82959924534105877747e+00) (26, 4.27390769875600451400e+00) (27, -4.47364122711874490079e+00) (28, -2.17203796163933215979e+00) (29, 5.78686641233217669011e-01) (30, 9.83419287667573249756e-01) (31, -1.08638962503316083286e+00) (32, 4.39226715828480784864e+00) (33, -4.26942983162634404071e-01) (34, 9.14043253536999805720e-02) (35, 1.24048105465966770899e-01) (36, 1.69958338755024573885e+00) (37, 8.41509179293389752985e-01) (38, 7.57787380032795776508e-01) (39, 8.33955336334276098320e-02) (40, 3.34509246591510878144e-01) (41, 6.76032481964410209008e-02) (42, 1.18613786062748194361e+00) (43, -2.63757846886266378306e+00) (44, -1.88254569187952414122e-01) (45, 1.50000000000000000000e+03) (46, 1.72714341066602705688e+00) (47, 6.86683685970176593827e+00) (48, -2.04983525639592123468e+00) (49, 2.33489037996321613377e+00) (50, 3.10110811880792924811e-01) (51, -3.76585971986639433950e+00) (52, -2.21813983142150977779e-01) (53, -3.08416878262094362739e+00) (54, -8.88872199514505578755e-01) (55, 2.22660674738485026003e-01) (56, 1.49677603530484870653e-01) (57, 7.32411865698284270110e+00) (58, 2.04065221257000058153e-02) (59, 9.58317258598967325334e-01) (60, -1.14177504470520396751e+00) (61, 2.25462346128847057614e+00) (62, 7.44658028956235312767e-02) (63, -1.53621576732888232009e+00) (64, -4.12166278009195086174e-01) (65, -1.53644022439014454884e-01) (66, 1.50000000000000000000e+03) (67, -1.84001360818716430678e-01) (68, 1.28793244349537028270e+00) (69, 4.83232412598470995047e-01) (0, -1.50000000000000000000e+03) (1, -2.72381454824981439344e-01) (2, 1.57753942269052309655e+01) (3, 1.50000000000000000000e+03) (4, -8.86416380321122460373e+02) (5, 1.50000000000000000000e+03) (6, -1.07487596331261800464e-01) (7, 1.00170550306689087883e-01) (8, 9.23249400947985354726e-01) (9, 2.13787084525722583805e+01) (10, 9.99812399914338101325e+00) (11, -4.96060175751446585934e+00) (12, 1.50000000000000000000e+03) (13, -1.50000000000000000000e+03) (14, -1.50000000000000000000e+03) (15, -7.89228155661513483210e+02) (16, 7.03144868621912610962e+00) (17, 1.50000000000000000000e+03) (18, 2.74682290503203452303e+00) (19, 6.90384249266731409023e+00) (20, -1.50000000000000000000e+03) (21, -1.50000000000000000000e+03) (22, 1.07436418883091295839e+01) (23, 5.79188336995062424961e+00) (24, 1.50000000000000000000e+03) (25, -1.50000000000000000000e+03) (26, -1.50000000000000000000e+03) (27, -1.50000000000000000000e+03) (28, 8.52510983300099844939e+00) (29, -1.43852000121116680020e+03) (30, -1.50000000000000000000e+03) (31, 8.75149765695838688373e+00) (32, 1.50000000000000000000e+03) (33, -3.33260751445235303692e+00) (34, -1.50000000000000000000e+03) (35, -1.50000000000000000000e+03) (36, -2.07561121491063005351e+00) (37, 2.54647124618115263672e+01) (38, 1.50000000000000000000e+03) (39, 1.19290363475038923013e+01) (40, 1.48759346838187320827e+03) (41, -1.50000000000000000000e+03) (42, 1.50000000000000000000e+03) (43, 3.42027669766576707389e+01) (44, -5.49863229956797816556e-01) (45, 1.50000000000000000000e+03) (46, -1.50000000000000000000e+03) (47, -2.34663555770100051845e+00) (48, -3.83415676287639106690e+00) (49, 1.50000000000000000000e+03) (50, 2.49356636393096531279e+00) (51, -1.50000000000000000000e+03) (52, -1.22705720518007282749e+02) (53, -1.50000000000000000000e+03) (54, 1.50000000000000000000e+03) (55, -1.50000000000000000000e+03) (56, -1.50000000000000000000e+03) (57, 1.50000000000000000000e+03) (58, -9.59948398756256815467e-02) (59, 1.46999999880790710449e+03) (60, 4.47397818630635768500e-01) (61, -1.50000000000000000000e+03) (62, -1.50000000000000000000e+03) (63, 9.64998506069620276548e+00) (64, -1.47500000000000000000e+03) (65, -1.50000000000000000000e+03) (66, 1.50000000000000000000e+03) (67, -2.08565823098559777193e+00) (68, 5.80999916642545066736e+00) (69, 1.50000000000000000000e+03) (0, 2.98362096835080450319e+01) (1, 6.90639729335224039630e+00) (2, 5.47314177725255923690e+00) (3, 1.50000000000000000000e+03) (4, 9.81065474872900900039e+00) (5, -4.64110708983303865693e+00) (6, -1.34574353860500783853e+00) (7, 4.42651298394998227170e-01) (8, 1.53676454092644831917e+00) (9, 7.16990596507261734871e+00) (10, -4.03822968672815640900e-01) (11, -1.21370541839077694668e+00) (12, 3.48892504780039880430e+00) (13, 1.86297367727504314949e+00) (14, 1.75977903818832004390e+00) (15, -4.18872487565282582977e+01) (16, 1.35365587125669595281e+00) (17, -1.44992630296898417086e+00) (18, 8.13952144291796209075e+00) (19, 4.03351754529298922591e+00) (20, 1.81828542268024029305e+00) (21, 2.65788307323011929739e+00) (22, -2.58698564480721948655e+00) (23, 3.34278541341425816658e-01) (24, 1.50000000000000000000e+03) (25, 4.56165345410225420153e+00) (26, 3.03995104656241421637e+00) (27, 9.07463848409877371637e-01) (28, 1.05517039724652335053e+01) (29, 5.16876461225984495940e+00) (30, 6.60272652928670833461e+00) (31, -2.99629080848120388225e+00) (32, -4.03077514530999625464e+00) (33, -2.43643832172232954747e+00) (34, 1.78970456345035744405e+00) (35, 1.70333542896463585592e+00) (36, -9.75249754528964274414e+00) (37, 6.60784532155187287472e-01) (38, -4.84165170344947082270e+00) (39, 5.83311908846232962667e-01) (40, 3.61884203275734916971e+00) (41, 1.86043754441692521517e+00) (42, -1.62798585902365111622e+00) (43, -4.23754074521413315324e+00) (44, 5.62770776049040688527e-01) (45, 1.50000000000000000000e+03) (46, 2.33066385707313994402e+00) (47, 7.31192019671401238767e-01) (48, -3.94578599596485934953e+00) (49, 1.62213696795654538363e+00) (50, 2.65745788522081793914e+00) (51, 3.24884153353914850726e+00) (52, -3.26988428220564975035e+00) (53, 5.39286846888008497558e+00) (54, 1.19715515996133747834e+00) (55, 1.85725714487983872836e+00) (56, 1.85948752088501145785e+00) (57, -1.31609486179805390549e+01) (58, 2.11804667674046553927e+00) (59, -1.16887756101031151101e-01) (60, 2.25091038004878646328e-01) (61, 3.16678396030308029196e+00) (62, 1.74821420235588265157e+00) (63, 2.61645920349303873209e+00) (64, -1.96449954722314457101e+00) (65, 6.51019463885329852104e+00) (66, 1.50000000000000000000e+03) (67, -4.34132769979636723434e+00) (68, 4.30320712706393759817e+00) (69, -1.07373579887358205909e+00) (0, 1.94203380084716914489e+00) (1, 2.37643805897093507440e+00) (2, 2.21799572419898982645e+00) (3, 1.50000000000000000000e+03) (4, 4.14680258475694873965e+00) (5, -1.88164413011294229250e+00) (6, 1.68796188648680578481e+00) (7, -7.63508930712852196265e-01) (8, 2.53352464647223518668e+00) (9, 1.86748213527634421283e+00) (10, -2.73061783896565168916e+00) (11, -4.58148363724955665077e+00) (12, -5.58654122422730203823e+00) (13, 4.31474311865608917138e-01) (14, 4.77548516012470947167e-01) (15, 1.79881019932763130953e+00) (16, -1.97677956323663184257e+00) (17, 2.07063639240136265762e-01) (18, 4.89337952584349356044e+00) (19, 2.98156374004388713406e-01) (20, 3.64581419743340240380e-01) (21, 5.28400758963167960225e-01) (22, -1.97392269099386363784e+00) (23, -6.60298073163706034094e-01) (24, 1.50000000000000000000e+03) (25, 8.98287348025327059275e-01) (26, -7.63321185199035490143e+00) (27, 1.10607428492909076745e+00) (28, 1.69981326950052191727e+00) (29, -3.50428922840919243598e+00) (30, 2.01413558769497536005e+00) (31, -5.96869469377013306399e+00) (32, -3.93785127585107952441e+00) (33, -5.46000488350857704489e+00) (34, 5.34148601336379758031e-01) (35, 6.25584998620648868872e-01) (36, 2.12644352907575218126e+00) (37, 7.43392901663262328782e-01) (38, 5.88267784264319693044e-01) (39, 3.44151095733789824660e-01) (40, -4.52699274362232506608e-01) (41, 5.08595006061692944677e-01) (42, 1.63027326933939797904e+00) (43, 1.52215497172672975523e+00) (44, -4.25744571662261539480e-01) (45, 1.50000000000000000000e+03) (46, 3.96350394615180201541e+00) (47, -7.32459171813804266193e-01) (48, 4.32791252955025407267e-01) (49, -2.18387732701568326732e+00) (50, -2.39206055051804949985e-01) (51, -6.05939063281780043724e-01) (52, -4.21535479454121908560e+00) (53, -2.71134850189162923684e+00) (54, 3.02402289733915408121e+00) (55, 5.00511707259317595309e-01) (56, 4.90305976463457582337e-01) (57, -1.36822943291994891801e+00) (58, 3.58037894547364898834e-01) (59, 9.15178612651148387647e-02) (60, -4.25452219407277010266e-01) (61, 1.58748035163179301854e+00) (62, 5.10618792368074170263e-01) (63, 4.19046591050896299890e+00) (64, -2.13127980306079489736e+00) (65, -3.64157772608577845475e-01) (66, 1.50000000000000000000e+03) (67, -1.41494437659466898438e-01) (68, -1.08483701763184248179e+00) (69, 9.62419196172864949146e-02) (0, 4.38770400904432555933e+00) (1, 1.94136726684837390700e+00) (2, 1.67212935892778902236e+00) (3, 1.50000000000000000000e+03) (4, 1.30973682786529255218e+00) (5, 5.43264073531898628033e+00) (6, 2.15973775956220404026e+00) (7, -8.99380715205044034555e-01) (8, 9.74290762448371761018e-01) (9, 7.04927987515260645601e-01) (10, 5.83506034076756496809e-01) (11, 8.01165936230795794337e-01) (12, 2.75756346085761139264e+00) (13, 1.30036110026607060197e-01) (14, 1.44726445866593805833e-01) (15, -7.90308690341043895700e-01) (16, 1.58954860527633412559e+00) (17, 6.86525223716832555532e-01) (18, 2.61261678719426448936e+00) (19, 3.88033523056671025842e+00) (20, 1.38048237157830711030e-01) (21, 1.08243673323536659936e+00) (22, -1.22307044237377993134e+00) (23, -2.15405483711376621869e+00) (24, 1.50000000000000000000e+03) (25, 1.83469013647211953710e+00) (26, -1.14172902360697367530e-01) (27, 3.01881230805068234702e-01) (28, 6.84364951872319826620e-01) (29, -4.35195969913307401100e+00) (30, 1.98400112338889766939e+00) (31, -3.51285443330993052413e+00) (32, 1.03594685921822993180e+00) (33, -7.25735492385113784009e-02) (34, 1.83775479427847526770e-01) (35, 1.44930614612374053518e-01) (36, -2.17135890688614829891e-01) (37, 2.90760603570119902095e-01) (38, 3.16783039277465983119e-01) (39, -2.30667219255006550327e-01) (40, -2.99978468113620388991e+00) (41, 2.34100869379315040808e-01) (42, 4.13804988688768649041e+00) (43, -1.09858831276846036218e-01) (44, -4.09934193960223791642e-01) (45, 1.50000000000000000000e+03) (46, 2.50274240271173864514e+00) (47, -1.48620528304114596363e-01) (48, -2.73270017454137548185e+00) (49, 3.47395337425555039701e+00) (50, 1.44591930841344140646e+00) (51, -6.79298486209140017777e-01) (52, -4.43500667464891751290e-01) (53, -1.79516002949764486019e+00) (54, 8.59618131654705486255e+00) (55, 1.35511896095547479391e-01) (56, 1.78991610638174675207e-01) (57, 4.64947058885632424907e-01) (58, 3.32375856175339046139e-01) (59, 3.92893717460929381424e-01) (60, -4.96535749110752655522e-01) (61, -4.77769118063363418258e+00) (62, 1.82935493520769737463e-01) (63, 2.93660943903392634979e+00) (64, -4.16439159495026078872e+00) (65, -1.06852164573659824676e+00) (66, 1.50000000000000000000e+03) (67, 1.42142049825330007984e+00) (68, 1.41675319705491831179e+00) (69, 3.68474401536497297993e-01) (0, 1.39107803663443752029e+00) (1, 4.46791890666154412060e+00) (2, 6.82191432324945945531e-01) (3, 1.50000000000000000000e+03) (4, 3.12111734736940249491e+00) (5, 1.70414266573159123297e+00) (6, 3.60220193582070002947e+00) (7, 1.67516612209746185158e+00) (8, -8.66426053303992027566e+00) (9, 2.45427068690329663880e+00) (10, -1.05058265664653061044e+00) (11, 5.48774806759433531056e+00) (12, 1.94687322533163964522e+00) (13, -1.64899652432579195416e-02) (14, 6.25051059015803954499e-03) (15, -3.54579653457144261530e-01) (16, 1.17881675309544609043e+00) (17, 1.99889546236750659247e+00) (18, 3.16005597643903524130e+00) (19, 3.73667753940628211140e+00) (20, -8.70494147371431575833e-02) (21, -3.79315612297029924882e-01) (22, 4.70873704430439521396e-02) (23, 1.07354154171848370503e+00) (24, 1.50000000000000000000e+03) (25, 9.73407302249785666426e-01) (26, -4.17074997605240804788e-01) (27, -1.17914061055755281515e+00) (28, 1.57207939299459797944e+00) (29, 1.04564281730623687139e+00) (30, 3.19158764649253523515e+00) (31, -3.26535622962176530493e+00) (32, -6.24599812116993668987e-01) (33, 3.54192803002993228390e+00) (34, -2.15207335130736740481e-02) (35, 8.65576046927404724185e-02) (36, -2.93901078460830966765e-01) (37, -7.99403354327927417877e-01) (38, 5.02408636423807730687e-01) (39, 3.16784837773472160993e-01) (40, 2.63234522517481250858e+00) (41, -3.03183790819213441758e-02) (42, 8.19305451366814629921e+00) (43, -6.56390704634077115642e-01) (44, -2.02516969040205968566e-01) (45, 1.50000000000000000000e+03) (46, -7.29703175218421207227e-01) (47, 2.48040094317234860455e+00) (48, 1.06841266293532144438e+00) (49, 6.17605157925206649239e-01) (50, -2.25687203126591962032e+00) (51, -1.98223418605715823171e-01) (52, -4.18398040646262270315e+00) (53, 4.62421723295038611390e-01) (54, 8.27691596248441907591e-01) (55, 1.31432744102024583015e-03) (56, 7.55712467654181124788e-02) (57, 1.06979532981807845538e+00) (58, -8.96006496684227160543e-01) (59, 1.81414136229675038159e+00) (60, -2.50944888698018286899e-01) (61, 1.40784988526792775865e+00) (62, -3.83407693879172783991e-02) (63, -1.79478426668348428619e-02) (64, -5.07136674394076253369e-02) (65, -9.66007756313638638046e-02) (66, 1.50000000000000000000e+03) (67, -1.02546969321996073177e+00) (68, -5.12991341291137659120e-01) (69, 4.44861155163403632073e-01) (70, 1.50000000000000000000e+03) (71, -1.50000000000000000000e+03) (72, -1.50000000000000000000e+03) (73, -1.50000000000000000000e+03) (74, 5.07866169146229026410e+02) (75, -1.50000000000000000000e+03) (76, -1.50000000000000000000e+03) (77, 1.02001761335016681187e+03) (78, -1.50000000000000000000e+03) (79, -1.50000000000000000000e+03) (80, -1.50000000000000000000e+03) (81, -1.50000000000000000000e+03) (82, 1.49852830476379085667e+03) (83, -1.50000000000000000000e+03) (84, -1.50000000000000000000e+03) (85, -1.50000000000000000000e+03) (86, 1.49964728242662908997e+03) (87, 5.33355180820288751420e+02) (88, 1.50000000000000000000e+03) (89, 1.50000000000000000000e+03) (90, -1.50000000000000000000e+03) (91, -1.50000000000000000000e+03) (92, -1.50000000000000000000e+03) (93, -1.50000000000000000000e+03) (94, 2.53716341245541698868e+00) (95, -1.50000000000000000000e+03) (96, 1.33434811735840230540e+03) (97, -1.50000000000000000000e+03) (98, -1.50000000000000000000e+03) (99, 5.98095270201392850140e+02) (100, -1.50000000000000000000e+03) (101, 1.45470431476655744518e+03) (102, -1.50000000000000000000e+03) (103, -1.50000000000000000000e+03) (104, -1.50000000000000000000e+03) (105, 8.10622795780786987052e+02) (106, -1.50000000000000000000e+03) (107, -1.50000000000000000000e+03) (108, -1.50000000000000000000e+03) (109, -1.50000000000000000000e+03) (110, 1.50000000000000000000e+03) 
