FANN_FLO_2.1
num_layers=3
learning_rate=0.700000
connection_rate=1.000000
network_type=0
learning_momentum=0.000000
training_algorithm=2
train_error_function=1
train_stop_function=0
cascade_output_change_fraction=0.010000
quickprop_decay=-0.000100
quickprop_mu=1.750000
rprop_increase_factor=1.200000
rprop_decrease_factor=0.500000
rprop_delta_min=0.000000
rprop_delta_max=50.000000
rprop_delta_zero=0.100000
cascade_output_stagnation_epochs=12
cascade_candidate_change_fraction=0.010000
cascade_candidate_stagnation_epochs=12
cascade_max_out_epochs=150
cascade_max_cand_epochs=150
cascade_num_candidate_groups=2
bit_fail_limit=3.49999999999999977796e-01
cascade_candidate_limit=1.00000000000000000000e+03
cascade_weight_multiplier=4.00000000000000022204e-01
cascade_activation_functions_count=10
cascade_activation_functions=3 5 7 8 10 11 14 15 16 17 
cascade_activation_steepnesses_count=4
cascade_activation_steepnesses=2.50000000000000000000e-01 5.00000000000000000000e-01 7.50000000000000000000e-01 1.00000000000000000000e+00 
layer_sizes=70 91 2 
scale_included=0
neurons (num_inputs, activation_function, activation_steepness)=(0, 0, 0.00000000000000000000e+00) (0, 0, 0.00000000000000000000e+00) (0, 0, 0.00000000000000000000e+00) (0, 0, 0.00000000000000000000e+00) (0, 0, 0.00000000000000000000e+00) (0, 0, 0.00000000000000000000e+00) (0, 0, 0.00000000000000000000e+00) (0, 0, 0.00000000000000000000e+00) (0, 0, 0.00000000000000000000e+00) (0, 0, 0.00000000000000000000e+00) (0, 0, 0.00000000000000000000e+00) (0, 0, 0.00000000000000000000e+00) (0, 0, 0.00000000000000000000e+00) (0, 0, 0.00000000000000000000e+00) (0, 0, 0.00000000000000000000e+00) (0, 0, 0.00000000000000000000e+00) (0, 0, 0.00000000000000000000e+00) (0, 0, 0.00000000000000000000e+00) (0, 0, 0.00000000000000000000e+00) (0, 0, 0.00000000000000000000e+00) (0, 0, 0.00000000000000000000e+00) (0, 0, 0.00000000000000000000e+00) (0, 0, 0.00000000000000000000e+00) (0, 0, 0.00000000000000000000e+00) (0, 0, 0.00000000000000000000e+00) (0, 0, 0.00000000000000000000e+00) (0, 0, 0.00000000000000000000e+00) (0, 0, 0.00000000000000000000e+00) (0, 0, 0.00000000000000000000e+00) (0, 0, 0.00000000000000000000e+00) (0, 0, 0.00000000000000000000e+00) (0, 0, 0.00000000000000000000e+00) (0, 0, 0.00000000000000000000e+00) (0, 0, 0.00000000000000000000e+00) (0, 0, 0.00000000000000000000e+00) (0, 0, 0.00000000000000000000e+00) (0, 0, 0.00000000000000000000e+00) (0, 0, 0.00000000000000000000e+00) (0, 0, 0.00000000000000000000e+00) (0, 0, 0.00000000000000000000e+00) (0, 0, 0.00000000000000000000e+00) (0, 0, 0.00000000000000000000e+00) (0, 0, 0.00000000000000000000e+00) (0, 0, 0.00000000000000000000e+00) (0, 0, 0.00000000000000000000e+00) (0, 0, 0.00000000000000000000e+00) (0, 0, 0.00000000000000000000e+00) (0, 0, 0.00000000000000000000e+00) (0, 0, 0.00000000000000000000e+00) (0, 0, 0.00000000000000000000e+00) (0, 0, 0.00000000000000000000e+00) (0, 0, 0.00000000000000000000e+00) (0, 0, 0.00000000000000000000e+00) (0, 0, 0.00000000000000000000e+00) (0, 0, 0.00000000000000000000e+00) (0, 0, 0.00000000000000000000e+00) (0, 0, 0.00000000000000000000e+00) (0, 0, 0.00000000000000000000e+00) (0, 0, 0.00000000000000000000e+00) (0, 0, 0.00000000000000000000e+00) (0, 0, 0.00000000000000000000e+00) (0, 0, 0.00000000000000000000e+00) (0, 0, 0.00000000000000000000e+00) (0, 0, 0.00000000000000000000e+00) (0, 0, 0.00000000000000000000e+00) (0, 0, 0.00000000000000000000e+00) (0, 0, 0.00000000000000000000e+00) (0, 0, 0.00000000000000000000e+00) (0, 0, 0.00000000000000000000e+00) (0, 0, 0.00000000000000000000e+00) (70, 4, 5.00000000000000000000e-01) (70, 4, 5.00000000000000000000e-01) (70, 4, 5.00000000000000000000e-01) (70, 4, 5.00000000000000000000e-01) (70, 4, 5.00000000000000000000e-01) (70, 4, 5.00000000000000000000e-01) (70, 4, 5.00000000000000000000e-01) (70, 4, 5.00000000000000000000e-01) (70, 4, 5.00000000000000000000e-01) (70, 4, 5.00000000000000000000e-01) (70, 4, 5.00000000000000000000e-01) (70, 4, 5.00000000000000000000e-01) (70, 4, 5.00000000000000000000e-01) (70, 4, 5.00000000000000000000e-01) (70, 4, 5.00000000000000000000e-01) (70, 4, 5.00000000000000000000e-01) (70, 4, 5.00000000000000000000e-01) (70, 4, 5.00000000000000000000e-01) (70, 4, 5.00000000000000000000e-01) (70, 4, 5.00000000000000000000e-01) (70, 4, 5.00000000000000000000e-01) (70, 4, 5.00000000000000000000e-01) (70, 4, 5.00000000000000000000e-01) (70, 4, 5.00000000000000000000e-01) (70, 4, 5.00000000000000000000e-01) (70, 4, 5.00000000000000000000e-01) (70, 4, 5.00000000000000000000e-01) (70, 4, 5.00000000000000000000e-01) (70, 4, 5.00000000000000000000e-01) (70, 4, 5.00000000000000000000e-01) (70, 4, 5.00000000000000000000e-01) (70, 4, 5.00000000000000000000e-01) (70, 4, 5.00000000000000000000e-01) (70, 4, 5.00000000000000000000e-01) (70, 4, 5.00000000000000000000e-01) (70, 4, 5.00000000000000000000e-01) (70, 4, 5.00000000000000000000e-01) (70, 4, 5.00000000000000000000e-01) (70, 4, 5.00000000000000000000e-01) (70, 4, 5.00000000000000000000e-01) (70, 4, 5.00000000000000000000e-01) (70, 4, 5.00000000000000000000e-01) (70, 4, 5.00000000000000000000e-01) (70, 4, 5.00000000000000000000e-01) (70, 4, 5.00000000000000000000e-01) (70, 4, 5.00000000000000000000e-01) (70, 4, 5.00000000000000000000e-01) (70, 4, 5.00000000000000000000e-01) (70, 4, 5.00000000000000000000e-01) (70, 4, 5.00000000000000000000e-01) (70, 4, 5.00000000000000000000e-01) (70, 4, 5.00000000000000000000e-01) (70, 4, 5.00000000000000000000e-01) (70, 4, 5.00000000000000000000e-01) (70, 4, 5.00000000000000000000e-01) (70, 4, 5.00000000000000000000e-01) (70, 4, 5.00000000000000000000e-01) (70, 4, 5.00000000000000000000e-01) (70, 4, 5.00000000000000000000e-01) (70, 4, 5.00000000000000000000e-01) (70, 4, 5.00000000000000000000e-01) (70, 4, 5.00000000000000000000e-01) (70, 4, 5.00000000000000000000e-01) (70, 4, 5.00000000000000000000e-01) (70, 4, 5.00000000000000000000e-01) (70, 4, 5.00000000000000000000e-01) (70, 4, 5.00000000000000000000e-01) (70, 4, 5.00000000000000000000e-01) (70, 4, 5.00000000000000000000e-01) (70, 4, 5.00000000000000000000e-01) (70, 4, 5.00000000000000000000e-01) (70, 4, 5.00000000000000000000e-01) (70, 4, 5.00000000000000000000e-01) (70, 4, 5.00000000000000000000e-01) (70, 4, 5.00000000000000000000e-01) (70, 4, 5.00000000000000000000e-01) (70, 4, 5.00000000000000000000e-01) (70, 4, 5.00000000000000000000e-01) (70, 4, 5.00000000000000000000e-01) (70, 4, 5.00000000000000000000e-01) (70, 4, 5.00000000000000000000e-01) (70, 4, 5.00000000000000000000e-01) (70, 4, 5.00000000000000000000e-01) (70, 4, 5.00000000000000000000e-01) (70, 4, 5.00000000000000000000e-01) (70, 4, 5.00000000000000000000e-01) (70, 4, 5.00000000000000000000e-01) (70, 4, 5.00000000000000000000e-01) (70, 4, 5.00000000000000000000e-01) (70, 4, 5.00000000000000000000e-01) (0, 0, 0.00000000000000000000e+00) (91, 4, 5.00000000000000000000e-01) (0, 0, 0.00000000000000000000e+00) 
connections (connected_to_neuron, weight)=(0, -9.58969989777528342145e-01) (1, 1.46479779140094423795e+00) (2, 3.14595520622809132760e+00) (3, 1.50000000000000000000e+03) (4, 1.79895971181081248957e+00) (5, -1.91323643461347292494e+00) (6, -1.43655364810473873405e+00) (7, -3.45528487380490156866e+00) (8, -6.71459003849706803635e-01) (9, 9.71946070558568298026e-01) (10, 9.62799673154729918068e-01) (11, -2.19972700796743358964e-01) (12, -8.83563648512482369135e-01) (13, 1.50000000000000000000e+03) (14, 1.50000000000000000000e+03) (15, 2.33846974048609634877e+00) (16, -2.28323971241286205469e+00) (17, 1.60456207366141101467e+00) (18, 5.29381416816313898899e-01) (19, 4.13250284622365438025e+00) (20, 1.70121583380097662896e+00) (21, 1.67122094387131192583e+00) (22, -1.51935471671869049004e-01) (23, 4.80731061156391881184e+00) (24, 1.50000000000000000000e+03) (25, -2.12805400853579307352e+00) (26, -1.48052174068212893943e+00) (27, 6.69974859576922820992e-01) (28, -7.37270094375072404524e-01) (29, 4.06882558646415204429e-01) (30, 1.17560266939376628637e-01) (31, -3.18570816186681815552e-01) (32, 9.22097810978436127627e-01) (33, 2.04872334256385491003e+00) (34, 1.50000000000000000000e+03) (35, 1.50000000000000000000e+03) (36, -1.59932679810129085851e+00) (37, 1.20725131129081164616e+00) (38, -2.29181679008872363212e+00) (39, 1.05251925437316384837e+00) (40, -1.87585913359869871364e+00) (41, 1.75550001140506672925e+00) (42, -7.78644030944735443533e-01) (43, -5.72775543132233333488e-01) (44, 1.65675695534858591351e+00) (45, 1.50000000000000000000e+03) (46, 1.69012324857500262354e+00) (47, -8.20003382485376297595e-01) (48, -6.67721218403079075365e-01) (49, 1.13741685939069192557e+00) (50, -3.93262242171279363667e-01) (51, 2.30539747855460852577e+00) (52, 6.46075946276838841698e-01) (53, 2.37789700507582857369e+00) (54, 1.36173323968757786773e+00) (55, 1.50000000000000000000e+03) (56, 1.50000000000000000000e+03) (57, -2.12408670728420068130e+00) (58, 4.27991243164155488188e-01) (59, -6.18881185556321211649e-01) (60, -8.18837406001961864987e-01) (61, 1.13553911900207116226e+00) (62, 1.60200724776657033033e+00) (63, 3.06137139016760539967e-01) (64, -3.54384792691580408075e-01) (65, 7.06250753560117794372e-01) (66, 1.50000000000000000000e+03) (67, -2.72815837908504477127e+00) (68, -4.41401211915576838218e-02) (69, -1.01635813621750470404e+00) (0, -4.67095733460390072356e-01) (1, 1.00307128149419844121e+00) (2, 2.05453699316303284306e+00) (3, 1.50000000000000000000e+03) (4, 6.50830431312513901787e+00) (5, -8.72345814548333819971e+00) (6, 1.49385827243632529626e-01) (7, 2.91982800996024999263e-02) (8, -1.46693826813113559204e+00) (9, -1.87158731370819708673e+00) (10, 2.28024511262514018028e+00) (11, 8.80905939434404428034e-01) (12, 2.66149066257341138098e+00) (13, 1.50000000000000000000e+03) (14, 1.50000000000000000000e+03) (15, 3.10406439146446111454e-01) (16, 2.56450970567313119020e+00) (17, 3.90019552414935732898e+00) (18, 1.99530496014363700752e+00) (19, 1.81426657714766348395e-01) (20, 3.72650227832764413538e-01) (21, 6.42440801446934717234e-01) (22, -1.57603171166865352326e+00) (23, 4.10869819582227346899e+00) (24, 1.50000000000000000000e+03) (25, 9.93648168954156640886e-01) (26, 1.21219264233983797796e-01) (27, 6.18276448299817871224e-01) (28, 6.52138755410985537786e-01) (29, 4.80351510713267371155e-01) (30, -2.16741153420700172205e+00) (31, 3.42155288320616257636e+00) (32, 2.51401562250259502651e-01) (33, -3.23835858376290408600e+00) (34, 1.50000000000000000000e+03) (35, 1.50000000000000000000e+03) (36, -1.44914781177159635028e+00) (37, -5.42128093483967399280e-01) (38, 4.03330019260216321442e+00) (39, -7.92893489059419032117e-01) (40, -7.23683588141160565044e-03) (41, 3.28579864788025810540e-01) (42, 4.23115016949821343140e-01) (43, -4.75393150577723022643e-01) (44, 1.06261746218565189537e+00) (45, 1.50000000000000000000e+03) (46, 3.47409299092184931101e-01) (47, 8.79668043294353552142e-01) (48, 3.32191792960401555135e+00) (49, -6.95362076975373555321e-01) (50, -3.81900719782732744889e+00) (51, -4.99674216816530125662e-01) (52, 1.89641049906971642658e-01) (53, -5.83738819304711276104e-01) (54, 3.91452502263285806450e+00) (55, 1.50000000000000000000e+03) (56, 1.50000000000000000000e+03) (57, -2.16327597348164291091e+00) (58, -1.55966612655483283234e+00) (59, -1.55881538824024623580e+00) (60, 2.41055171123678402267e+00) (61, 3.31633262952999352535e+00) (62, 3.58273214983910348597e-01) (63, -1.03825120095536549414e+00) (64, 1.08811657750136281386e+00) (65, -4.01834230245200207943e-01) (66, 1.50000000000000000000e+03) (67, -2.67930324027011945720e-01) (68, 1.25118402287527663574e+00) (69, -4.83904137550796725753e-03) (0, 6.00832584490659016296e-01) (1, 2.87982234908639034288e+00) (2, 2.68744108708331630453e+00) (3, 1.50000000000000000000e+03) (4, 1.57162941382442156169e+00) (5, -1.47669195555121834929e+00) (6, -3.84826915263620852881e-02) (7, -4.52122036186538178715e-01) (8, 1.90630691091888126998e+00) (9, -1.06470075772853320362e-01) (10, -2.35372543499339892392e+00) (11, 3.21231090058327373171e+00) (12, 1.51571113706509597030e+00) (13, 1.50000000000000000000e+03) (14, 1.50000000000000000000e+03) (15, -4.63532261578952442527e-01) (16, 4.89945644643716171629e+00) (17, -2.03582944056945347455e+00) (18, -1.19813325088198796564e+00) (19, 9.12841583608681284012e-01) (20, 1.57676051595320321219e+00) (21, -2.44624262795216562694e+00) (22, 9.64470057956958393142e-01) (23, 1.65556787413670636333e+00) (24, 1.50000000000000000000e+03) (25, 5.12089198820865343365e-02) (26, -3.02197859119183664944e+00) (27, -2.02017175926231384864e+00) (28, 4.37267796760129012767e+00) (29, 8.18613869189368625889e-01) (30, 1.20644883545347081366e+00) (31, 1.51265811641327219128e+00) (32, -1.42896134166561572520e+00) (33, 2.82125935880512113130e+00) (34, 1.50000000000000000000e+03) (35, 1.50000000000000000000e+03) (36, -6.16907706196521021802e-01) (37, -3.19872659851624663307e-01) (38, -1.20994545177585655082e+00) (39, -2.19928509473590239054e+00) (40, 1.17590244960074974401e+00) (41, 1.40851381459345437186e+00) (42, 9.42314586662135189599e-01) (43, 1.20687792147969719103e+00) (44, 3.94878958080418085430e+00) (45, 1.50000000000000000000e+03) (46, 8.42487221449455758737e-01) (47, -4.05142895234713762420e+00) (48, -3.34381019007152724409e-01) (49, 1.82726961429482720467e-01) (50, -2.21815454042802073786e+00) (51, 1.40563979436060026984e-01) (52, -4.25023434987432946475e-01) (53, -1.35519276129349353077e+00) (54, -1.25110652936434418869e-01) (55, 1.50000000000000000000e+03) (56, 1.50000000000000000000e+03) (57, -1.03601364598468559386e+00) (58, -1.82097445235659821661e-01) (59, 7.25789569242950238781e-01) (60, 1.27842501183645418372e+00) (61, 4.15179401164087469311e+00) (62, 1.46001616158594704764e+00) (63, 3.79949691632859165580e+00) (64, 9.43867313618948933218e-01) (65, -9.51702432238019091493e-01) (66, 1.50000000000000000000e+03) (67, 4.21832260192028840606e+00) (68, 1.91866127869633107395e+00) (69, -9.06495711606908893820e-01) (0, 3.33569946654359128502e-01) (1, 2.94398143948581880736e+00) (2, -9.63693608441719140600e-01) (3, 1.50000000000000000000e+03) (4, 5.56005243024308004607e+00) (5, -3.75148543895384589675e+00) (6, -1.65083877261993250407e+00) (7, 2.19893171869424169929e-01) (8, -1.90056178408815590331e+00) (9, 5.89696726700676077115e-01) (10, -2.46706521935320388650e-01) (11, -7.13132816799238577338e-03) (12, 1.11171205671753314803e+00) (13, 1.50000000000000000000e+03) (14, 1.50000000000000000000e+03) (15, 1.07340068211406625132e+00) (16, -4.83937961404136185450e+00) (17, 2.98291006075817977106e+00) (18, 1.14821687624792923010e+00) (19, 3.23747988004154541031e+00) (20, 3.14702674534711512866e-01) (21, 9.86582653502285467084e-01) (22, 4.18840322268597020638e+00) (23, 4.80756703890918313249e+00) (24, 1.50000000000000000000e+03) (25, 1.29545817481585889830e+00) (26, -5.59292792813100403393e-01) (27, 5.88241698862074890997e-01) (28, 1.56225538878118797026e-01) (29, -1.72094139698158943297e+00) (30, -1.42990240183317074418e+00) (31, 7.82377536277854890301e-01) (32, -1.50069466814510144026e+00) (33, 4.71706337230946459727e+00) (34, 1.50000000000000000000e+03) (35, 1.50000000000000000000e+03) (36, 3.81247469444752906664e-01) (37, 9.09646693023063779293e-01) (38, 1.70253350121246516125e+00) (39, 5.00177665084506825610e-03) (40, 2.71099715186317746785e+00) (41, 3.40214714196118983569e-01) (42, 1.45329973986378879758e+00) (43, -1.75531696461651764984e+00) (44, 2.66008831345769358734e+00) (45, 1.50000000000000000000e+03) (46, -1.65080817393043755015e-02) (47, -6.78408679508585854556e-01) (48, 6.97462315798043741566e-01) (49, 1.38201585492588208126e+00) (50, 3.94549554599796348242e-01) (51, -1.25038357634000218965e+00) (52, 1.10058351211624727561e+00) (53, 1.92159830105727902350e-01) (54, 3.57507841451725916215e+00) (55, 1.50000000000000000000e+03) (56, 1.50000000000000000000e+03) (57, -9.27936335504627507476e-01) (58, 3.81595161096627322195e+00) (59, 2.75819869476960466415e-01) (60, 1.54045116974380752461e-01) (61, 1.46040562254384131968e+00) (62, 2.62294702020082148852e-01) (63, -1.82048963390317980471e-01) (64, 2.41715153777786806444e+00) (65, -6.40268704649088582492e-01) (66, 1.50000000000000000000e+03) (67, -8.79093922338137323536e-01) (68, 2.39062972816170749013e+00) (69, 6.65111012371777610142e-01) (0, 7.38923695588818763014e-01) (1, 1.27249339496586877374e+00) (2, -3.39501803121085243831e-01) (3, 1.50000000000000000000e+03) (4, 1.62751148667124190261e+00) (5, 3.07396055029228454369e-01) (6, 3.12251310179156305047e-01) (7, 3.31263890578633635187e+00) (8, 2.68247125052983648175e+00) (9, 2.61478086771884621342e+00) (10, 1.03941078362401095880e+00) (11, -7.61215585388492987917e-01) (12, 4.12248074146207510449e-01) (13, 1.50000000000000000000e+03) (14, 1.50000000000000000000e+03) (15, -4.45354697077185956999e+00) (16, -2.19661875970601161434e-01) (17, 4.60404851600892506269e-01) (18, 1.76550878815376344200e+00) (19, 4.67509322379752179089e-01) (20, 1.59296469443414884237e-01) (21, 2.49664189001701375403e+00) (22, 2.79792118601553729818e+00) (23, 4.35875451161742244466e+00) (24, 1.50000000000000000000e+03) (25, 1.93868885903398746606e+00) (26, -1.48788562720910055859e+00) (27, -2.38814742064675816779e-01) (28, 9.03046974980962202650e-02) (29, 3.19740250240679158011e+00) (30, 1.39004441777968401617e+00) (31, 2.44903359178116619699e-01) (32, 3.94503465000090453030e-02) (33, 5.06878001053628590711e+00) (34, 1.50000000000000000000e+03) (35, 1.50000000000000000000e+03) (36, 2.38024227008531497063e+00) (37, -2.68829986610066073993e+00) (38, 2.85115890638790236977e+00) (39, 1.01834406078915407079e+00) (40, 1.00919085713092471224e+00) (41, 5.15220781921163828443e-01) (42, 9.76199695359466268485e-01) (43, 2.34286482627449332838e+00) (44, 1.23639508812638387880e+00) (45, 1.50000000000000000000e+03) (46, -1.46494853316965267798e-01) (47, 1.27643841144474667892e+00) (48, -1.73961214328485902492e+00) (49, -6.91086107518743442135e-01) (50, 5.63711267033987287189e-02) (51, 8.26691321398256961928e-01) (52, 7.50816850317001627246e-01) (53, 1.91275517958130758522e+00) (54, 4.24457938487152386386e+00) (55, 1.50000000000000000000e+03) (56, 1.50000000000000000000e+03) (57, 1.14848638747337083998e+00) (58, -2.32752443594702457252e-02) (59, 9.63967258948815852726e-01) (60, 1.42740798289091386231e+00) (61, 9.70909857349580907027e-01) (62, 5.63983200250879557203e-01) (63, 3.55601994948722266443e+00) (64, 1.14718266914957700564e+00) (65, 2.25895190270041279490e+00) (66, 1.50000000000000000000e+03) (67, 2.10987884198443564898e+00) (68, 3.59969800037879483767e+00) (69, 9.20772771733691874907e-01) (0, -2.20765597314407958918e-02) (1, 2.56563209201556707839e+00) (2, 6.53020972570888336151e+00) (3, 1.50000000000000000000e+03) (4, -1.06652075189192008242e-01) (5, -2.29055474586857954478e+00) (6, -1.21644884719624910008e-01) (7, 9.79459524308186169073e-01) (8, -4.13645311028414675025e-01) (9, -1.06618802071286182809e+01) (10, 5.32426143124206552315e-01) (11, 1.27823639722810700192e+00) (12, 2.13720288923740309173e+00) (13, 1.50000000000000000000e+03) (14, 1.50000000000000000000e+03) (15, 2.91357881784372108047e-01) (16, 9.04637531870065347839e-01) (17, 7.92495951532499898207e+00) (18, 4.74806540913703611917e-01) (19, 3.96555587294803668641e+00) (20, 2.35784591221281369933e-01) (21, -4.89856516874387692972e-01) (22, 1.80385474929868916405e+00) (23, 5.46748189484376023728e+00) (24, 1.50000000000000000000e+03) (25, -9.71693022764306135741e-01) (26, -8.72153756239193556077e-01) (27, -1.94268801696181117600e-02) (28, -6.79380767051474987461e-01) (29, -2.82159605390554268922e+00) (30, 6.41391685504727360190e-01) (31, 4.73209908086334452015e-02) (32, -4.93703984698082898319e+00) (33, 3.07688805068089754613e+00) (34, 1.50000000000000000000e+03) (35, 1.50000000000000000000e+03) (36, -5.69937962562736433192e-01) (37, 6.66188613332848400539e-01) (38, 3.18979848527953746551e-01) (39, -6.46374066688936488312e-01) (40, 6.46558221071357408505e-01) (41, 1.97774433576532737700e-01) (42, 2.93767335337402935025e+00) (43, 1.30024619552216846863e+00) (44, -2.38051884586622741757e-01) (45, 1.50000000000000000000e+03) (46, 3.28778531202857937643e-01) (47, -1.76678835842227988095e+00) (48, 1.01985015530634326453e+00) (49, 9.64415443831280305709e-01) (50, 2.14253652446145581578e-01) (51, -3.19504679292145904457e-02) (52, 1.14665420934853590218e+00) (53, 1.43487035819215780208e+00) (54, 8.79339728198840320239e-01) (55, 1.50000000000000000000e+03) (56, 1.50000000000000000000e+03) (57, -1.10741485349745638622e+00) (58, 6.65384643184189529530e-03) (59, 2.54174892309616939912e+00) (60, 3.18559080109834025230e-01) (61, 3.38544977862535656499e+00) (62, 1.96256578945585624663e-01) (63, 1.26061795665116216369e+00) (64, 3.58344130164865271038e-01) (65, 1.15644839830234280598e+00) (66, 1.50000000000000000000e+03) (67, 2.31549270047369554204e-01) (68, 1.11481347980285816490e+00) (69, 1.35820772952254809063e-01) (0, 3.17959321728754407133e-01) (1, 2.54339893860260790603e+00) (2, 3.44119680810682160299e+00) (3, 1.50000000000000000000e+03) (4, -4.79984642883403589408e-01) (5, -1.02541192111497347916e+00) (6, 2.05854097446376976821e-01) (7, 6.36166576934607097549e-01) (8, 1.54905889323974199634e+00) (9, 7.88991279109041432349e-01) (10, 5.41007321421319908872e-01) (11, -1.10625151873165489258e-01) (12, -2.12463035111477793748e+00) (13, 1.50000000000000000000e+03) (14, 1.50000000000000000000e+03) (15, 2.41703254222072227986e-01) (16, 1.36317947024960495206e+00) (17, 6.33990524638602437335e+00) (18, -1.50430849804409882964e+00) (19, 3.17986510566642566200e-01) (20, 1.64778156181823676185e+00) (21, -8.88061794023486394956e-01) (22, 1.10753321708824703506e+00) (23, 4.97096774002022723238e+00) (24, 1.50000000000000000000e+03) (25, 1.70618223846237593300e+00) (26, -1.01435401475597974930e+00) (27, -3.35725670613936710840e-01) (28, 6.16504484414938991321e-01) (29, -5.49762747066893431303e-01) (30, -3.83854929380914544623e+00) (31, 8.44059067560489872939e-01) (32, -3.55654700238934196044e-01) (33, 8.17133602978395101601e-01) (34, 1.50000000000000000000e+03) (35, 1.50000000000000000000e+03) (36, 1.89112960836568866352e-01) (37, -3.00653194875206608572e+00) (38, 7.67303926331577845765e-01) (39, -3.10701809413105489721e-01) (40, 2.69749803245534636176e+00) (41, 1.69416407099019949989e+00) (42, -8.43591799611627002342e-01) (43, 1.33338381802067540427e+00) (44, -1.38758292424493245854e+00) (45, 1.50000000000000000000e+03) (46, 7.14951971890671944543e-01) (47, -1.37699783719633317425e-01) (48, -1.14720586343932029472e+00) (49, 5.51609806078455999767e+00) (50, 3.42263178150371150110e+00) (51, 1.32853259985364013929e+00) (52, -2.03367951354398529551e-01) (53, -3.78741989502199283280e-01) (54, -3.57790868092844416282e+00) (55, 1.50000000000000000000e+03) (56, 1.50000000000000000000e+03) (57, -1.75193112176254262025e+00) (58, 2.13230900579280679974e-01) (59, 2.36521552845465432569e+00) (60, 2.94879180472271407165e-01) (61, 2.07522223449464737755e+00) (62, 1.73257510712396567421e+00) (63, 1.28502823298086310544e+00) (64, 2.04606036562983994997e+00) (65, -1.83096803619236170313e+00) (66, 1.50000000000000000000e+03) (67, 1.20188804918089298113e+00) (68, -5.85644765452297266783e-01) (69, -9.49076058311801751266e-01) (0, -1.43593803186360791102e+00) (1, 1.67692255592145045284e+00) (2, 3.57986608782981141630e+00) (3, 1.50000000000000000000e+03) (4, -7.98286341498083973356e-01) (5, -2.01588507501358504825e+00) (6, 2.57241462906597107008e-01) (7, -2.80131831286637600353e-01) (8, 4.79873626854420420873e-01) (9, 5.21699246721824771988e-01) (10, 1.72865697408578711247e+00) (11, -9.65838118066989603783e-01) (12, 7.22564546281293740293e-01) (13, 1.50000000000000000000e+03) (14, 1.50000000000000000000e+03) (15, -4.26898385889064879706e+00) (16, 3.70194534203928116156e-01) (17, -1.36844897220571581897e-01) (18, -6.30221687301142030613e-01) (19, -1.04553489425110091027e+00) (20, 1.67302106604777001131e+00) (21, -2.32057420957212290347e+00) (22, 1.57797169999737163515e+00) (23, 3.01407264976318156613e+00) (24, 1.50000000000000000000e+03) (25, -2.95801965327063465239e+00) (26, -7.56507871995009351096e-01) (27, -9.86151415570650224929e-01) (28, 1.59021696419584102067e+00) (29, -4.76135049757692219163e-01) (30, 5.98429334055630035571e-01) (31, 1.94244862340018475955e-01) (32, 2.00514122777461417657e-01) (33, -7.68720407114508286206e-01) (34, 1.50000000000000000000e+03) (35, 1.50000000000000000000e+03) (36, 4.24943447342380764553e-01) (37, -5.83957171273797981392e-01) (38, 1.77182470256502266892e+00) (39, 2.12709088825458669803e+00) (40, 6.50535387131609299516e-01) (41, 1.64592839688859604586e+00) (42, 1.92579219476854551774e-01) (43, 1.22423914884228368649e+00) (44, -5.95598371117056601953e-01) (45, 1.50000000000000000000e+03) (46, -1.20615438117914064442e+00) (47, 2.80257250022946724499e+00) (48, 1.46565068153708705223e-01) (49, 2.71140348163384370395e+00) (50, 1.78751471802705741432e+00) (51, 2.78701683441676895114e+00) (52, -4.19559016686298580368e-01) (53, 1.72873411380412300709e+00) (54, -3.82207737842209738233e-01) (55, 1.50000000000000000000e+03) (56, 1.50000000000000000000e+03) (57, -2.71269921361270149873e-01) (58, -2.26957031324966962416e+00) (59, 2.15399638216297972804e+00) (60, 1.76030914372409919011e+00) (61, 1.24537240018302686195e+00) (62, 1.77891881302796028841e+00) (63, 1.60805045001721791387e+00) (64, 1.64389663526626117473e+00) (65, 1.23653080017770519716e-01) (66, 1.50000000000000000000e+03) (67, 2.49005222458531694230e+00) (68, 5.01608198511137448605e+00) (69, -1.01782584306583978595e+00) (0, -1.34418844116165603353e+00) (1, 1.47826072064520652738e+00) (2, 2.94376435043655693136e+00) (3, 1.50000000000000000000e+03) (4, 7.27046007859037168863e-01) (5, -6.57225877970059713107e+00) (6, -1.18057388272684193886e+00) (7, 3.43162059630424343126e-01) (8, -1.62474529803766998270e+00) (9, -6.13068407170862794686e+00) (10, -3.10350330777602045895e-01) (11, 2.70227025219869965156e+00) (12, 4.33709390272526640331e-01) (13, 1.50000000000000000000e+03) (14, 1.50000000000000000000e+03) (15, 1.86710691835499797975e+00) (16, -2.53525370490360613118e+00) (17, 2.44206594170983448677e+00) (18, -1.04335845289114548251e+00) (19, 9.58463685830983291858e-01) (20, 9.93982585805793239508e-02) (21, -2.86239732623501164088e-01) (22, 2.81319221353710013922e-01) (23, 1.99658745010495575212e-02) (24, 1.50000000000000000000e+03) (25, 1.56359199278268912181e-01) (26, 2.25837066720293622168e+00) (27, 6.90565810380885825026e-01) (28, 5.94068485014713765224e+00) (29, -2.21091885318068032129e-01) (30, 1.21384291874596184080e+00) (31, 1.64792708399571705136e-02) (32, 1.02220263066160410581e+00) (33, 1.42203972252996191372e+00) (34, 1.50000000000000000000e+03) (35, 1.50000000000000000000e+03) (36, -3.54792315100227506619e+00) (37, 1.30872202236315970936e+00) (38, -6.53165656808618155793e-01) (39, 1.17542222051794764681e+00) (40, -2.54096117606226901131e+00) (41, 1.16526331259622140113e-01) (42, 2.37265402961907367896e+00) (43, 4.25962160461434591330e-01) (44, 4.95799153356633759415e+00) (45, 1.50000000000000000000e+03) (46, 1.56101458032037432311e+00) (47, -2.63630254578808242982e+00) (48, 9.23292640131810227189e-01) (49, 7.61348170346829222765e-01) (50, -1.72080887082610733962e+00) (51, 9.77146688972770904869e-01) (52, 2.88567772570479608163e-01) (53, 4.62771962389090063539e+00) (54, 1.11140956038512572768e+00) (55, 1.50000000000000000000e+03) (56, 1.50000000000000000000e+03) (57, -1.48744522498816689193e+00) (58, 1.93192977386085051883e+00) (59, 1.92302017963674010126e+00) (60, -5.30156158048728176624e-01) (61, 3.80139910219314369755e+00) (62, 1.96805405868901772681e-01) (63, 1.49126732165686171072e+00) (64, -8.46550161200833484187e-01) (65, 1.54887172527685718082e-01) (66, 1.50000000000000000000e+03) (67, -1.15118919924781892838e+00) (68, -5.17484518628813017216e+00) (69, 2.57913523304848291140e-01) (0, -1.14092666964155320386e+00) (1, -6.69463419593775310723e-01) (2, 1.37504965110300503284e+00) (3, 1.50000000000000000000e+03) (4, -1.10534354551123960297e-02) (5, -1.55908534082811645050e+00) (6, -1.40058686735774345911e-01) (7, -1.28358835461119924481e+00) (8, 8.55300865892205525176e-02) (9, 2.50624443630655058257e+00) (10, -1.46510210021817049997e-01) (11, 1.47275285159626756482e+00) (12, -2.01898995236636069617e-01) (13, 1.50000000000000000000e+03) (14, 1.50000000000000000000e+03) (15, 2.29814792352163888012e+00) (16, 4.15905815567619518980e-01) (17, 1.69104433087817307424e+00) (18, 6.58114575312200189572e-01) (19, 3.14209601469333410506e+00) (20, 7.86247353283534899937e-01) (21, 1.32329215205337424877e+00) (22, -2.20193458690443211179e-01) (23, -3.62988991289592899392e+00) (24, 1.50000000000000000000e+03) (25, 7.52125485072665411757e-01) (26, 3.13381335159578000571e+00) (27, 8.49412991820034268819e-01) (28, -4.37480209572668865547e+00) (29, -1.54698039344148208230e+00) (30, 3.92621576451162468402e-01) (31, 1.20667082881328879829e-01) (32, 2.53615906780160660361e+00) (33, 1.97536254733197869093e+00) (34, 1.50000000000000000000e+03) (35, 1.50000000000000000000e+03) (36, 1.27142574671397001751e+00) (37, -2.17767562709801820731e+00) (38, 5.02406016139389688391e+00) (39, 9.09432429408834064333e-01) (40, -1.50761650032191418802e+00) (41, 8.73502013180146974491e-01) (42, 6.63486799558440809577e-01) (43, 6.24353894961239164196e-01) (44, 9.92470190496651416545e-01) (45, 1.50000000000000000000e+03) (46, 1.90764425283370259168e-01) (47, 3.25338479741020636382e+00) (48, 9.68030949719471123238e-01) (49, -3.56793535701790753834e+00) (50, -4.57146508454883804262e-01) (51, 4.61312531418174631703e-01) (52, 2.12989218095835664002e+00) (53, 2.87825141837650733123e-01) (54, 8.19885611474383990682e-01) (55, 1.50000000000000000000e+03) (56, 1.50000000000000000000e+03) (57, 1.18767806503893358361e+00) (58, 2.79957067699626360735e+00) (59, -7.34339025874852502351e-02) (60, -8.17308878595157883851e-01) (61, -4.10234786045254595788e-01) (62, 8.75240069720636171269e-01) (63, 2.18709959888710825382e+00) (64, 2.09041612771878648758e+00) (65, 2.80845923534324715121e+00) (66, 1.50000000000000000000e+03) (67, 1.00882505337636696474e+00) (68, -1.68291210660022327872e+00) (69, -3.95206838526614201434e-01) (0, 7.21246044151431647817e-02) (1, -4.39283590330624584830e-01) (2, 8.00503804861785006608e+00) (3, 1.50000000000000000000e+03) (4, 5.41339103761345263877e+00) (5, -6.56957626405670236380e+00) (6, 4.37705163110693795669e-01) (7, 9.63630153089564789326e-01) (8, 2.59428019589298064496e-01) (9, -7.14725728564321705072e-01) (10, 1.10975620226545457214e+00) (11, 5.75600153756777976888e-01) (12, 2.41880098511156127472e+00) (13, 1.50000000000000000000e+03) (14, 1.50000000000000000000e+03) (15, 6.92686400619953168700e+00) (16, 1.34050146784708945624e+00) (17, 5.95532117667832150421e-02) (18, -1.11893697966378957709e+00) (19, 2.84298209087209041712e-01) (20, 4.08288857377433145324e-01) (21, 5.95096606413923145951e-01) (22, 1.11212009492352437157e+00) (23, 4.63791237114560850330e+00) (24, 1.50000000000000000000e+03) (25, -2.22607120706563882395e-01) (26, 8.16368571537575249408e-01) (27, -2.43221174897387637515e+00) (28, -1.20027654043689846475e+00) (29, 1.13909101989203054295e+00) (30, 6.72086686597931248777e-01) (31, -6.75241994379391918812e-02) (32, 1.37690624978602405015e+00) (33, 3.00680894366052831046e+00) (34, 1.50000000000000000000e+03) (35, 1.50000000000000000000e+03) (36, 1.73799293177280844702e+00) (37, 9.83864445746201021770e-01) (38, -9.19202946840954049357e-01) (39, -1.91945702801920470293e+00) (40, 1.64547431456312476250e+00) (41, 4.68700899220370559295e-01) (42, 1.25060250931116212492e+00) (43, -6.03569842023116212570e-02) (44, 3.43388849618362845817e+00) (45, 1.50000000000000000000e+03) (46, -9.01543260305798233034e-02) (47, -1.73592656502294007126e+00) (48, 1.20972510714259695597e+00) (49, -1.11435651186915052335e+00) (50, 1.20323550068454276918e+00) (51, -4.99844286059606512929e-01) (52, -1.94931806058200374210e-01) (53, 1.16039768878057181212e+00) (54, -6.63933551144396449928e-01) (55, 1.50000000000000000000e+03) (56, 1.50000000000000000000e+03) (57, -1.63047641937100906695e+00) (58, -2.34854981130404905088e+00) (59, 1.08303217819308938985e+00) (60, -2.23669466528573612774e-01) (61, -2.16056329089912207975e-01) (62, 4.98951150513552932342e-01) (63, 7.43220268640510495217e-01) (64, 3.53990765337095636411e+00) (65, 1.66730447033368056609e+00) (66, 1.50000000000000000000e+03) (67, -1.59877333109859476323e+00) (68, 4.49336770134288254752e+00) (69, 2.52901289226878794869e-02) (0, 9.77567218537379267751e-01) (1, 1.54106974178229960692e+00) (2, 2.74714641912703827487e+00) (3, 1.50000000000000000000e+03) (4, 2.50525242867605335562e+00) (5, -1.13836961815243054019e+01) (6, 6.32889081313894652503e-01) (7, -2.35173363537404389589e+00) (8, 6.43253759047676676452e-01) (9, 1.21566836886175400068e+00) (10, -5.56808705368828649185e-01) (11, -6.48804787153481332673e-01) (12, 3.21512540130355928270e+00) (13, 1.50000000000000000000e+03) (14, 1.50000000000000000000e+03) (15, 5.99509437520331922578e-01) (16, -2.88211980636985609650e-01) (17, -2.77231785754647741538e-01) (18, 2.69783108084312217567e-01) (19, 1.51268631886190774161e+00) (20, 4.53749985305126835033e-01) (21, 7.74372657889547011401e-01) (22, 1.45677136500233661565e+00) (23, 5.94586822707326767556e-01) (24, 1.50000000000000000000e+03) (25, -1.80140122215087683522e-01) (26, 7.20600816579867846368e-03) (27, 5.78496041440050401405e-01) (28, -3.29975139872409961583e+00) (29, -1.75262803583154247455e+00) (30, 1.80331389565596467150e-01) (31, -1.17774416859415476111e+00) (32, 7.33658478196306584884e-01) (33, 1.11281269492157752765e+00) (34, 1.50000000000000000000e+03) (35, 1.50000000000000000000e+03) (36, 6.80224265408974848590e-01) (37, -4.49019892727552716316e-01) (38, -1.04703823059223943837e+00) (39, 9.58193065429767787400e-01) (40, -1.15329960478780546573e+00) (41, 3.67358511778220264699e-01) (42, 2.74453011203533103757e-01) (43, 6.00289455454958265079e-01) (44, 1.31916905730666877972e+00) (45, 1.50000000000000000000e+03) (46, 1.18728474389037286230e+00) (47, 1.28490224628907689919e-01) (48, 4.28035152366532223311e-01) (49, -1.83958919190439461333e-02) (50, -1.73801131693486499152e+00) (51, -6.54338525825459593754e-01) (52, 8.24872914470233142836e-01) (53, -1.41719981893879443113e+00) (54, 6.71245052851662360460e-01) (55, 1.50000000000000000000e+03) (56, 1.50000000000000000000e+03) (57, 1.57871175253184115039e-01) (58, -1.42976872910251673332e+00) (59, 2.20962350054455791692e+00) (60, -2.72488394419683310765e-01) (61, -4.26179032764107901254e-01) (62, 4.51873330863818256642e-01) (63, 1.78864728313043119812e+00) (64, -1.64405815346070971472e+00) (65, 3.14373683183710195266e+00) (66, 1.50000000000000000000e+03) (67, -6.75655328592216330996e-01) (68, -3.99249670990632399281e+00) (69, -3.16782581622832501433e-02) (0, 1.82227549299139396366e-01) (1, 5.02032948536770939896e-01) (2, 4.95912492916832314815e-01) (3, 1.50000000000000000000e+03) (4, 1.57955606925356395465e+00) (5, -1.17893365859860188571e+00) (6, 2.34445571342497016687e+00) (7, -1.91602645831555701283e-01) (8, -5.06990535273793008209e-01) (9, -6.10819914594989521461e-01) (10, 3.73190496670196159013e-01) (11, 9.32523697829145681304e-01) (12, -2.72075113617582686754e-01) (13, 1.50000000000000000000e+03) (14, 1.50000000000000000000e+03) (15, -3.38506249219676924600e-01) (16, -2.46159447962814526001e-01) (17, 3.31389416894525945523e+00) (18, -1.55733067297800509277e-01) (19, 3.00803293039161623312e+00) (20, 1.65243096711124026754e+00) (21, -4.56209866461213753297e+00) (22, 6.83563577649964670968e-01) (23, 1.29672906078335592461e+00) (24, 1.50000000000000000000e+03) (25, 2.15076225079465471746e-01) (26, -8.48776203417820895858e-01) (27, 4.75358277177061749885e-01) (28, 4.48893272515552110846e-01) (29, -9.08657006260964739131e-02) (30, 2.05092058724139436610e-01) (31, 1.62668370850977273001e+00) (32, -2.93781225126846234907e-01) (33, 3.34495136183915686701e-01) (34, 1.50000000000000000000e+03) (35, 1.50000000000000000000e+03) (36, 1.96750718610982655576e+00) (37, -6.56645891876159737421e-01) (38, 4.41107540198400760456e-01) (39, -1.88956099512780306693e-01) (40, -1.84246395973122895073e-01) (41, 1.63080629819358335908e+00) (42, 1.08518529641448369105e+00) (43, 3.35104681763803591288e-01) (44, 1.01690633162805976752e+00) (45, 1.50000000000000000000e+03) (46, 3.81589159003491384947e-01) (47, -1.38803254861681324428e+00) (48, 2.92229758754024704359e+00) (49, -1.01126036490807397206e-01) (50, -8.03003198233672055295e-01) (51, -1.55504512517241955116e+00) (52, -4.14927544497887768049e-01) (53, 7.96425416415305759132e-02) (54, 3.42654724004798882930e+00) (55, 1.50000000000000000000e+03) (56, 1.50000000000000000000e+03) (57, -8.78898685009978808402e-01) (58, 3.48800475662754916328e+00) (59, 2.56453779802188952530e+00) (60, -8.45907006881919998342e-01) (61, 1.43766129359570427049e+00) (62, 1.60122345500911222871e+00) (63, 1.68865656805731267909e+00) (64, -9.12594887088477468851e-01) (65, 6.45448336572821079749e-01) (66, 1.50000000000000000000e+03) (67, 4.51308684199239973367e+00) (68, 6.60275126978785764642e-01) (69, -9.91208262540882567571e-01) (0, 5.73105298656263340007e+00) (1, 7.50592210696897188527e-01) (2, 4.14058810025073764649e+00) (3, 1.50000000000000000000e+03) (4, 2.28278083565373757224e+00) (5, 4.18348123546057326649e-01) (6, -7.31432645957024618610e+00) (7, -3.47706103196591675975e-01) (8, -1.02863600877227479025e+00) (9, -3.75943249197340290113e-01) (10, 1.34170527544497264483e-01) (11, -4.81363016039327351603e-01) (12, 9.56879608786861846070e-01) (13, 1.50000000000000000000e+03) (14, 1.50000000000000000000e+03) (15, 1.45819598788678472800e+00) (16, 1.11615816889964802883e+00) (17, 2.55174240768717197625e+00) (18, 7.84100527578571043774e-02) (19, 6.09153525261959538639e-01) (20, 1.49038833728406960866e+00) (21, -1.98542000478886526693e+00) (22, -1.14703997752804198740e+00) (23, -1.38076143238196036300e+00) (24, 1.50000000000000000000e+03) (25, -1.45060072097522163581e+00) (26, -1.15509622756486174389e+00) (27, -9.27742020269101352881e-01) (28, 5.69574301846888730871e-01) (29, 1.34731824046111947624e+00) (30, 2.43086923649765723754e-01) (31, 2.82645581964377745621e+00) (32, 9.09157824181300311395e-01) (33, -4.78014330595749381558e+00) (34, 1.50000000000000000000e+03) (35, 1.50000000000000000000e+03) (36, -8.61432176615149369781e-01) (37, -4.14037086925046315944e-01) (38, -4.71809738619734353460e-01) (39, -5.12406285799593408381e-02) (40, 2.98769342452009389888e+00) (41, 1.42676878552561681168e+00) (42, -3.81882938911986935526e-01) (43, 2.18821062539613553355e+00) (44, 8.05262464175601544447e-01) (45, 1.50000000000000000000e+03) (46, -3.19687129470240583018e-01) (47, -4.37555642071177963714e+00) (48, 1.76832055296820600532e+00) (49, 3.31901378379089484483e+00) (50, 1.94403618510499565097e+00) (51, 3.09309985835735501425e+00) (52, 1.09195942639400578322e+00) (53, -6.04525722183047786729e-01) (54, 1.82084537563038040275e+00) (55, 1.50000000000000000000e+03) (56, 1.50000000000000000000e+03) (57, 1.02876416438227913375e+00) (58, 8.63078315853683109005e-01) (59, -5.60507295365559254918e+00) (60, 1.74299842832231122181e+00) (61, 5.45097723978513748477e+00) (62, 1.37480249832993428605e+00) (63, 9.93641254357325642843e-01) (64, 1.31245899348925121330e+00) (65, 2.61500903421471120325e+00) (66, 1.50000000000000000000e+03) (67, 3.50134299382070413031e+00) (68, -4.29231538096192100085e+00) (69, -7.21434269657581395130e-01) (0, 1.67203355795053631994e+00) (1, 2.64113589744536358950e+00) (2, 1.76267112373100420797e+00) (3, 1.50000000000000000000e+03) (4, 1.49990791815672719345e+00) (5, -2.40933644499455787980e+01) (6, 3.67479447450554941312e-02) (7, 3.47503324273176483761e-01) (8, 1.07623835445742499495e+00) (9, 3.63121619996577926770e+00) (10, -9.56803383824388342660e-02) (11, 2.92357116962997354292e+00) (12, 3.25453215753382096853e-01) (13, 1.50000000000000000000e+03) (14, 1.50000000000000000000e+03) (15, 1.31100486118972092697e+00) (16, 3.89827652852992834198e+00) (17, 1.82605137955350005363e+00) (18, -2.62448707614370613239e-01) (19, 4.57192612251898466980e+00) (20, 1.03473904285021289784e-01) (21, 4.15096679604791152229e+00) (22, 9.92938201035402923100e-02) (23, 2.70390111826303947140e+00) (24, 1.50000000000000000000e+03) (25, 1.77930352556535731345e+00) (26, 3.03007423688819388374e-01) (27, 9.47972140192970602612e-01) (28, -3.82457831721886520882e-01) (29, -4.20793635832096502014e-01) (30, 5.49007827584708674173e-01) (31, -2.17284680239843286387e+00) (32, -4.45586530726801299807e+00) (33, -3.13844325419271097388e+00) (34, 1.50000000000000000000e+03) (35, 1.50000000000000000000e+03) (36, -1.54638616263664907535e+00) (37, 1.89867727731843904948e-01) (38, -1.13985538709086631215e+00) (39, 8.02883746897455452540e-01) (40, 2.26997290641747095918e+00) (41, 1.01586478504724964100e-01) (42, -6.30694336763255369860e-01) (43, 2.49642930177658345370e-01) (44, 3.12826571541497011619e-01) (45, 1.50000000000000000000e+03) (46, 1.40869755640444682676e+00) (47, 8.31081328104331329421e-01) (48, 1.91915229364627015762e+00) (49, 6.07097819655600279276e-01) (50, -4.27819898905865070304e+00) (51, -1.13564085238409728795e+00) (52, -3.04279903209874857950e-01) (53, 1.86367595836250310448e+00) (54, 7.13784126288712572617e-01) (55, 1.50000000000000000000e+03) (56, 1.50000000000000000000e+03) (57, 1.02534445173505059379e-01) (58, 1.15744289640048103607e+00) (59, -3.39664557886528051256e-01) (60, -2.43966715244706006116e-01) (61, 2.53600283517853597459e+00) (62, 1.06865706595964893300e-01) (63, -1.97047826653811097852e-01) (64, 1.75509179546507998460e+00) (65, 1.07695786360613454669e+00) (66, 1.50000000000000000000e+03) (67, -4.01322643744257412379e+00) (68, 1.35166474973287598083e+00) (69, 2.19846209538653303284e-01) (0, 2.32509656673256248638e+00) (1, 1.28119167474434370035e+00) (2, 1.06503963947396274037e+00) (3, 1.50000000000000000000e+03) (4, 2.14158494632264062574e+00) (5, -6.01444933674985873773e-04) (6, -1.35277459497579011227e+00) (7, 4.79856287209707133012e-01) (8, -1.14660036230611339647e+00) (9, 8.98611927091054529804e-01) (10, -2.65397734397150253383e-01) (11, 9.02372255696936353964e-01) (12, 5.68568606966680933912e-02) (13, 1.50000000000000000000e+03) (14, 1.50000000000000000000e+03) (15, 4.67417415803299873822e-01) (16, 2.29889241723149673202e-01) (17, -1.45236292792181420630e+00) (18, -1.69931977356762775599e+00) (19, -1.47733429681901351493e+00) (20, 1.51297903778878217729e+00) (21, -2.49450861687596692207e+00) (22, 2.24336687659858968757e+00) (23, 8.76183299939006232648e+00) (24, 1.50000000000000000000e+03) (25, -1.24874988895146832313e+00) (26, 4.38847603519562534657e-01) (27, -7.05074289002619924993e-01) (28, -1.47985270955203263021e+00) (29, 1.43785039058937824663e+00) (30, 1.50369240451738228614e+00) (31, -2.26109916334889471390e-01) (32, 2.12000448181728273767e+00) (33, 4.13404161574275264002e+00) (34, 1.50000000000000000000e+03) (35, 1.50000000000000000000e+03) (36, -1.02099769397711837016e+00) (37, -2.14322927666432933025e-01) (38, 2.31395888154531803593e+00) (39, -1.63863601985011064777e+00) (40, 9.90005189000656593556e-01) (41, 1.58922836700657943432e+00) (42, 3.00238169553994460603e-01) (43, 5.46157824282432535767e-01) (44, -7.38091724155742201496e-01) (45, 1.50000000000000000000e+03) (46, 1.34071656910951042541e+00) (47, -2.75500187899261872460e+00) (48, -3.20755996101761697847e-02) (49, 1.79471713393867426944e+00) (50, -2.45223613654137001516e-01) (51, 4.36998464261941721443e-01) (52, -2.74070792987632216864e+00) (53, 6.63105298619147576211e-01) (54, -4.94636886591747781949e+00) (55, 1.50000000000000000000e+03) (56, 1.50000000000000000000e+03) (57, 1.05120266507360260455e+00) (58, 1.14369170618281312812e+00) (59, 1.06691170866427609276e+00) (60, -2.54841490450299046344e+00) (61, 1.01644852381856387602e+00) (62, 1.59908679643849471752e+00) (63, -1.54293886419890546868e+00) (64, 8.20263272185929093183e-01) (65, -9.72761962685839920439e-01) (66, 1.50000000000000000000e+03) (67, -2.99012407316604278407e-01) (68, 2.90231440568974763394e+00) (69, -9.92583173609639657364e-01) (0, 1.22783925828101314615e+00) (1, 1.81828902319859264658e+00) (2, 4.57406373545854894047e+00) (3, 1.50000000000000000000e+03) (4, 1.64056783327310196086e+00) (5, -1.47113168269032468238e+00) (6, -3.74810125954605277698e+00) (7, 3.53810676925758116340e+00) (8, 8.96249165577833517560e-01) (9, 1.58815861889442877519e+00) (10, -6.89789829556015088308e-02) (11, 4.05779238379504303413e-01) (12, 2.01546857432906678653e+00) (13, 1.50000000000000000000e+03) (14, 1.50000000000000000000e+03) (15, -5.98879693300539184264e+00) (16, 2.14454769651999077595e+00) (17, -8.65812031175403729044e-01) (18, 4.03397334339005375625e-01) (19, -2.61651862850429450802e+00) (20, 1.48551204625827959482e+00) (21, -4.88965154022859760374e+00) (22, -1.43133573139981939981e+00) (23, -1.97844474682959092782e+00) (24, 1.50000000000000000000e+03) (25, 1.22041083289005936052e+00) (26, 2.00183922122667112831e+00) (27, -2.63620431257451848239e+00) (28, 2.87519965384516351659e-01) (29, 1.40377168877219538068e+00) (30, -3.69023899782663922231e-01) (31, 2.46164567720224547465e-02) (32, 4.26646704582706315367e-02) (33, -8.49449682797031452308e-03) (34, 1.50000000000000000000e+03) (35, 1.50000000000000000000e+03) (36, -2.99464943654863646749e-01) (37, -2.45046542815822743222e+00) (38, 2.87741544214494271436e-01) (39, 1.89608961780616191994e+00) (40, 1.81888850504201182723e+00) (41, 1.39503666583759478037e+00) (42, 1.69630794368056458943e+00) (43, 5.92830002523194021791e+00) (44, -6.61910672781906073148e-01) (45, 1.50000000000000000000e+03) (46, 8.97751741965752692032e-01) (47, -6.10812949951002437388e-01) (48, 2.55768163526622016590e+00) (49, 1.02343040659103934331e-01) (50, 2.70175580692021366502e+00) (51, -1.07886159267757131275e+00) (52, 4.27970629876045116635e-01) (53, 2.77221583371367596982e+00) (54, -9.38259862891003604268e-01) (55, 1.50000000000000000000e+03) (56, 1.50000000000000000000e+03) (57, -1.92452873093513643354e+00) (58, 9.20517223525438299525e-01) (59, -8.41770785064621440696e-01) (60, 2.42734971248513575759e+00) (61, 3.48541343898122324418e+00) (62, 1.39977723930341890757e+00) (63, 2.06999949298883390014e+00) (64, 1.62669857741507484228e+00) (65, 1.05368704340147578691e+00) (66, 1.50000000000000000000e+03) (67, -1.08076046652359858413e+00) (68, 1.27990481473085471187e+00) (69, -7.23014784713169711416e-01) (0, 1.08829154862782373492e+00) (1, 2.55092137504171923013e+00) (2, 1.92091500620851451941e+00) (3, 1.50000000000000000000e+03) (4, 7.76536888402417302402e-01) (5, -2.33176900841677692267e-01) (6, 2.49114451917761464683e-01) (7, 1.74869901322373988428e+00) (8, 7.10569621682273666607e-01) (9, 1.75729527052461698133e-01) (10, 1.34655382347038443669e-01) (11, 1.37760546636086944616e+00) (12, -1.21956027304759428986e+00) (13, 1.50000000000000000000e+03) (14, 1.50000000000000000000e+03) (15, -2.86186826278810446667e+00) (16, -1.94903043069516312968e+00) (17, 1.02599894630540910967e+00) (18, 8.74818518761563912456e-01) (19, 1.07536989377065594908e+00) (20, 1.56165596121076122316e+00) (21, -2.48485362720465108310e+00) (22, -7.79210831232087453024e-01) (23, 8.36881256172977483487e-01) (24, 1.50000000000000000000e+03) (25, -5.88391756002803675840e-02) (26, -4.38907412418983289282e-01) (27, -2.40927450671868138843e-02) (28, -3.56950421614235235968e-02) (29, -2.87157969180926020414e+00) (30, 6.34417124636167728546e-01) (31, 1.33524929923889357219e+00) (32, -1.11266183022720688278e+00) (33, 1.18115211828583355214e+00) (34, 1.50000000000000000000e+03) (35, 1.50000000000000000000e+03) (36, -1.13074071924052477200e+00) (37, -3.43380924651313446105e+00) (38, 6.44460254447324076832e-02) (39, -8.58810348876466456147e-01) (40, 2.24385166929200696728e+00) (41, 1.58550760940875656857e+00) (42, 2.36729397832687676884e-01) (43, -8.64221545598046314574e-01) (44, -2.05376247664763944556e+00) (45, 1.50000000000000000000e+03) (46, 1.71547700306268446901e+00) (47, -2.42644350108899509166e+00) (48, -6.63564690073902618828e-01) (49, 3.21558288508310807785e+00) (50, 3.32380804629926696059e-01) (51, -2.92269862356920162583e+00) (52, 7.90571865362627801410e-01) (53, 2.48105583259514883565e+00) (54, 2.43615164030341713186e+00) (55, 1.50000000000000000000e+03) (56, 1.50000000000000000000e+03) (57, 1.10015322307783477984e-01) (58, 1.86571706685472893383e+00) (59, 7.54477683001405940999e-01) (60, 4.65304944690055066747e-01) (61, -3.69347778963276307529e-01) (62, 1.69075698406029406584e+00) (63, 5.13081095356582039813e+00) (64, 8.39215997790503154263e-01) (65, 3.12755028041498928104e+00) (66, 1.50000000000000000000e+03) (67, 2.57886596327052020072e+00) (68, 5.90628812332387065354e-01) (69, -8.61336674740202479228e-01) (0, -2.31793075755919764092e+00) (1, 1.31808036256143096265e-01) (2, -1.24860838082019709461e+00) (3, 1.50000000000000000000e+03) (4, 1.96833434853963495925e+00) (5, -2.10705305466644832180e+00) (6, 2.28981068498993106664e-01) (7, 4.72189688444042909854e-01) (8, 3.39490778612751364918e+00) (9, 8.99778800824059477037e-01) (10, -2.51240199529382257637e+00) (11, 2.76470288997462787517e-01) (12, 3.41742054639862236076e-01) (13, 1.50000000000000000000e+03) (14, 1.50000000000000000000e+03) (15, 1.05180340227993807112e+00) (16, -9.48942307847946309174e-01) (17, 1.42693223725670437219e+00) (18, 9.92481507930263351369e-01) (19, 3.74550578886309826210e-01) (20, 1.55258705731299739838e+00) (21, 2.25426270174647624955e+00) (22, 1.95572718799171174631e+00) (23, 4.20516611464071310422e+00) (24, 1.50000000000000000000e+03) (25, 9.94724930762438286358e-01) (26, 1.93469018608531651005e+00) (27, -3.67704615154809011379e-01) (28, 1.84343108576053671399e+00) (29, 1.55234477619465716103e+00) (30, -1.91823058345762986754e+00) (31, -8.07460165309680566459e-01) (32, 2.39524906728444064719e-01) (33, 3.85485462380357357670e-01) (34, 1.50000000000000000000e+03) (35, 1.50000000000000000000e+03) (36, -1.28856619687934959018e+00) (37, 1.90023861249260805906e+00) (38, -3.89317669661520238122e+00) (39, 1.47171685108350169813e+00) (40, 2.42542026196247650915e-01) (41, 1.63208924498227458955e+00) (42, -9.71867254486681653169e-01) (43, -5.39740796327517702302e-01) (44, 2.81527247700576488398e+00) (45, 1.50000000000000000000e+03) (46, -1.28635588627759522851e+00) (47, -5.03128647542281925986e-01) (48, 1.76012829830879313775e+00) (49, 1.64308562133345170686e+00) (50, -1.93146807445822377147e+00) (51, -1.55155248787813992983e+00) (52, 5.27801700768799619823e-01) (53, 1.40683703913526203522e+00) (54, -6.52522529089272662617e-01) (55, 1.50000000000000000000e+03) (56, 1.50000000000000000000e+03) (57, -2.94316823091988033489e-01) (58, 3.38836769214920696669e+00) (59, 4.07726699538488945862e-01) (60, -7.32477169329819099985e-01) (61, 4.00101498363743146580e-01) (62, 1.44768236841824871064e+00) (63, 2.68359326205432191514e+00) (64, 8.66661686977520551167e-01) (65, -5.73321794296752316328e-03) (66, 1.50000000000000000000e+03) (67, 2.39882817641251655516e+00) (68, 1.62253765217409950949e+00) (69, -9.08067186016672689419e-01) (0, 1.08802376137749834406e+00) (1, 3.34265689888139583275e+00) (2, -1.00537135539599775669e+00) (3, 1.50000000000000000000e+03) (4, 1.09104805897943180071e+00) (5, -6.53936233670899103032e+00) (6, -4.46227117930657524170e+00) (7, 2.65903850714505618491e-01) (8, -1.95054743128388929918e+00) (9, -2.35355620318337038777e-01) (10, 1.33300997392832659694e-01) (11, 3.56513501080214734174e-01) (12, 1.93850116639740788216e+00) (13, 1.50000000000000000000e+03) (14, 1.50000000000000000000e+03) (15, -5.02489875018355292013e+00) (16, 7.16951889393762531455e+00) (17, 1.82829858331180683528e+00) (18, 3.12052685454663647491e+00) (19, 1.13342443921768154524e+00) (20, 8.80264184999655779906e-02) (21, 3.95122264713079263121e-01) (22, -3.79255297410903668975e+00) (23, 5.61517192218479066490e-01) (24, 1.50000000000000000000e+03) (25, 5.28676193397922578043e+00) (26, -2.43083927864854176804e+00) (27, 6.91741494702607706557e-01) (28, -3.00737429178074722191e-01) (29, 5.62092582664623696687e-01) (30, 1.58086890252252948441e-01) (31, 9.91343529671695145034e-01) (32, -1.28519700248926427300e+00) (33, -4.10137189754286346499e+00) (34, 1.50000000000000000000e+03) (35, 1.50000000000000000000e+03) (36, -8.83937724978709926660e-01) (37, 1.03090913390862981558e+00) (38, -2.93718665850021620756e+00) (39, -1.51408095215411542256e+00) (40, -1.14905401764812209464e+00) (41, 7.21131704378318166837e-02) (42, 1.13969193611821517642e+00) (43, 6.11892353455478654745e-01) (44, 1.12450041526226507393e+00) (45, 1.50000000000000000000e+03) (46, -5.74180002133700240208e-01) (47, 5.76470223659639913194e+00) (48, 1.04837144421912720205e+00) (49, 9.68689526898464103866e-01) (50, -1.55466985531261725484e+00) (51, 2.32377631808229935528e-02) (52, 1.09856875241656171127e+00) (53, -2.10373972573635148464e+00) (54, -1.29831662698145589019e+00) (55, 1.50000000000000000000e+03) (56, 1.50000000000000000000e+03) (57, -3.05063558369124743219e-01) (58, 2.50798734664394395999e-01) (59, 1.00924958619312210573e+00) (60, 7.32530740380695655212e-01) (61, 3.72502033116544506441e+00) (62, 2.04749820701590227665e-03) (63, 1.53897251590908679120e+00) (64, -5.15317090173970648870e-01) (65, 1.77655547288185977628e+00) (66, 1.50000000000000000000e+03) (67, -3.12844237032339600457e-01) (68, 1.11261560444087681532e+00) (69, 3.59084349582319384275e-01) (0, 9.64641612286664007492e-01) (1, 4.26074268252357679643e+00) (2, 4.70098656667847641932e-02) (3, 1.50000000000000000000e+03) (4, 7.05767975197312136260e+00) (5, -1.36683796674398845283e+01) (6, -1.08275663836569879805e+00) (7, 1.57666661696166676698e+00) (8, -2.83119745118358068225e+00) (9, 1.10295187704866948231e+00) (10, 1.92630190415635671464e-01) (11, -8.28188144969424056008e-01) (12, 7.30997107853663852239e+00) (13, 1.50000000000000000000e+03) (14, 1.50000000000000000000e+03) (15, -1.38640630559481503603e+00) (16, -1.39523714424825651115e+00) (17, 1.83598002213383115766e+00) (18, 2.96961857960880759588e-01) (19, 3.56067898310482222612e+00) (20, 8.73079236273746894792e-02) (21, -8.71632661832542343650e-02) (22, 4.14835610057375436810e+00) (23, 3.96668150501565064392e-01) (24, 1.50000000000000000000e+03) (25, 1.49263948356079301227e+00) (26, 1.29169357654707206429e+00) (27, 8.67234149730461312267e-01) (28, -3.50350370107854480750e+00) (29, 9.33630592739161796478e-02) (30, -1.49200026705093957702e+00) (31, -1.10241939166893995750e-01) (32, 1.44808562512117777743e+00) (33, 2.18955551831225792014e+00) (34, 1.50000000000000000000e+03) (35, 1.50000000000000000000e+03) (36, 1.69205751685691541120e+00) (37, 1.40178454096583943178e-01) (38, -2.74756247901295269642e+00) (39, 6.35409175412246174375e-01) (40, -2.74381303823076505566e+00) (41, 1.06986322594163990596e-01) (42, 1.71632837890183603813e-01) (43, -2.49835219850019801813e-01) (44, 1.13093911852610462532e+00) (45, 1.50000000000000000000e+03) (46, 2.10747215014848693349e-01) (47, 1.72180339453421282769e+00) (48, 9.42237525817538890127e-02) (49, 1.41631305758611669710e+00) (50, 2.30302373804341176111e+00) (51, 2.27266235572978231305e-01) (52, 6.01294033691119667040e-01) (53, 6.65466741850913034995e-01) (54, -2.12875947591832215267e+00) (55, 1.50000000000000000000e+03) (56, 1.50000000000000000000e+03) (57, -2.61391517106571540097e-02) (58, -1.72630517883737599760e+00) (59, 5.56461298447843955017e+00) (60, -2.48256519647572915233e+00) (61, -4.29092903867900277159e-01) (62, 1.07919951123474217036e-01) (63, 3.49139795010811671006e+00) (64, 1.85810247497347713619e+00) (65, 8.89402210607170506940e-01) (66, 1.50000000000000000000e+03) (67, 2.07332308822813216054e+00) (68, 7.69781994101626310112e+00) (69, 1.47212555469645178796e-01) (0, -1.57790468385532189899e+00) (1, 3.87666895746291162439e+00) (2, 3.69928376844406991975e-01) (3, 1.50000000000000000000e+03) (4, 2.00394861904721732770e+00) (5, -6.92676586411895378603e+00) (6, -1.95866531426231893498e-01) (7, 1.80636926224197980062e+00) (8, -4.74318303533633756075e+00) (9, 2.66016476718992223027e+00) (10, 1.45303009221622647651e+00) (11, 1.32520055354035481976e+00) (12, 9.39888631242570271596e-02) (13, 1.50000000000000000000e+03) (14, 1.50000000000000000000e+03) (15, -8.71824072726944176992e-01) (16, 1.39683210936238033639e+00) (17, 2.92610543924572175101e+00) (18, 8.38303356733698240566e-02) (19, 8.60908817936544679128e+00) (20, 4.70525605038352515153e-02) (21, 1.02818358616233584968e+00) (22, 2.84387869892395350746e+00) (23, -1.68909010440423079658e+00) (24, 1.50000000000000000000e+03) (25, 2.62970578341046845594e+00) (26, 1.76961605932061716295e+00) (27, 2.91245003856140105558e-01) (28, 2.79631686751421737469e+00) (29, -2.00072890433466099580e-01) (30, -1.29148667288009999510e+00) (31, -4.29139449039222320437e+00) (32, 6.26783988642009504133e+00) (33, -1.62604178913873931300e+00) (34, 1.50000000000000000000e+03) (35, 1.50000000000000000000e+03) (36, 5.31995195282999322473e+00) (37, 1.07425277752448505852e-01) (38, -6.20590003735832285159e-01) (39, 9.96049725524955631428e-01) (40, 2.85116272235925505285e-01) (41, -1.40914263769440252505e-02) (42, 2.13054071774799069772e+00) (43, 2.87055123011667134847e+00) (44, -1.40221575199543790902e+00) (45, 1.50000000000000000000e+03) (46, -5.95343979384355237450e-01) (47, 4.63871970774341502164e+00) (48, 3.56269106538344981772e-01) (49, -1.44051124301269073413e+00) (50, 3.24463060260464786211e+00) (51, -4.76367341610747274672e+00) (52, 4.46349477842365505165e-01) (53, 1.79185008031621606506e+00) (54, -2.31902760907573946003e-01) (55, 1.50000000000000000000e+03) (56, 1.50000000000000000000e+03) (57, 2.90317435476614749135e+00) (58, -1.67965653051394836481e+00) (59, 4.99876379127656012002e+00) (60, -2.03024109136465424896e+00) (61, 2.74957520998850002414e+00) (62, 4.02601045921988989762e-02) (63, 4.96353889696559491540e+00) (64, 1.27310213255981041769e+00) (65, 5.82848561455380220764e-01) (66, 1.50000000000000000000e+03) (67, -2.27374844500412454096e+00) (68, 9.96081904156628894498e-01) (69, 4.03378179045388696178e-01) (0, 1.50306557131136320216e+00) (1, 1.25028625145591543166e+00) (2, 4.08032427487216775575e+00) (3, 1.50000000000000000000e+03) (4, 1.04951094110608988963e+00) (5, -8.37521484080389377880e+00) (6, -3.75082823969813849985e-01) (7, 1.64076768608678835726e+00) (8, 7.28971160600992651446e-01) (9, 2.11416252825103567758e+00) (10, 7.92405639859194099728e-01) (11, 2.15791856050578356729e+00) (12, 1.57331433990652169719e+00) (13, 1.50000000000000000000e+03) (14, 1.50000000000000000000e+03) (15, -3.81530757070786297191e+00) (16, -1.09785658509847516839e+00) (17, 3.19214390370912415307e+00) (18, 6.82124975227776236819e-02) (19, 8.53302496700448109834e-01) (20, 1.36487998932427756493e+00) (21, -1.34296411764967160707e+00) (22, 1.78131869493802263982e+00) (23, 1.58429993948935554648e+00) (24, 1.50000000000000000000e+03) (25, 5.00378803254032500369e-01) (26, 3.40568716251158498665e+00) (27, -4.56841720799255279761e-01) (28, -2.03215646132026384052e+00) (29, -2.72694351532396017657e-01) (30, 9.15679556128476512811e-01) (31, -1.20514899319986246162e+00) (32, 4.09331084800525879519e-01) (33, 9.06817307168650499349e-01) (34, 1.50000000000000000000e+03) (35, 1.50000000000000000000e+03) (36, -1.18144020104512881275e+00) (37, 1.33673499211259239061e+00) (38, -1.53373542226755033013e+00) (39, 9.44107578678881731449e-01) (40, 3.70381941511700674141e-01) (41, 1.28477030418309934312e+00) (42, 1.18445423660918769393e+00) (43, 4.46273390391038571323e+00) (44, -7.45523113384875868448e-01) (45, 1.50000000000000000000e+03) (46, 2.42783602014068478070e+00) (47, -2.88094489331308434288e+00) (48, -7.78538381713834160003e-01) (49, 2.72742473984146194255e+00) (50, 1.31973046177624664388e+00) (51, -8.26838926616943914460e-01) (52, 2.29385612384574510969e+00) (53, -3.25927032894436641275e-01) (54, -1.10311564699138653367e+00) (55, 1.50000000000000000000e+03) (56, 1.50000000000000000000e+03) (57, -9.60249627717320863862e-02) (58, 1.11125554636459833446e+00) (59, -6.60863834255587923039e-01) (60, 4.49090934884524284332e-02) (61, 1.47988617685519341372e+00) (62, 1.34444931320342786485e+00) (63, 3.75150761165521373641e+00) (64, 1.49904813956006743858e+00) (65, 2.02219789166939056813e-01) (66, 1.50000000000000000000e+03) (67, 4.38082590894487089450e-01) (68, 4.05903208666202619526e+00) (69, -7.42956097712424656798e-01) (0, 1.39447851361391994551e+00) (1, 4.46432792488424712296e-01) (2, 7.51465528607094812585e-01) (3, 1.50000000000000000000e+03) (4, -6.28574641644611298297e-01) (5, -1.98536590376061417018e+00) (6, -1.00043241022199747015e+00) (7, 1.13999222708697400819e+00) (8, 2.82254258141887293121e+00) (9, 2.04609654873167734479e+00) (10, 5.60077258482181927768e-01) (11, 9.74607457655980002897e-01) (12, 1.86852134529038282906e+00) (13, 1.50000000000000000000e+03) (14, 1.50000000000000000000e+03) (15, 5.76155729756775425443e-01) (16, 7.91907832095858688071e-01) (17, -3.05228168363239493743e+00) (18, -1.57267139415149892478e+00) (19, -9.90018575764545438744e-01) (20, 1.80990189914907451119e+00) (21, -1.33177697785327042723e+00) (22, -3.59644887476357100198e+00) (23, 2.87813441712452577903e+00) (24, 1.50000000000000000000e+03) (25, 2.52379259715761417038e-01) (26, -6.49594603937078685085e-01) (27, -2.01513935339748151421e+00) (28, 9.95117449395970243842e-01) (29, -1.24127594896294013438e+00) (30, -1.28364480150087167942e+00) (31, -1.50298350874401043242e+00) (32, -1.29297118683971468123e+00) (33, -2.87230947815273562895e+00) (34, 1.50000000000000000000e+03) (35, 1.50000000000000000000e+03) (36, -1.12861741851357333388e+00) (37, -1.37247549544169356039e+00) (38, -9.49591663649132389224e-01) (39, 1.11460903058687876843e+00) (40, 4.16051047183714495237e-01) (41, 1.91916565453018184151e+00) (42, 3.43994238959770159969e-01) (43, -5.29928730064046171755e-01) (44, 2.38408712257480698282e-01) (45, 1.50000000000000000000e+03) (46, 1.30890495026086051134e+00) (47, 6.59580386106110694300e-01) (48, 7.77131724850361194079e-02) (49, -9.86304496832741350865e-01) (50, 1.01029897725952833021e+00) (51, -7.04972325708485780815e-01) (52, -1.74919182821093022184e+00) (53, 1.92265234227175396686e-01) (54, 4.89110404613326388290e-01) (55, 1.50000000000000000000e+03) (56, 1.50000000000000000000e+03) (57, -8.43121621614175031922e-01) (58, -1.32693807958857279417e+00) (59, 3.36888660808942752567e+00) (60, -2.04261498058909002351e-01) (61, 1.10658991445254484276e+00) (62, 1.93916082238162990059e+00) (63, 2.17759862326126274468e+00) (64, 1.12575382796649847705e+00) (65, -1.59781248387072771777e+00) (66, 1.50000000000000000000e+03) (67, -3.90216599947796671799e-01) (68, -2.36723510797066355460e-01) (69, -1.20504853238501907775e+00) (0, 4.80312401730063620597e-01) (1, -1.03413023965478645394e+00) (2, 2.66225300816552312710e+00) (3, 1.50000000000000000000e+03) (4, -8.33290531734706824141e-02) (5, -5.12836978426321987712e+00) (6, -1.21723585809637580013e+00) (7, -1.77434177697466766155e+00) (8, -8.02458947000134092953e-01) (9, 1.22364608409580677417e+00) (10, -4.56463769083229164991e-01) (11, -2.05434285601641031249e+00) (12, -5.88480388507433671563e-01) (13, 1.50000000000000000000e+03) (14, 1.50000000000000000000e+03) (15, -1.98765575908528391302e+00) (16, -2.75793201086038775038e-01) (17, 9.82053100076464624557e-01) (18, 1.01426256884569254701e+00) (19, 2.52691820674843858896e+00) (20, 7.65504346315526995603e-01) (21, 4.40527572395434496855e+00) (22, 2.04830959407071455658e+00) (23, 3.94213380136440194601e-01) (24, 1.50000000000000000000e+03) (25, 2.89613234301137367765e+00) (26, 2.55929563811809535068e+00) (27, 1.08241584710478222497e+00) (28, 1.52266509180575138060e+00) (29, 2.17377272955104672292e+00) (30, 2.17524508525430171346e+00) (31, -4.04160759187788154456e-01) (32, -5.15965793976410846966e+00) (33, -2.71294359565498721665e+00) (34, 1.50000000000000000000e+03) (35, 1.50000000000000000000e+03) (36, -1.10191678351173139028e+00) (37, 1.43646606511716790067e+00) (38, 1.83317723229196527512e+00) (39, -1.64749132203698467336e+00) (40, -7.32233268168293705003e-01) (41, 7.86877782170438799803e-01) (42, 3.67367583332069369551e-01) (43, 4.20765034872312426728e+00) (44, 3.87039121001316432924e+00) (45, 1.50000000000000000000e+03) (46, 2.17575869627904472381e+00) (47, 7.01510722793531438235e-01) (48, -5.83724865049183638810e-01) (49, -1.74060217528911709284e-01) (50, -1.56427245045955620739e+00) (51, 1.21258317870004006522e+00) (52, -5.45434749207117319791e-01) (53, 3.55913289357122586409e+00) (54, 2.33832657836052160150e+00) (55, 1.50000000000000000000e+03) (56, 1.50000000000000000000e+03) (57, 1.29989793567788547435e+00) (58, -3.41722247285408142758e+00) (59, 1.97772191513167538979e+00) (60, -2.05186304087527554563e-01) (61, -4.86149454157203231297e-01) (62, 6.75147765402460242612e-01) (63, 1.56253114931753711581e+00) (64, 1.43902199900827687529e+00) (65, 9.45532447077472970598e-01) (66, 1.50000000000000000000e+03) (67, -1.21760841796527286007e+00) (68, 1.61889361995972658192e+00) (69, -3.30594622833709494980e-01) (0, 1.50470430953654465966e+00) (1, 4.95732694853874988894e+00) (2, 6.09662179134525805679e-01) (3, 1.50000000000000000000e+03) (4, 5.10472490566361847275e-02) (5, -1.05047638058083725454e+00) (6, 1.85391858188478059200e-01) (7, -1.02843327965396102996e+00) (8, -8.04718830645561933324e-01) (9, 1.06615791320801456266e+00) (10, 1.57714496404438797583e+00) (11, 1.44685492862889919508e+00) (12, -4.09828885629025030379e-01) (13, 1.50000000000000000000e+03) (14, 1.50000000000000000000e+03) (15, 2.89525163950087260911e-01) (16, -8.79308094718709964965e-01) (17, -1.49579668981717128773e+00) (18, 3.68809556608749589124e-01) (19, -1.04331868217634138318e+00) (20, 3.51767736380902640292e-01) (21, 3.01963680646095022908e+00) (22, -7.84367505459685365743e-01) (23, 1.27246413414170467249e+00) (24, 1.50000000000000000000e+03) (25, 1.95840396935686222868e-01) (26, -1.63085164223036160891e+00) (27, 2.12338453783481773129e+00) (28, -7.55645706381025239473e-01) (29, -5.89509424455380903751e-01) (30, 4.70923576341070876383e-03) (31, 1.07151200227708698343e+00) (32, 1.38811816389387221449e+00) (33, 1.44303188515223346222e+00) (34, 1.50000000000000000000e+03) (35, 1.50000000000000000000e+03) (36, -3.66520544897249900274e+00) (37, 2.10472544067422129288e+00) (38, -5.32677007429789517445e-01) (39, -1.41644730745203295541e+00) (40, -4.64792607314215722170e+00) (41, 3.52851382350532039034e-01) (42, -4.58789270725066866685e-01) (43, 4.30280026828117556636e-01) (44, -9.79015113597875741291e-01) (45, 1.50000000000000000000e+03) (46, -6.30735365374087031398e-01) (47, -1.43087788791944703348e+00) (48, 6.07925414819794618371e-02) (49, 1.58276387511196281466e+00) (50, 2.52965937949957941910e+00) (51, 4.90657085827524852562e+00) (52, 3.45448809925738217763e-02) (53, 2.14017430907241834603e+00) (54, -1.41513601618520734604e+00) (55, 1.50000000000000000000e+03) (56, 1.50000000000000000000e+03) (57, 1.01759396152514303147e+00) (58, 6.40095870712628922661e+00) (59, 2.69374429213640187442e+00) (60, -3.84170062782304255755e-01) (61, -1.74969346820404797471e-01) (62, 4.37888729279843458286e-01) (63, 2.41938483820499339316e+00) (64, 4.37374542528617571424e-01) (65, 9.24470224904439974445e-01) (66, 1.50000000000000000000e+03) (67, 3.22003441789037081477e+00) (68, 1.09380741744044485131e+00) (69, 4.86633646511242939914e-02) (0, 2.36037392072510154861e+00) (1, 9.71810138815319524142e-01) (2, 9.26766931059684107019e-01) (3, 1.50000000000000000000e+03) (4, 1.29818406878479852828e+00) (5, -5.38053197058276833076e+00) (6, -8.16763129753737771033e-01) (7, -1.11384772618243199638e+00) (8, -1.94818384953646428492e+00) (9, -1.51399324175011984472e+00) (10, -5.50957068729868160162e-01) (11, 3.97619742844742818377e+00) (12, 3.42714182350919172038e+00) (13, 1.50000000000000000000e+03) (14, 1.50000000000000000000e+03) (15, 6.43495097403582350104e-01) (16, 2.77838163716547681403e+00) (17, 3.25404198525904186923e+00) (18, 3.66747692777139455700e+00) (19, -2.34699399276311027052e+00) (20, 1.52340784092335268518e+00) (21, -3.51293989212933688293e+00) (22, 1.46789297803100970974e+00) (23, -4.53584607762056390978e-01) (24, 1.50000000000000000000e+03) (25, -9.64786418722101468681e-01) (26, -4.80430321062945642208e-01) (27, 8.28440868434325294878e-01) (28, 1.49881090997860555447e+00) (29, 9.93727250320115107485e-01) (30, -5.46199166633026478301e-01) (31, -5.50272185214092046657e-01) (32, -4.43628743863944308146e+00) (33, 1.12250920682973445719e-01) (34, 1.50000000000000000000e+03) (35, 1.50000000000000000000e+03) (36, 1.49864776986476377907e+00) (37, -1.87363949818449304630e+00) (38, -1.65184965286990781408e+00) (39, -6.84945448976788384687e-02) (40, -3.14925578374527059822e+00) (41, 1.44572967156567111502e+00) (42, 8.68472813881430161231e-01) (43, 7.46153807791612666556e-01) (44, 2.06380160150281533049e+00) (45, 1.50000000000000000000e+03) (46, -6.40337060160880322535e-01) (47, 2.57421472455423405723e-01) (48, 4.76340903789655600864e-01) (49, 3.78185689650565581843e+00) (50, 8.17281224128696637266e-01) (51, 8.25845158929580325236e-01) (52, -9.44873503675824566450e-01) (53, 3.72124830107361359577e-01) (54, -2.60960124012197747234e+00) (55, 1.50000000000000000000e+03) (56, 1.50000000000000000000e+03) (57, -1.04129500980427258661e+00) (58, 5.83861532876122635294e-01) (59, 8.71043151180831642932e-01) (60, 1.95766680671423776161e-01) (61, 4.52908091958127112520e+00) (62, 1.49944710597195163260e+00) (63, 8.89590030224031491635e-01) (64, -5.58845571793156747908e-02) (65, -1.52407236352328956386e+00) (66, 1.50000000000000000000e+03) (67, 1.57530796648125548387e+00) (68, 2.44896642800914321469e+00) (69, -8.05466530808453096135e-01) (0, 3.82517465711698256836e-01) (1, -7.07658447458487799286e-02) (2, 4.01073292220238641903e+00) (3, 1.50000000000000000000e+03) (4, 1.02192224827804589715e+00) (5, -3.54213173187095720085e-01) (6, 2.73431479812261413187e+00) (7, -2.17730295431463094502e+00) (8, -1.28808707414270129377e+00) (9, 2.54413856904897928146e+00) (10, 4.59151595545918334018e-01) (11, 8.32251975842513980197e-02) (12, 2.70557600734002756671e-01) (13, 1.50000000000000000000e+03) (14, 1.50000000000000000000e+03) (15, -2.54125454135234518649e-01) (16, -1.82456358428434528562e+00) (17, -3.82081336199607735082e+00) (18, -1.53657939640520613267e+00) (19, 4.95545150009367230126e+00) (20, 8.38948045339685033461e-01) (21, 3.93547585002561506329e+00) (22, 1.00339266262363446813e+00) (23, -1.79437586697673023828e+00) (24, 1.50000000000000000000e+03) (25, 2.66725163223839167870e+00) (26, -1.77944645586819305549e+00) (27, 1.42502074628707475767e+00) (28, 1.58054881697884758163e-01) (29, 4.58604301001651615266e-01) (30, 5.53155742709266373680e+00) (31, 2.94555168867368255547e+00) (32, 4.47149341992762627829e-01) (33, -1.48003926454398815338e+00) (34, 1.50000000000000000000e+03) (35, 1.50000000000000000000e+03) (36, 4.34260927169016230920e+00) (37, -9.59231002910088115243e-01) (38, 1.95885015652198668512e+00) (39, -6.89880672149876944532e-02) (40, -3.04726997371181962393e+00) (41, 9.97152340080837973346e-01) (42, 1.69847118969252908194e+00) (43, 8.06443780632109669115e-02) (44, 1.28889298469999169505e+00) (45, 1.50000000000000000000e+03) (46, 1.91626923057897635694e+00) (47, 7.42639220429937685353e-01) (48, -2.94261118938762666897e-01) (49, -9.11789264870151106024e-01) (50, -1.13764636908704308560e+00) (51, 1.08879079337195583399e+00) (52, 1.10243919523118316661e+00) (53, 7.45722026810809901498e-01) (54, -1.71103908062763099274e+00) (55, 1.50000000000000000000e+03) (56, 1.50000000000000000000e+03) (57, -8.11492442972959637792e-01) (58, 3.14427241996207751384e+00) (59, -6.70373812090519827223e-01) (60, 3.09045771509945410571e+00) (61, 1.67682268990604699255e+00) (62, 9.33907341625790921036e-01) (63, -5.75606338360334301996e+00) (64, -9.90960251160169613982e-01) (65, 1.04359628120651781735e+00) (66, 1.50000000000000000000e+03) (67, 1.51473179817612746412e+00) (68, -1.58489828477026070686e-02) (69, -4.90636092708773452475e-01) (0, 4.23878921223362625792e-01) (1, 4.64153960717370639433e-01) (2, 1.03159365904838407069e+00) (3, 1.50000000000000000000e+03) (4, 2.75636225157993397517e+00) (5, -1.62833681868125257353e+00) (6, -1.21039431646011963473e+00) (7, 9.68966623067160881533e+00) (8, -1.34650431563270789326e+00) (9, 1.11227613835011873711e+00) (10, -1.69337750640349882225e+00) (11, 6.57934133901341144934e-01) (12, 1.04796292854765837887e+00) (13, 1.50000000000000000000e+03) (14, 1.50000000000000000000e+03) (15, 7.93158510592010479456e-01) (16, 1.75666565427137011390e+00) (17, 1.48807100548304460652e+00) (18, -7.11931338179069728156e-01) (19, -1.08815315378683608039e+00) (20, 1.58912032105096412415e+00) (21, -3.07352383263289452575e-01) (22, 1.69936982048733797868e+00) (23, 1.53975837225656975171e+00) (24, 1.50000000000000000000e+03) (25, -8.26253812142379695516e-01) (26, 8.50339737319549482386e-01) (27, 1.55491354249511104513e+00) (28, 1.09547947107147192192e+00) (29, 1.56361337249961396267e+00) (30, -9.85187637868593785173e-02) (31, -1.08232820428993292694e+00) (32, 1.23401581266985371776e+00) (33, 1.75124263509356570268e+00) (34, 1.50000000000000000000e+03) (35, 1.50000000000000000000e+03) (36, 2.52156440048957597444e-01) (37, 1.80381751768218245857e+00) (38, -6.61560214907842419896e-02) (39, -1.09401334790822879484e+00) (40, -4.04899316925453500726e-01) (41, 1.51575610049136710877e+00) (42, -2.87617619670465840542e-01) (43, 1.13805277442437580149e+00) (44, 5.16910771606616470386e-01) (45, 1.50000000000000000000e+03) (46, 5.83885967593950061527e-01) (47, 8.11005669184993061016e-01) (48, -8.05585629469870556640e-01) (49, 4.79796706975702258458e-01) (50, 2.08060297772632596391e+00) (51, -1.37317525768964610045e+00) (52, 1.22808963540338378362e-01) (53, 4.66708964439603718466e-02) (54, 1.59534741190919371334e-01) (55, 1.50000000000000000000e+03) (56, 1.50000000000000000000e+03) (57, -1.05864657262462968923e+00) (58, 4.12335755813587612195e-01) (59, -3.19173428067249964624e-01) (60, -6.29085008983421845041e-02) (61, -1.29089091915984766068e+00) (62, 1.49466378621824813600e+00) (63, 1.32794179995933214755e+00) (64, -2.83319270412342927301e+00) (65, -4.11969537247954098458e-01) (66, 1.50000000000000000000e+03) (67, -1.19359003868814650406e-01) (68, 4.51490748979376188554e-01) (69, -9.87376676971640665492e-01) (0, 1.09830021810138434013e+00) (1, 4.94021002597765102049e-01) (2, 2.09374567806806322068e+00) (3, 1.50000000000000000000e+03) (4, 1.33772286396885453641e+00) (5, -1.33440399676422849495e+00) (6, 8.68707868859002418915e-01) (7, 1.62488574921198308809e-01) (8, 1.38420392899939875830e-01) (9, 1.20039765315097879395e+00) (10, 3.19768796796637666535e-01) (11, 1.41585121067377506243e+00) (12, 9.07467942562626639358e-01) (13, 1.50000000000000000000e+03) (14, 1.50000000000000000000e+03) (15, -2.94113195942255378768e+00) (16, 1.04582246961527980389e+00) (17, 6.29191972412631139733e-01) (18, 7.06317830923527067988e-01) (19, 2.88074007207267435149e+00) (20, 7.79378564466197243377e-01) (21, -1.57257623803116119987e+00) (22, 2.80726832479422983013e-01) (23, 5.19940659143462635683e+00) (24, 1.50000000000000000000e+03) (25, 1.60330711823615773559e-01) (26, 4.61618909210068373294e-01) (27, -1.14141351627662965273e-01) (28, 5.40379802830637423483e+00) (29, -3.11207024546882149441e-01) (30, -7.96777066732726413356e-01) (31, 2.80111277225327415241e-01) (32, 1.02410416921943614454e+00) (33, -9.90588122865110887183e-02) (34, 1.50000000000000000000e+03) (35, 1.50000000000000000000e+03) (36, 1.43236843603441577066e+00) (37, -2.02877140844502124040e+00) (38, -3.88451806348791006673e-01) (39, -4.30326163872318673276e-02) (40, 1.05140970196401617454e-01) (41, 8.23479996432025185271e-01) (42, 6.53845802357000960292e-02) (43, 7.24146267671928328680e-02) (44, 7.42518449282461689975e-01) (45, 1.50000000000000000000e+03) (46, -2.44802710040726889673e+00) (47, -5.14219833987963248489e+00) (48, -3.54590893580644728189e+00) (49, 8.50778419641649463756e-01) (50, -4.60077718099333510260e-01) (51, -8.38936783317591250331e-01) (52, 6.36964799173573070767e-01) (53, 2.10438215774754766585e+00) (54, 1.28390457233057753150e+00) (55, 1.50000000000000000000e+03) (56, 1.50000000000000000000e+03) (57, -2.43282325042170999296e+00) (58, 1.81253690903887676455e+00) (59, -1.21190630462509907339e+00) (60, 4.20249960828730617646e-01) (61, 1.13001592643800630178e+00) (62, 7.97278405934921052811e-01) (63, 1.61087906823642823539e-01) (64, 3.17864368840153765916e+00) (65, 2.97132440992895885401e+00) (66, 1.50000000000000000000e+03) (67, 2.04096171174861540365e+00) (68, -3.33483422675241536481e+00) (69, -3.12810675356994472018e-01) (0, -2.67775701835724255773e+00) (1, 1.69947517578499929236e+00) (2, 2.21784539936852231889e+00) (3, 1.50000000000000000000e+03) (4, 4.36919402453876393189e-01) (5, -8.17047146635460741493e-01) (6, 4.04089534728368060534e-01) (7, 5.13603479007699981196e-01) (8, 1.01101470510885182996e+00) (9, -3.46945426819513735861e-01) (10, 1.98968825335833221502e+00) (11, -2.19928537480840091689e+00) (12, 1.66057212857449315591e-01) (13, 1.50000000000000000000e+03) (14, 1.50000000000000000000e+03) (15, -4.55001386631428239582e+00) (16, 2.20677113025127047408e+00) (17, 2.82806738815539540632e-02) (18, -3.09429554788025296119e+00) (19, -6.59157939090904476664e-01) (20, 1.67167339343715037892e+00) (21, -1.15027000198605366954e+00) (22, 2.00397020635521538878e+00) (23, 1.71889044961293802061e+00) (24, 1.50000000000000000000e+03) (25, 2.10306735204218275825e+00) (26, -1.94334101305505546620e+00) (27, -1.22779628082186897942e-01) (28, 4.52000899610245587823e-01) (29, -5.49421306815465748663e-01) (30, -1.12997015327791405781e+00) (31, 2.94192917917203033973e-01) (32, -4.36267623524488890041e-01) (33, 2.05699671992421589950e-02) (34, 1.50000000000000000000e+03) (35, 1.50000000000000000000e+03) (36, 1.04046909048369062845e+00) (37, -5.67546492899157151157e-01) (38, 6.09655694087181676544e-01) (39, 8.13078343693343530418e-01) (40, 2.16040560295559647130e+00) (41, 1.68744181711364116261e+00) (42, 1.14589406978784480451e+00) (43, 1.94274454354029768588e+00) (44, 1.40306102963526191374e-01) (45, 1.50000000000000000000e+03) (46, 5.62282276994303886752e-01) (47, -1.50548678944813663083e-01) (48, -6.04531477028809716145e-01) (49, 5.05266311628292830171e-01) (50, 2.69316440573093407451e+00) (51, 1.39717590183106299406e+00) (52, -5.49581071689246303258e-01) (53, 2.55908575786737979563e-01) (54, -1.52885568535517019084e-01) (55, 1.50000000000000000000e+03) (56, 1.50000000000000000000e+03) (57, -7.58822061169519224144e-01) (58, 9.37249289136663166211e-01) (59, 8.58659838472555558830e-01) (60, 4.65745440360125440016e-01) (61, 2.79314828947179405461e+00) (62, 1.66760207582402553150e+00) (63, 5.48914925071492199038e-01) (64, 2.49426389250613400606e+00) (65, 1.93558739628933906829e+00) (66, 1.50000000000000000000e+03) (67, 1.50032241594827020492e+00) (68, 4.19153180876431807889e+00) (69, -8.93060518422414184592e-01) (0, 3.28717340573483951527e-01) (1, -1.06723943392622344639e+00) (2, 1.00982860365449456097e+00) (3, 1.50000000000000000000e+03) (4, 1.88675597521210636209e+00) (5, -9.63334566101166633878e-01) (6, 2.32169746495956053067e+00) (7, 1.10812844788547382180e+00) (8, -3.55821953133791790691e+00) (9, -1.23520397405792037304e+00) (10, 2.88323717003932319947e-02) (11, -9.69294143239690514369e-02) (12, 3.29610543961667312729e+00) (13, 1.50000000000000000000e+03) (14, 1.50000000000000000000e+03) (15, -4.04151093298016683697e-01) (16, 1.05453341567325376005e+00) (17, -4.36683781876683108081e-01) (18, 2.62787550021029492342e+00) (19, 1.36286644643210919092e+00) (20, 9.93438810223481461037e-01) (21, 1.45017432614704855354e+00) (22, -5.28518077924236107101e-01) (23, 1.26622483287784559636e+00) (24, 1.50000000000000000000e+03) (25, -3.35909974783370424145e-01) (26, -2.35823542438066136029e+00) (27, -1.40452957134705319620e-01) (28, -9.89230552126538542623e-01) (29, 1.04897406129844705802e+00) (30, -1.29389396531995992667e+00) (31, -2.25905009633617837039e+00) (32, 3.96658167845610742930e+00) (33, 4.43840670232968192987e-01) (34, 1.50000000000000000000e+03) (35, 1.50000000000000000000e+03) (36, 2.40985816642786510045e+00) (37, -5.82241822974222222875e-01) (38, -1.53834851143465423107e+00) (39, -1.44904579407490752274e+00) (40, 1.93060255614373121880e+00) (41, 9.59390059226891800392e-01) (42, 3.28370363694606792748e+00) (43, -9.05006161718525881099e-01) (44, 6.76525380083370375672e-01) (45, 1.50000000000000000000e+03) (46, 1.42244152592833184023e-01) (47, -1.30005505794642850503e+00) (48, -1.36600066558704491548e+00) (49, -7.29339231574768653843e-01) (50, 5.49399524911889924894e-01) (51, 3.80448849092202134869e+00) (52, -2.04485842972745385238e-01) (53, -1.93338460158097052988e-01) (54, -3.40447938713646813813e-01) (55, 1.50000000000000000000e+03) (56, 1.50000000000000000000e+03) (57, 4.35322696039446288552e+00) (58, -9.86786578879560560829e-01) (59, 7.16717248454714628281e-01) (60, -1.41249167657043939172e+00) (61, 2.02884141931368588985e+00) (62, 9.28678717673474762861e-01) (63, 9.38030708208154262451e-01) (64, -8.61352293746244557227e-01) (65, -7.22371831146153137171e-02) (66, 1.50000000000000000000e+03) (67, -3.24607195433689188491e+00) (68, -6.06547800540435444461e-01) (69, -5.36170087378412763002e-01) (0, 1.82611005850094065828e+00) (1, 1.26764187466252797876e+00) (2, 8.51578398323738772202e-02) (3, 1.50000000000000000000e+03) (4, 3.57007632106920347326e+00) (5, -6.77479996770515047189e+00) (6, -2.24398239111770841925e-01) (7, 3.96163728770642764587e+00) (8, 2.27133953031273794210e+00) (9, 2.17571103760725259590e+00) (10, 9.07751844095580628924e-01) (11, -2.43756594186859043560e+00) (12, 6.28014950620303746831e+00) (13, 1.50000000000000000000e+03) (14, 1.50000000000000000000e+03) (15, 5.67726414978000804012e-01) (16, 2.87236919681615132660e+00) (17, 2.71088574814076643804e+00) (18, 1.08807456225590937215e+00) (19, -1.85728228508528270257e-01) (20, 2.41048700529583270757e-01) (21, -7.74928686767633378984e-01) (22, 1.57910276986496511675e+00) (23, 9.91489040609265570581e-01) (24, 1.50000000000000000000e+03) (25, -3.26008376244663100607e+00) (26, 4.93441962721079929732e-01) (27, 1.37466462181069448700e-01) (28, 1.68442801491136995296e-01) (29, -1.56308496642023153633e+00) (30, -7.28248210644572152583e-02) (31, -9.49521298265479513079e-02) (32, 1.36001353210269915195e+00) (33, 7.43663242660933754280e+00) (34, 1.50000000000000000000e+03) (35, 1.50000000000000000000e+03) (36, 5.99290539925746768013e-01) (37, -2.47833670598281052833e+00) (38, -3.71727471128669950673e+00) (39, 6.66689338096675965240e-01) (40, -2.54534686633133055977e+00) (41, 1.31204641777523667301e-01) (42, 1.14531776152855946371e+00) (43, 2.21708454748356365016e+00) (44, 3.51715237146709269744e-01) (45, 1.50000000000000000000e+03) (46, 6.24832838611023899666e-01) (47, 6.82415966731230866360e-02) (48, -2.30208377145118353591e-01) (49, 6.97015577712832623547e-01) (50, -6.56346219730688629213e-01) (51, 2.79070887297346081901e-01) (52, 4.10937617483666528528e-01) (53, 1.06407537543315289241e+00) (54, 4.29007127229182605443e-01) (55, 1.50000000000000000000e+03) (56, 1.50000000000000000000e+03) (57, 1.38625083254547343259e+00) (58, 1.75494105799586530559e+00) (59, 1.67478452337503669334e+00) (60, -2.62194700241287748099e+00) (61, -1.87351220876803470361e+00) (62, 1.38365402239807838702e-01) (63, 1.96660499864984372742e+00) (64, 2.67381216815630606831e+00) (65, 3.48078598374523995318e+00) (66, 1.50000000000000000000e+03) (67, 5.54876372599502398764e-01) (68, -1.30366598103792641350e-01) (69, 1.42405766342148798476e-01) (0, 3.84952660488446163356e+00) (1, 5.43911725671279278060e+00) (2, -1.15700115060987185345e+00) (3, 1.50000000000000000000e+03) (4, -3.11447586520710750779e-01) (5, -3.56160757109789027908e+00) (6, -2.20047635238967309590e-01) (7, 2.20700762698691299590e+00) (8, -1.46200304762191368724e-01) (9, 1.53218646799890723109e+00) (10, -1.44258991152381610412e+00) (11, -1.41379205623104242662e+00) (12, 3.80103691749432481828e+00) (13, 1.50000000000000000000e+03) (14, 1.50000000000000000000e+03) (15, 1.78780800559585784093e-01) (16, 9.04151252934099591840e-01) (17, 7.03134597483509815596e-01) (18, 1.09369038507059190835e+00) (19, -3.79004481197392539826e+00) (20, 2.24707137328673811627e-01) (21, -7.46873704950823613657e-01) (22, 4.60932905793290492724e-01) (23, -2.05312302494017745458e-01) (24, 1.50000000000000000000e+03) (25, 5.37580408986530255966e-01) (26, 3.31728997353058563391e+00) (27, -2.20036112494006586005e+00) (28, 6.80242631929005803215e-01) (29, -7.57214731505489679897e-01) (30, 3.45510634335390731664e+00) (31, 6.76745839692594830517e-01) (32, 6.91512166445083842348e-01) (33, -1.18820415805035928258e+00) (34, 1.50000000000000000000e+03) (35, 1.50000000000000000000e+03) (36, -3.38530222083884724249e-01) (37, -1.69071997301674237235e+00) (38, 6.12352722290002982053e-02) (39, 3.23054424292789921225e+00) (40, 2.06730181761949516339e-01) (41, 1.73055674416114357861e-01) (42, 4.72420772212803985468e+00) (43, 7.40830904825645064626e-01) (44, 1.60372506878167775390e+00) (45, 1.50000000000000000000e+03) (46, -1.82845134315916069134e+00) (47, 9.75138235050025170558e-01) (48, 2.54671800690307703618e+00) (49, 4.02139225981039860613e+00) (50, -4.83274706462831382670e-01) (51, 2.43650874796792704657e+00) (52, 1.46629836520078749018e+00) (53, -3.19526435224542659785e-01) (54, 2.01501419237455037248e+00) (55, 1.50000000000000000000e+03) (56, 1.50000000000000000000e+03) (57, -1.32628363394034098910e+00) (58, -1.21452092647231224554e-01) (59, -3.07143054648305713350e-01) (60, -1.98935131987788338392e+00) (61, 6.19750845657268278899e+00) (62, 2.07531142515231553647e-01) (63, -1.18771844125594627783e+00) (64, 1.41256716898605594324e+00) (65, 5.50842019688385198251e-01) (66, 1.50000000000000000000e+03) (67, 4.91550054904233202357e-01) (68, 1.71466948565268273441e+00) (69, 1.11356938224448628882e-01) (0, 3.00172941904598733487e+00) (1, 6.40164293590104005460e+00) (2, 5.86916429253818039413e-01) (3, 1.50000000000000000000e+03) (4, 5.89739399154553756155e-01) (5, -4.40357107402422531806e+00) (6, -4.29418815008270893241e-01) (7, -2.45589203873930683741e+00) (8, -2.06015166241925085089e+00) (9, 4.42477634357201887738e-01) (10, -3.37242747097166573056e+00) (11, -1.15004359214496920671e+00) (12, 1.06738316551205025817e+00) (13, 1.50000000000000000000e+03) (14, 1.50000000000000000000e+03) (15, -9.33461990062790403222e-01) (16, 7.95464688399995956125e-01) (17, 1.13633746014063374830e+00) (18, -2.55348925115806402175e+00) (19, -9.32992388332555544483e-02) (20, 7.64143050616139962727e-01) (21, 3.54838836829733939027e-01) (22, 1.70852959270397541935e+00) (23, 4.81883235085295291711e-01) (24, 1.50000000000000000000e+03) (25, 1.91235112219750980067e+00) (26, -1.25124584922493786721e-01) (27, 6.48294884727098730259e-01) (28, -1.75667215009573207674e+00) (29, -8.50047227292546780930e-01) (30, -7.00608919808957897324e-01) (31, -7.19699775494078042293e-01) (32, 4.51545190193512580024e-01) (33, -3.38618719380304034061e+00) (34, 1.50000000000000000000e+03) (35, 1.50000000000000000000e+03) (36, -1.78860022936704421426e+00) (37, 7.97164447550820776112e-02) (38, 8.61743427373238501943e-01) (39, -2.99221729377448508735e-01) (40, -5.90714298854570940556e-01) (41, 8.54199291174763897239e-01) (42, 7.11541039212832182592e-01) (43, 9.55972492444341126472e-01) (44, 2.91662313973288678248e-01) (45, 1.50000000000000000000e+03) (46, 4.42424493477658753449e+00) (47, 5.34009679480056065337e-01) (48, -9.60153133973377870269e-01) (49, 1.54073100618798264350e+00) (50, 1.46729533727617500460e+00) (51, -6.44793198844323511842e-01) (52, 3.02204480530955443829e-01) (53, -2.34312547048700636765e+00) (54, -3.60747378037077790977e-03) (55, 1.50000000000000000000e+03) (56, 1.50000000000000000000e+03) (57, -3.94013369393537393748e+00) (58, 1.14453673560300606127e+00) (59, -8.85560248778266556613e-02) (60, 9.03411847489294594915e-01) (61, 2.02854259428912220287e+00) (62, 9.23849255745763486836e-01) (63, 7.02777752688671597525e-01) (64, 1.32801640854575381256e-01) (65, 2.43068254390270599430e+00) (66, 1.50000000000000000000e+03) (67, 7.96543398781906120121e+00) (68, -2.48473443755261785837e-01) (69, -2.82979798694777129331e-01) (0, 4.71922168434751743149e+00) (1, -8.06931590052438085792e-01) (2, 2.74226227256077548233e+00) (3, 1.50000000000000000000e+03) (4, 8.39540432863964958266e-01) (5, 4.73033316575883266975e-01) (6, 1.89185559626175381354e+00) (7, -2.57488824298521379319e-01) (8, -1.39219186490811663859e+00) (9, 4.82171221128338878259e-01) (10, 1.11793127028304528636e+00) (11, 2.63197577414791661354e+00) (12, 3.50431674723000563532e+00) (13, 1.50000000000000000000e+03) (14, 1.50000000000000000000e+03) (15, 6.32868182296569492529e-01) (16, 1.71249436578451375013e+00) (17, 1.34971488992531551965e+00) (18, -1.02637046381859531330e+00) (19, -4.09816599999263164733e+00) (20, 1.11957858978231669655e-01) (21, 3.23366304131046522485e+00) (22, -2.47612256388374163407e+00) (23, 5.60298771472196088794e-01) (24, 1.50000000000000000000e+03) (25, -6.89772378675689190608e-01) (26, 2.88319235519866889916e+00) (27, -1.14216638202045261963e+00) (28, 6.23005602277771575181e-01) (29, 2.34348108047785874675e+00) (30, -3.04342148888619490332e-01) (31, 5.78949177990111141234e-01) (32, -3.05448717591717100461e+00) (33, -3.26532542451929019833e+00) (34, 1.50000000000000000000e+03) (35, 1.50000000000000000000e+03) (36, 1.11197179247194899432e+00) (37, -1.00242722166649533833e+00) (38, 2.80202775311379070899e+00) (39, 4.33098683819995056155e+00) (40, -3.96042389947487590007e-03) (41, 1.49061385272462876284e-01) (42, 6.95296847559650488257e-01) (43, 7.45275947705495434015e-01) (44, 1.85009261320997886457e+00) (45, 1.50000000000000000000e+03) (46, -8.44294596100067407107e-01) (47, 8.75547603999751067327e-01) (48, 1.80943468279750940830e-01) (49, -9.79209972815793694423e-01) (50, -3.23536518607642342715e+00) (51, -4.63888609063405610300e+00) (52, -4.39131796376176664065e-01) (53, 1.88443496822682421410e+00) (54, 2.33674616458562445231e+00) (55, 1.50000000000000000000e+03) (56, 1.50000000000000000000e+03) (57, -5.42542673463047009363e+00) (58, 5.73034336682333500512e-01) (59, -1.59238217574493767792e+00) (60, -8.83883514058784958145e-01) (61, 7.72291831858612387585e-01) (62, 1.54588285563905719622e-01) (63, -6.78537425080926293042e-01) (64, 3.01331127636721360363e-02) (65, 1.43502883293810823417e+00) (66, 1.50000000000000000000e+03) (67, -4.46755349920620714599e-01) (68, 1.71664230102283354995e+00) (69, 2.96291460491699965019e-01) (0, 7.87408187432825923402e-01) (1, 2.99504042427488759159e+00) (2, 2.87567080095096572201e-01) (3, 1.50000000000000000000e+03) (4, 3.56754909619015059263e+00) (5, -3.02618718041139223018e+00) (6, 5.84676953913441765920e-01) (7, 1.18237724152338508077e+00) (8, 3.69115674642473523548e-01) (9, -3.40073813682396863811e+00) (10, -1.53760391396544227050e+00) (11, 3.76587136879217299068e+00) (12, 3.95696638326002503305e+00) (13, 1.50000000000000000000e+03) (14, 1.50000000000000000000e+03) (15, -3.87187811072918020017e+00) (16, 1.80949279760654491156e+00) (17, 2.80882059797420469138e+00) (18, 6.72734830520765214601e-01) (19, -9.20998484540281436850e-01) (20, 2.75217058690947979915e-01) (21, 5.63884768748959985807e-01) (22, -1.72926415814199652132e-01) (23, 1.37626010457557090838e+00) (24, 1.50000000000000000000e+03) (25, 1.60126657368522229419e+00) (26, -4.44789984206724886562e-01) (27, 4.42455101901305158929e-01) (28, -1.42372734458503957811e+00) (29, -8.60258225563847567230e-01) (30, 2.46428998187668701902e+00) (31, -1.44400984784945607409e+00) (32, -6.50149179077330940935e-01) (33, 9.65832559416341496217e-01) (34, 1.50000000000000000000e+03) (35, 1.50000000000000000000e+03) (36, -1.83879683068000043811e+00) (37, 3.76897732376661043219e+00) (38, -2.57023075137957324188e+00) (39, -4.05299866575660860946e+00) (40, 9.95770358777596009681e-01) (41, 1.44631391945047094172e-01) (42, 2.38052261157241851208e+00) (43, 1.53338529746182983260e+00) (44, 1.37435295892253961370e+00) (45, 1.50000000000000000000e+03) (46, 8.03010661695558569662e-01) (47, -7.80009494651962703715e-02) (48, 1.45598104622720686541e-01) (49, 2.33948796226844102364e+00) (50, 2.44040757405117325618e+00) (51, 2.76261482038564043506e+00) (52, -4.44616138205582878129e-01) (53, 2.93652380788506572884e+00) (54, -2.66040110871250590208e+00) (55, 1.50000000000000000000e+03) (56, 1.50000000000000000000e+03) (57, -1.99538078036199584275e+00) (58, 1.63411447339036630666e+00) (59, -8.93704265484298709943e-01) (60, -4.45627792747299522613e-01) (61, 3.89419471946516404515e+00) (62, 1.61894336290261259270e-01) (63, 3.86732511345667717695e-01) (64, 6.82343159541644261878e+00) (65, 4.20076383264501085346e-01) (66, 1.50000000000000000000e+03) (67, 7.05540062593424011084e+00) (68, 1.93174199983149708082e+00) (69, 2.44772527945541024108e-01) (0, 6.01691684680049299061e+00) (1, 6.27858508807606519042e-01) (2, 6.27407411038087570176e+00) (3, 1.50000000000000000000e+03) (4, -6.95174319230939086189e-01) (5, 1.57947110143881697120e+00) (6, 2.87767255862640247699e+00) (7, -7.74800503740702750655e-01) (8, 1.68036746358685817881e+00) (9, -1.44242958980888857923e+00) (10, 1.02143241584235555663e+00) (11, 7.18049022806162096089e+00) (12, 3.37053163369872521571e+00) (13, 1.50000000000000000000e+03) (14, 1.50000000000000000000e+03) (15, 5.00958980554582322675e-01) (16, 2.89569397287754970449e+00) (17, -7.16562628760657349680e-01) (18, -4.31446697509246468449e-01) (19, -1.46380644915749580370e+00) (20, 5.20677512338264120162e-02) (21, 1.08769908912128143719e+00) (22, 2.60205391092393600871e-01) (23, 1.19710735650522503981e+00) (24, 1.50000000000000000000e+03) (25, -1.90405477122521338273e+00) (26, 2.42808427790493552845e-01) (27, -4.75946339971585141715e-01) (28, 1.36636904176261286814e+00) (29, 2.35334964341927754816e+00) (30, -3.24677273239444119657e-01) (31, 2.50359456076293562798e-01) (32, -1.47188920342597717728e+00) (33, 9.34243094383312211448e-01) (34, 1.50000000000000000000e+03) (35, 1.50000000000000000000e+03) (36, 2.43022626853441314765e+00) (37, -2.08997918497942958282e+00) (38, -7.31108448989424175579e-01) (39, -1.03861897807916148118e+00) (40, 7.35752581952213602356e-01) (41, 2.30279604141960581032e-01) (42, 7.08506246314566046074e-01) (43, 3.62455359777523900694e-03) (44, 1.48810778015156897069e+00) (45, 1.50000000000000000000e+03) (46, -3.69583549195372063068e-01) (47, -5.07772402548467116645e+00) (48, -1.63336530761796505651e+00) (49, 2.77575813531736326212e+00) (50, -1.48134930466004899330e-01) (51, -2.18179361800044713249e+00) (52, 3.22348774041098629084e-01) (53, 2.97822077756596037545e+00) (54, -5.96570326661332250850e-01) (55, 1.50000000000000000000e+03) (56, 1.50000000000000000000e+03) (57, 2.77287580344630246731e-01) (58, 1.20590448589201937324e+00) (59, -2.97850882048859588735e+00) (60, 1.29855148380108720296e+00) (61, 6.96915631810477720354e-02) (62, 1.09772497957001516355e-01) (63, 2.72769603990326459098e-01) (64, 2.63214123380075237790e+00) (65, 2.85129377403234052224e+00) (66, 1.50000000000000000000e+03) (67, -3.63066248940102087595e-01) (68, -1.05264092880309934053e+00) (69, 1.48925895007482572696e-01) (0, -2.22449036537995281648e+00) (1, 1.01309991581681768658e+00) (2, 2.40123452680140125892e-01) (3, 1.50000000000000000000e+03) (4, 2.02278219753092436406e+00) (5, -1.25902839683389311531e+00) (6, -2.58115624344883709540e+00) (7, 2.56999568435884917506e+00) (8, -1.25186795555174934513e+00) (9, -1.17472680835100695695e+00) (10, 2.69723319781475323609e+00) (11, 7.30732399803066368094e-01) (12, -4.24511192283225424760e-01) (13, 1.50000000000000000000e+03) (14, 1.50000000000000000000e+03) (15, -8.80288894686210299234e-01) (16, 4.24644208857190841311e-02) (17, 5.53065596704287898433e-01) (18, -1.24332577612706351999e+00) (19, -3.12990915935225677558e+00) (20, 1.88972805726884263144e+00) (21, -2.03293803601557332428e+00) (22, -9.99564099311569531636e-01) (23, 4.63999321866057012897e+00) (24, 1.50000000000000000000e+03) (25, 5.93880949922107159722e-01) (26, -1.22331117266149619338e-01) (27, -1.98763273715035504452e+00) (28, 8.91621501404301297633e-01) (29, -5.19189193446527696985e-01) (30, 2.03449680407183208786e+00) (31, -3.33778803448173067014e-01) (32, -1.55209530706916187803e+00) (33, -2.85647414433530499878e+00) (34, 1.50000000000000000000e+03) (35, 1.50000000000000000000e+03) (36, 4.56706818321499730118e-01) (37, -2.36835690263952747259e+00) (38, 6.97632693364461542451e-01) (39, -8.13507641767940103961e-01) (40, 1.19880879602733703138e+00) (41, 1.95751782048104661094e+00) (42, -1.60665684909966632876e-01) (43, 1.08370912686148887505e-01) (44, 1.48118851577481813742e+00) (45, 1.50000000000000000000e+03) (46, -3.16813479498006977941e-01) (47, 2.41472928177241086267e-01) (48, -6.83692185786151540583e-01) (49, 3.38609774233679639011e+00) (50, 1.08067836722354071455e+00) (51, 2.94674081272950139088e-01) (52, -9.11153510182151959995e-01) (53, -2.43401705978091909000e-01) (54, -1.14618027278744882835e+00) (55, 1.50000000000000000000e+03) (56, 1.50000000000000000000e+03) (57, -1.66053717399824307677e+00) (58, 8.09104239608672393125e-01) (59, 2.51329667610752016671e+00) (60, 1.32357784975579290121e-01) (61, 1.58260945760617444122e+00) (62, 1.80154964986799615012e+00) (63, 2.66405726808555742835e+00) (64, -9.94833125261241624226e-02) (65, -8.58788086634369562944e-01) (66, 1.50000000000000000000e+03) (67, -1.56868367012797972626e-02) (68, -2.91994289796215389376e-01) (69, -1.10253014902487733728e+00) (0, 5.93293093242099445206e-01) (1, 4.86792421406557984653e+00) (2, 2.15246081121308074913e+00) (3, 1.50000000000000000000e+03) (4, -7.42598602465410095874e-01) (5, -5.20534611840207350753e+00) (6, -9.85411684218115535572e-01) (7, 1.96328400976480299533e+00) (8, 1.99380493084045529173e+00) (9, 4.03831597362015459751e-01) (10, 5.55114398045461587827e-01) (11, 3.23764484641772565254e+00) (12, 2.63925000191252445703e+00) (13, 1.50000000000000000000e+03) (14, 1.50000000000000000000e+03) (15, 7.23912099795471775110e-01) (16, -1.53415842203302665858e+00) (17, 1.59703359393796917587e+00) (18, 9.53223739465043240493e-01) (19, 1.35698673067949671101e+00) (20, 5.41944393515980005205e-01) (21, -2.37114539186359207790e+00) (22, 3.73875701116382597178e+00) (23, 1.16714858789755071555e+00) (24, 1.50000000000000000000e+03) (25, 2.70166259852656986951e+00) (26, 2.36386781485176467044e+00) (27, -1.41800190120927127602e+00) (28, 1.49205202033164807673e+00) (29, 1.85157834826019107588e-01) (30, 1.86245056565589162112e+00) (31, 4.44135471591458164120e-01) (32, 9.82854429844984167630e-01) (33, -4.56472846742291249456e+00) (34, 1.50000000000000000000e+03) (35, 1.50000000000000000000e+03) (36, 1.17498201393359216760e-01) (37, 1.18246930777992043105e+00) (38, -4.55052431448839000971e-01) (39, -3.00452838238322872400e+00) (40, 1.49777485706646151797e+00) (41, 4.03986790776646065293e-01) (42, 1.62948816403738572234e+00) (43, 4.57275621968930401362e-01) (44, -1.79879548325706621614e-02) (45, 1.50000000000000000000e+03) (46, 3.26456481606501913717e+00) (47, 7.64926474388147037420e-02) (48, 3.90645388988393682528e-01) (49, 4.71441418933665867819e-01) (50, 1.79957531457648117756e-01) (51, -2.59642498771692542547e+00) (52, -5.70358980932731962632e-01) (53, -1.50637695999483223197e+00) (54, 1.88343235490534888221e+00) (55, 1.50000000000000000000e+03) (56, 1.50000000000000000000e+03) (57, 2.39026967180662452961e+00) (58, -1.18762284580860466576e+00) (59, -1.65532752069171196219e+00) (60, 8.42875248707719015862e-01) (61, 4.37603690229323216698e+00) (62, 4.48022054136192782181e-01) (63, 1.50341856618547020652e+00) (64, -2.85539627325981415495e+00) (65, 4.03970292238082062664e-01) (66, 1.50000000000000000000e+03) (67, 2.92950044070451820488e+00) (68, 3.38197829372284886063e+00) (69, -6.25670448304984083698e-02) (0, -6.92322569093717810063e-01) (1, 2.35012972974831768624e+00) (2, 1.21110966027585620353e+00) (3, 1.50000000000000000000e+03) (4,