FANN_FLO_2.1
num_layers=3
learning_rate=0.700000
connection_rate=1.000000
network_type=0
learning_momentum=0.000000
training_algorithm=2
train_error_function=1
train_stop_function=0
cascade_output_change_fraction=0.010000
quickprop_decay=-0.000100
quickprop_mu=1.750000
rprop_increase_factor=1.200000
rprop_decrease_factor=0.500000
rprop_delta_min=0.000000
rprop_delta_max=50.000000
rprop_delta_zero=0.100000
cascade_output_stagnation_epochs=12
cascade_candidate_change_fraction=0.010000
cascade_candidate_stagnation_epochs=12
cascade_max_out_epochs=150
cascade_max_cand_epochs=150
cascade_num_candidate_groups=2
bit_fail_limit=3.49999999999999977796e-01
cascade_candidate_limit=1.00000000000000000000e+03
cascade_weight_multiplier=4.00000000000000022204e-01
cascade_activation_functions_count=10
cascade_activation_functions=3 5 7 8 10 11 14 15 16 17 
cascade_activation_steepnesses_count=4
cascade_activation_steepnesses=2.50000000000000000000e-01 5.00000000000000000000e-01 7.50000000000000000000e-01 1.00000000000000000000e+00 
layer_sizes=70 41 2 
scale_included=0
neurons (num_inputs, activation_function, activation_steepness)=(0, 0, 0.00000000000000000000e+00) (0, 0, 0.00000000000000000000e+00) (0, 0, 0.00000000000000000000e+00) (0, 0, 0.00000000000000000000e+00) (0, 0, 0.00000000000000000000e+00) (0, 0, 0.00000000000000000000e+00) (0, 0, 0.00000000000000000000e+00) (0, 0, 0.00000000000000000000e+00) (0, 0, 0.00000000000000000000e+00) (0, 0, 0.00000000000000000000e+00) (0, 0, 0.00000000000000000000e+00) (0, 0, 0.00000000000000000000e+00) (0, 0, 0.00000000000000000000e+00) (0, 0, 0.00000000000000000000e+00) (0, 0, 0.00000000000000000000e+00) (0, 0, 0.00000000000000000000e+00) (0, 0, 0.00000000000000000000e+00) (0, 0, 0.00000000000000000000e+00) (0, 0, 0.00000000000000000000e+00) (0, 0, 0.00000000000000000000e+00) (0, 0, 0.00000000000000000000e+00) (0, 0, 0.00000000000000000000e+00) (0, 0, 0.00000000000000000000e+00) (0, 0, 0.00000000000000000000e+00) (0, 0, 0.00000000000000000000e+00) (0, 0, 0.00000000000000000000e+00) (0, 0, 0.00000000000000000000e+00) (0, 0, 0.00000000000000000000e+00) (0, 0, 0.00000000000000000000e+00) (0, 0, 0.00000000000000000000e+00) (0, 0, 0.00000000000000000000e+00) (0, 0, 0.00000000000000000000e+00) (0, 0, 0.00000000000000000000e+00) (0, 0, 0.00000000000000000000e+00) (0, 0, 0.00000000000000000000e+00) (0, 0, 0.00000000000000000000e+00) (0, 0, 0.00000000000000000000e+00) (0, 0, 0.00000000000000000000e+00) (0, 0, 0.00000000000000000000e+00) (0, 0, 0.00000000000000000000e+00) (0, 0, 0.00000000000000000000e+00) (0, 0, 0.00000000000000000000e+00) (0, 0, 0.00000000000000000000e+00) (0, 0, 0.00000000000000000000e+00) (0, 0, 0.00000000000000000000e+00) (0, 0, 0.00000000000000000000e+00) (0, 0, 0.00000000000000000000e+00) (0, 0, 0.00000000000000000000e+00) (0, 0, 0.00000000000000000000e+00) (0, 0, 0.00000000000000000000e+00) (0, 0, 0.00000000000000000000e+00) (0, 0, 0.00000000000000000000e+00) (0, 0, 0.00000000000000000000e+00) (0, 0, 0.00000000000000000000e+00) (0, 0, 0.00000000000000000000e+00) (0, 0, 0.00000000000000000000e+00) (0, 0, 0.00000000000000000000e+00) (0, 0, 0.00000000000000000000e+00) (0, 0, 0.00000000000000000000e+00) (0, 0, 0.00000000000000000000e+00) (0, 0, 0.00000000000000000000e+00) (0, 0, 0.00000000000000000000e+00) (0, 0, 0.00000000000000000000e+00) (0, 0, 0.00000000000000000000e+00) (0, 0, 0.00000000000000000000e+00) (0, 0, 0.00000000000000000000e+00) (0, 0, 0.00000000000000000000e+00) (0, 0, 0.00000000000000000000e+00) (0, 0, 0.00000000000000000000e+00) (0, 0, 0.00000000000000000000e+00) (70, 4, 5.00000000000000000000e-01) (70, 4, 5.00000000000000000000e-01) (70, 4, 5.00000000000000000000e-01) (70, 4, 5.00000000000000000000e-01) (70, 4, 5.00000000000000000000e-01) (70, 4, 5.00000000000000000000e-01) (70, 4, 5.00000000000000000000e-01) (70, 4, 5.00000000000000000000e-01) (70, 4, 5.00000000000000000000e-01) (70, 4, 5.00000000000000000000e-01) (70, 4, 5.00000000000000000000e-01) (70, 4, 5.00000000000000000000e-01) (70, 4, 5.00000000000000000000e-01) (70, 4, 5.00000000000000000000e-01) (70, 4, 5.00000000000000000000e-01) (70, 4, 5.00000000000000000000e-01) (70, 4, 5.00000000000000000000e-01) (70, 4, 5.00000000000000000000e-01) (70, 4, 5.00000000000000000000e-01) (70, 4, 5.00000000000000000000e-01) (70, 4, 5.00000000000000000000e-01) (70, 4, 5.00000000000000000000e-01) (70, 4, 5.00000000000000000000e-01) (70, 4, 5.00000000000000000000e-01) (70, 4, 5.00000000000000000000e-01) (70, 4, 5.00000000000000000000e-01) (70, 4, 5.00000000000000000000e-01) (70, 4, 5.00000000000000000000e-01) (70, 4, 5.00000000000000000000e-01) (70, 4, 5.00000000000000000000e-01) (70, 4, 5.00000000000000000000e-01) (70, 4, 5.00000000000000000000e-01) (70, 4, 5.00000000000000000000e-01) (70, 4, 5.00000000000000000000e-01) (70, 4, 5.00000000000000000000e-01) (70, 4, 5.00000000000000000000e-01) (70, 4, 5.00000000000000000000e-01) (70, 4, 5.00000000000000000000e-01) (70, 4, 5.00000000000000000000e-01) (70, 4, 5.00000000000000000000e-01) (0, 0, 0.00000000000000000000e+00) (41, 4, 5.00000000000000000000e-01) (0, 0, 0.00000000000000000000e+00) 
connections (connected_to_neuron, weight)=(0, 2.11553892544229356076e+01) (1, 2.56725502246278480811e+01) (2, 5.50037826218103909071e+00) (3, 1.50000000000000000000e+03) (4, -7.27492001109463259922e+00) (5, 1.25178180501398145452e+02) (6, 1.76373367948685491058e+01) (7, 1.47234804608808946824e+01) (8, 4.97125733647939149762e+00) (9, 3.40361324304894274917e+00) (10, -6.33495143259851829498e+01) (11, -1.49742960275037239626e+03) (12, 1.50000000000000000000e+03) (13, -2.09938123069009975552e+02) (14, -2.10028904027543262600e+02) (15, 1.50000000000000000000e+03) (16, 1.17960563706284382590e-01) (17, 1.50000000000000000000e+03) (18, -6.05837784005486582828e+02) (19, -3.87557304711750916226e+00) (20, -2.09943598478338913083e+02) (21, 6.03628104148929267581e+00) (22, 3.29026294010911490862e-01) (23, -5.28746504777590828894e+01) (24, 1.50000000000000000000e+03) (25, 3.03914477385730208425e+01) (26, 1.43447999187469440585e+03) (27, 1.50000000000000000000e+03) (28, -1.00927600461698068557e+03) (29, -1.29794414480420030600e+01) (30, 2.11900653615240602834e-01) (31, 1.50000000000000000000e+03) (32, -1.50000000000000000000e+03) (33, 1.50000000000000000000e+03) (34, -4.32660291798933883456e+02) (35, -4.32552201521172662524e+02) (36, 1.08603582361944557277e+01) (37, -3.23532600609614917175e+02) (38, 3.06272318220239185393e+02) (39, -7.32743218579800625889e-01) (40, -1.35398768173530152126e+03) (41, -4.32635052148773809222e+02) (42, -3.27939921625306762820e+00) (43, -3.25759060820628292277e+02) (44, -2.36117679217948150949e+00) (45, 1.50000000000000000000e+03) (46, -1.04808080065640774592e+03) (47, 1.50000000000000000000e+03) (48, 1.50000000000000000000e+03) (49, 3.54912817369701016901e+01) (50, 3.34872118075377898094e+01) (51, 1.40623494553682726327e+00) (52, -1.50000000000000000000e+03) (53, -1.10549912853100118504e+00) (54, 9.60213557406970075192e+00) (55, -2.10003853026083902478e+02) (56, -2.09952272734842495083e+02) (57, 1.50000000000000000000e+03) (58, 1.52609600594063365975e+01) (59, 8.56589318513406472455e-01) (60, -2.19262623024884319989e+01) (61, -2.03007602419667030347e+01) (62, -2.09954778983495430111e+02) (63, 3.03881074386713878610e+00) (64, 8.35887015863303446395e+01) (65, -1.02862084781683688561e+03) (66, 1.50000000000000000000e+03) (67, -3.80753583145795637677e+00) (68, 1.50000000000000000000e+03) (69, 2.58535626481835208779e+02) (0, 3.25014846068049720884e+01) (1, 1.95222125371741341837e+01) (2, 9.47518642138835360811e+01) (3, 1.50000000000000000000e+03) (4, 1.14387336393337207596e+02) (5, -7.48116835986151329507e+01) (6, 1.36514413637490719111e+01) (7, -3.88812982679142793430e+00) (8, 2.76126968344209338113e+01) (9, 8.06675071528341947058e-01) (10, -1.24700026434192568559e+03) (11, -1.49742960275037239626e+03) (12, 1.50000000000000000000e+03) (13, -1.29156990133191902714e+03) (14, -1.29161198886449892598e+03) (15, 1.50000000000000000000e+03) (16, 3.93343178384143365989e+00) (17, 1.50000000000000000000e+03) (18, -1.50000000000000000000e+03) (19, -4.04685128497250001800e+00) (20, -1.29163792467828352528e+03) (21, 7.33477523752943660895e+00) (22, -3.14139129566891550649e-01) (23, -1.50000000000000000000e+03) (24, 1.50000000000000000000e+03) (25, 5.34809576007077946969e+00) (26, 1.43447999187469440585e+03) (27, 1.50000000000000000000e+03) (28, -1.50000000000000000000e+03) (29, 1.26417586696595696250e-01) (30, 1.55982074554157956747e+00) (31, 1.50000000000000000000e+03) (32, -1.50000000000000000000e+03) (33, 1.50000000000000000000e+03) (34, -1.50000000000000000000e+03) (35, -1.50000000000000000000e+03) (36, -1.80250163035551850044e+02) (37, -2.12604498886598122454e+02) (38, 9.10076825950604757054e+02) (39, -1.50000000000000000000e+03) (40, -1.50000000000000000000e+03) (41, -1.50000000000000000000e+03) (42, 5.45028894786838780107e+00) (43, -1.71828927451962449879e+01) (44, 3.55738603495268705501e+02) (45, 1.50000000000000000000e+03) (46, -1.50000000000000000000e+03) (47, 1.50000000000000000000e+03) (48, 1.50000000000000000000e+03) (49, 1.41106605828099418432e+01) (50, 1.86338226322719191508e+00) (51, 2.60099480991421083687e+00) (52, -1.50000000000000000000e+03) (53, 2.21733580930213625138e+00) (54, 7.55542910291359604003e+00) (55, -1.50000000000000000000e+03) (56, -1.50000000000000000000e+03) (57, 1.50000000000000000000e+03) (58, 5.60059643085624259129e+00) (59, 5.66272764919483195811e-02) (60, -3.22867948396752666440e+01) (61, -1.42835785210082065078e+02) (62, -1.50000000000000000000e+03) (63, 1.22324066760134204657e+01) (64, -3.20643730812698493082e+02) (65, -1.41023188255946865866e+03) (66, 1.50000000000000000000e+03) (67, -2.30986013677733161842e+01) (68, 1.50000000000000000000e+03) (69, 1.42731206629925327434e+03) (0, 4.19556027394224173577e+00) (1, 5.04107922649816053706e+00) (2, 1.66238907947341169047e-01) (3, 1.50000000000000000000e+03) (4, 3.59102768483060508231e+00) (5, 4.96443905125383666554e-01) (6, -2.28744573068552892181e+00) (7, -5.65316176350098009706e-02) (8, 1.78955919368322224905e-01) (9, 5.57671943719868390410e-01) (10, -1.20465845305844543311e+00) (11, -8.69606692190195484926e-01) (12, 1.71776812921798982536e+00) (13, 7.67290802637869478672e-04) (14, -8.63293258231482008025e-02) (15, -2.40324664944720350901e-01) (16, 1.23442604771431052590e+00) (17, -2.41492372329691518118e+00) (18, 9.78328967032198182352e-01) (19, -1.46799013947708556493e-01) (20, -9.29205042999586561248e-02) (21, 5.30208470155324107509e+00) (22, -2.03429909169194012009e-01) (23, 1.27736956675412266504e-01) (24, 1.50000000000000000000e+03) (25, -1.42386300200816928729e+00) (26, 4.30131990246727191618e+00) (27, 3.93693878342041558849e-01) (28, -1.58747792890390959641e+00) (29, 2.60669876764258390267e+00) (30, -6.31478095459487631658e-01) (31, 3.27950643829047150390e+00) (32, -2.52794207877500287651e+00) (33, 2.32123860408277593592e+00) (34, 3.27430884793080507686e-03) (35, -4.84713964585992765355e-02) (36, 5.09720441926494460816e-01) (37, -1.50233924400650364905e-01) (38, 2.76036172401069923588e-01) (39, -1.19630317095926952398e+00) (40, -5.29847088877921423844e-01) (41, -3.46076541070672247247e-02) (42, 2.13051339749946455626e+00) (43, -1.13669421378684548651e-01) (44, -1.16488325873227958895e-02) (45, 1.50000000000000000000e+03) (46, -1.15016286039064952185e+00) (47, -5.59571374547249811293e-01) (48, 2.01671532682646326151e+00) (49, -2.27336694164637220794e+00) (50, 1.84781392305251745967e+00) (51, -1.66763865703168745469e+00) (52, -1.64089763593891002635e+00) (53, 3.18613766926344421648e+00) (54, -5.27773854941041564715e-01) (55, 6.20419006302631338701e-03) (56, -6.01414371773928424503e-03) (57, 5.87899381472089199718e+00) (58, 3.54010614959631597642e-01) (59, 2.36226474602380748236e-01) (60, -4.08919575243734789716e-01) (61, 4.73051670607706420402e-01) (62, -6.98182188396190006596e-02) (63, 3.13962775932653181954e+00) (64, 3.97585599146781099034e-01) (65, 1.42902114702325278017e+00) (66, 1.50000000000000000000e+03) (67, -1.70641331643908666926e+00) (68, -2.74954451590110338088e+00) (69, 4.39363420506913682217e-01) (0, 2.87926903246800449665e+01) (1, 2.05554499212188908075e+01) (2, 6.38231567662201371149e+00) (3, 1.50000000000000000000e+03) (4, 7.30766662563337554559e+00) (5, -2.90089463130167963811e+01) (6, -2.05108241391009382681e+00) (7, 1.56870189892881057858e+01) (8, 1.23122890517946759203e+00) (9, 3.08701197858259801521e+00) (10, -1.79856323614832014357e+01) (11, -5.44930398184554465324e-01) (12, -2.54384105929274051405e+00) (13, 2.43798269554834456940e+00) (14, 2.40242646857957886652e+00) (15, 2.34716637856225346370e-01) (16, 8.20670211443577990451e-01) (17, -3.24131284586672308023e+00) (18, 1.83447491766767960542e+01) (19, 1.02738054524714028659e+00) (20, 2.45728817805509658356e+00) (21, 5.07856458345173411573e+00) (22, 6.25862096176387661117e-01) (23, 1.07591834480731773915e+00) (24, 1.50000000000000000000e+03) (25, 8.76753125961683643652e+00) (26, 7.14801241846245577483e-02) (27, -7.95912091276490429870e-01) (28, 5.61914182063560385672e+00) (29, -7.26028304142442237890e-01) (30, 7.07241248664968757964e+00) (31, 5.49825875612350500887e+00) (32, 3.36304291701956747929e-01) (33, -5.13417387979274586485e+00) (34, 2.27923614157219445175e+00) (35, 2.36472178621073281235e+00) (36, -1.16207963473581941116e+01) (37, 2.45311079320237102053e+00) (38, -2.09325175936968310708e+00) (39, 3.96478019919631663459e-01) (40, 3.71019337196468868001e+00) (41, 2.45128959787865241537e+00) (42, 4.39753084992792420138e-01) (43, 1.34541616467086067033e+00) (44, 5.86228376056138067440e+00) (45, 1.50000000000000000000e+03) (46, 3.52814314773272838521e-02) (47, -4.45420146088634627546e+00) (48, 5.96862412710173106944e+00) (49, -2.07463021089997506907e-01) (50, -1.60372322239946263345e+00) (51, -2.80697352232244190517e+00) (52, 2.90119205226005938414e+00) (53, 2.49487219527934733776e+00) (54, 8.94100297753132489120e-01) (55, 2.28883687630157517390e+00) (56, 2.30878522470455216364e+00) (57, -4.80683933196782131603e+00) (58, 1.57732714031267207133e+00) (59, 3.37513050187524865642e-01) (60, -6.71776435241632663420e-01) (61, -9.25409382487232923253e-01) (62, 2.29952360913019226984e+00) (63, 3.43851106443822907011e+00) (64, 1.59431714192319673451e+00) (65, 5.02189155015046573283e+00) (66, 1.50000000000000000000e+03) (67, -2.48434684384851101058e+00) (68, 4.72958224814393801694e+00) (69, -1.40301172533186746527e+00) (0, 1.91063553300470196916e+01) (1, 3.40672548520250657589e+01) (2, 3.26289694776902194917e+01) (3, 1.50000000000000000000e+03) (4, -3.78220657797337533879e+00) (5, -2.78923845970325885446e+01) (6, 4.53597165779612154779e+00) (7, 2.00086329686982224985e+01) (8, 8.02241259300403686261e-01) (9, 6.64587148372946523445e-01) (10, -1.67715120875723812333e+02) (11, -1.49742960275037239626e+03) (12, 1.50000000000000000000e+03) (13, -1.47724647202337428098e+03) (14, -1.47733126506204052930e+03) (15, 1.50000000000000000000e+03) (16, 1.17924890446051411352e+00) (17, 2.91836468984596308474e+02) (18, -1.48514598243221121265e+03) (19, -3.44535666606237267473e+00) (20, -1.47741551540041609769e+03) (21, 1.05931765734685754410e+01) (22, 8.51258457050433570146e-01) (23, -1.08897360351436475412e+02) (24, 1.50000000000000000000e+03) (25, 2.70241479016585302020e+01) (26, 1.43447999187469440585e+03) (27, 1.50000000000000000000e+03) (28, -1.06949148721732694867e+03) (29, -2.83025807775284166112e+00) (30, 3.13390812700226450982e-01) (31, 1.50000000000000000000e+03) (32, -1.50000000000000000000e+03) (33, 1.50000000000000000000e+03) (34, -1.50000000000000000000e+03) (35, -1.50000000000000000000e+03) (36, -7.36377629601797423220e+00) (37, -5.49984336836141665117e+02) (38, -1.28879261089951562269e+01) (39, -1.88676353906790139625e+00) (40, -1.50000000000000000000e+03) (41, -1.50000000000000000000e+03) (42, 6.86611486688590177963e-01) (43, -4.92506098770158651234e+00) (44, 3.96368099630159491653e+01) (45, 1.50000000000000000000e+03) (46, -2.35778731623745557044e+02) (47, 1.50000000000000000000e+03) (48, 1.50000000000000000000e+03) (49, 9.21171367985090228103e+00) (50, 3.29068442897528845581e-01) (51, 2.64708023343086962242e-01) (52, -1.50000000000000000000e+03) (53, 1.17741335956523518469e+00) (54, 2.01195669978338953499e+00) (55, -1.19176401740266692286e+03) (56, -1.19157475964679133540e+03) (57, 1.50000000000000000000e+03) (58, 5.28154329012877532534e+00) (59, -1.74204270193445154291e+00) (60, -1.24607707906932274611e+00) (61, -1.26477130005433018312e+01) (62, -1.19161000257684600001e+03) (63, 1.84636859947224110101e+01) (64, 7.60585322542401520707e-01) (65, -9.70450863615713956278e+02) (66, 1.50000000000000000000e+03) (67, -1.14538263705803569081e+01) (68, 1.50000000000000000000e+03) (69, 1.50000000000000000000e+03) (0, 2.60436840421628135189e+00) (1, 2.54969650849613271859e+00) (2, 2.23069943218061950141e-01) (3, 1.50000000000000000000e+03) (4, 5.72701108529052094198e-01) (5, -1.98865830620210015667e+00) (6, 2.17499238387275362072e-01) (7, -4.20976424555672523731e-01) (8, 3.38463778425859729282e+00) (9, -1.63144307644920294464e+00) (10, -1.01974721741988005874e+00) (11, -5.91771181349194708154e-01) (12, 6.98268772338989096582e-01) (13, 4.86325074499657783456e-02) (14, -1.76659854592789065074e-03) (15, 1.28814732680398935649e+00) (16, -3.16831819767406153154e-01) (17, -1.78161315262569486251e+00) (18, 2.62544686510998603879e+00) (19, 6.03218951398523835217e-03) (20, 1.06569451517443694599e-01) (21, -2.82975780032352197679e+00) (22, -1.18243324146205597280e+00) (23, 1.19639998742750108818e+00) (24, 1.50000000000000000000e+03) (25, -3.40156947752056793011e-01) (26, -1.10643966328418819067e+00) (27, -3.49600944208761810206e-01) (28, 4.37137390311477413984e-01) (29, -1.00399837391741453274e+00) (30, 1.08305968685128561901e+00) (31, -2.45855013794936949623e+00) (32, -6.41558573425594746986e-01) (33, 1.12453951742208757558e+00) (34, 7.05603989266189030038e-02) (35, 9.85070648096832562901e-02) (36, 4.35667463455321968269e+00) (37, 1.77113009653330322202e+00) (38, 1.30362098019138872296e+00) (39, 3.17276471088903000428e-01) (40, 5.03717560375408535123e+00) (41, 2.18437867664132527590e-02) (42, -1.33985203512365003142e+00) (43, -9.29851818841730681786e-02) (44, 2.90163729794320965349e-02) (45, 1.50000000000000000000e+03) (46, -9.32365655114690383698e-01) (47, 4.55589546725208516254e-01) (48, 6.09277129916908588569e+00) (49, 1.51310529047167841021e+00) (50, -5.66301318964611777318e+00) (51, 2.84422056168760795103e+00) (52, -5.27458531884611314666e+00) (53, -1.22882325980181561498e+00) (54, 4.83880329489286431510e+00) (55, 1.09108803099970827488e-01) (56, 2.33567778533508539629e-02) (57, -3.39944514488050408829e+00) (58, 1.87065861909783220929e-01) (59, 3.12609759282416327375e-02) (60, -8.46954330790237519544e-01) (61, -3.03709454398462952440e+00) (62, 6.08773727482369228503e-02) (63, 2.57609388406717487729e-01) (64, -1.46929285642017304347e+00) (65, 3.17069983777979236272e-01) (66, 1.50000000000000000000e+03) (67, -1.90213024007100406365e+00) (68, 7.55503536222522509291e+00) (69, 3.14855000504700444086e-01) (0, 1.88578608634118372045e+00) (1, 1.04575503571903016820e+00) (2, 1.84298248404289682911e-01) (3, 1.50000000000000000000e+03) (4, 4.29893369100961542095e-03) (5, -2.15066703062924052814e-01) (6, 5.03348104831276788040e-01) (7, 5.65144506940114599303e+00) (8, -3.85434333837958043034e+00) (9, 8.12945432828695024874e-01) (10, 7.01783684300518073584e-01) (11, -4.07531107154920635427e-01) (12, 1.90549297109845672260e+00) (13, -1.10786682561945237779e-01) (14, -1.88697563567867161727e-02) (15, 4.43580159346867008985e-01) (16, -9.98520917227841559027e-03) (17, 1.08983046269134042916e+00) (18, 2.23196087790867725431e+00) (19, 2.97210417710824792437e+00) (20, 4.34088049372920101177e-02) (21, -7.62897277218054781223e-01) (22, 1.32125199151759201155e-02) (23, 7.12428429953047448464e-01) (24, 1.50000000000000000000e+03) (25, 2.91054460699934081092e+00) (26, -4.00602782825909553566e+00) (27, 9.33058535605976735461e-02) (28, 1.40908735547442848235e-01) (29, -4.65393539516971976866e+00) (30, -3.12062441809620683131e+00) (31, 1.26506530963310059867e+00) (32, -5.62702921435402569905e-01) (33, 1.33456141782660098194e+00) (34, -1.12214660839151658678e-01) (35, -1.88318030992259861922e-02) (36, 4.59936164364311128594e+00) (37, -1.86350822506687441305e-01) (38, 6.41718542940613034808e-01) (39, 2.35010922674049188563e-02) (40, -6.88028313241733746608e-01) (41, -8.08972591617815317555e-02) (42, -5.57282245413948107426e-01) (43, 5.52474822094153772412e-01) (44, 2.77569590058697156232e-02) (45, 1.50000000000000000000e+03) (46, 7.97460004929737453772e-01) (47, 9.06957482381640822666e+00) (48, 1.00818809460508113096e-01) (49, 2.43289579907161490624e+00) (50, -1.36295143723914180534e+00) (51, -4.65352985456328926972e+00) (52, 4.38679203972285769453e+00) (53, 1.71164043211193689364e-01) (54, 1.21004031255906308040e+00) (55, -3.14599362853524994188e-02) (56, -1.07336656535005708912e-01) (57, 3.54962122734952822967e+00) (58, 1.29036329192360366136e+00) (59, 2.87852557561173061362e-01) (60, -7.63645472944557424100e-01) (61, 1.60229177684528001357e+00) (62, -6.27260816935061027433e-02) (63, -1.87654346199996302502e+00) (64, 8.59152329423614857795e-01) (65, 5.79850496549538019231e-01) (66, 1.50000000000000000000e+03) (67, 3.42674335872830915228e-01) (68, 2.90323411555746968560e+00) (69, 4.04511419351843093395e-01) (0, 1.66202078289851939985e+00) (1, -3.50976060020774582870e-01) (2, -9.37035499444807795655e-01) (3, 1.50000000000000000000e+03) (4, -8.03299533709132207449e-01) (5, -3.92523854693912888081e+00) (6, 7.27734325829997441559e+00) (7, 5.64559070559948850132e+00) (8, 2.66512078821829412334e+00) (9, 3.67534742999127084229e-01) (10, -3.74476687212882275446e+00) (11, 3.42337995142191786613e+00) (12, -1.56054955464541844634e+00) (13, 5.86156422829285372877e-02) (14, -1.20047499742542418399e-01) (15, 2.84752197578982446657e+00) (16, 1.08211095000711066128e+00) (17, 8.33467697908735871692e-01) (18, 1.18618968248627076889e+00) (19, 1.46315032292839664052e+00) (20, -1.20688733961616667667e-01) (21, 4.64417117701031834098e-01) (22, 1.28568094999670451406e-01) (23, 2.43655346523748185528e-02) (24, 1.50000000000000000000e+03) (25, 5.41801801049559461632e+00) (26, 1.91099064230341353365e+00) (27, 7.95818624694590970314e-01) (28, -1.53328349614714115612e-01) (29, -1.37708479654669990744e+00) (30, -2.43750166372729992759e+00) (31, 6.29951879481699883456e+00) (32, 2.48277809031683238672e+00) (33, 1.08771473554510622606e+00) (34, -5.51291350153999271111e-02) (35, -6.10798802105504204385e-02) (36, 1.87954892990186239743e+00) (37, -1.46267612628338894432e+00) (38, -5.71171493034499988539e-01) (39, -3.23774608202933023016e-01) (40, -8.91411591801340441599e-01) (41, 7.40713905664366345505e-02) (42, -4.82251410574593308844e-01) (43, -1.64070593604602699145e+00) (44, 9.48341676606583375286e-03) (45, 1.50000000000000000000e+03) (46, -5.27288417220622029902e-01) (47, -4.61806672986887889465e+00) (48, 1.62429251324938950241e+00) (49, 5.20225374887158587001e+00) (50, -2.42006870015497171922e-01) (51, 1.04873630500185699432e+00) (52, -1.30945242784122872770e+00) (53, -6.08524067763483778037e-01) (54, 4.20419294484119987487e+00) (55, -9.63336682483250938969e-02) (56, -4.67272779509119579044e-02) (57, -2.09755252658691393464e+00) (58, -3.69566050784678923335e+00) (59, 9.44881759591076897387e-01) (60, 2.12035186724527502378e+00) (61, -2.03132127044900911983e+00) (62, 5.93608556541874460982e-03) (63, 1.14911880780298614191e+00) (64, -8.93481601482971399264e-01) (65, 1.64368176817935318645e+00) (66, 1.50000000000000000000e+03) (67, -3.72520681100409767339e+00) (68, 8.04640111515474210080e+00) (69, 5.32093107773443430020e-01) (0, 1.43865736402169552832e+01) (1, 1.15213462642559463234e+01) (2, 2.74970100670159709466e+01) (3, 1.50000000000000000000e+03) (4, 5.13406407369447137512e+01) (5, -3.29657155667050929537e+01) (6, -8.06113143793595732234e+00) (7, 7.87222045065039210954e+00) (8, 3.37047436698328040094e+00) (9, 9.52438399907080857076e+00) (10, -2.35954241495285543806e+01) (11, -1.50000000000000000000e+03) (12, 1.50000000000000000000e+03) (13, -4.72339191473727225912e+02) (14, -4.72311460956637858999e+02) (15, 1.50000000000000000000e+03) (16, 8.95790666473567753769e-01) (17, 1.50000000000000000000e+03) (18, -1.05540289209301181472e+03) (19, 5.52009947817112788471e+02) (20, -4.72310246798847913396e+02) (21, 3.35939004865423695989e+00) (22, -5.65150370274067448406e-01) (23, -5.33023097744645113494e+01) (24, 1.50000000000000000000e+03) (25, 4.78878227671537537447e+00) (26, 1.23331304298766031025e+03) (27, 1.50000000000000000000e+03) (28, -1.42573129249671478647e+03) (29, 8.47236827006256798533e-01) (30, 1.02324790687446265380e+00) (31, 1.51474477789483358947e+02) (32, -1.50000000000000000000e+03) (33, 1.50000000000000000000e+03) (34, -1.00306171384139190650e+03) (35, -1.00304699082358013129e+03) (36, 2.93371034526663947872e+02) (37, -4.48365331613690557333e+02) (38, 2.45600305323877918795e+01) (39, -6.13726487445703838830e+00) (40, -6.94304554692761485057e+02) (41, -1.00316985852701793647e+03) (42, 2.83068654570667455062e+00) (43, -1.27531968599075057114e+02) (44, 6.81840050475023673471e+00) (45, 1.50000000000000000000e+03) (46, -9.69548493335289833794e+01) (47, 1.50000000000000000000e+03) (48, 1.50000000000000000000e+03) (49, -2.38562525412749586451e+01) (50, 3.31094762069263648385e+00) (51, 2.06401644124503214073e+00) (52, -1.50000000000000000000e+03) (53, -9.42323524730636408187e-01) (54, 4.50692028819360945846e+00) (55, -4.64389586054080155009e+02) (56, -4.64450945429795410746e+02) (57, 1.50000000000000000000e+03) (58, 1.18816334822094784585e+01) (59, 6.07598886317578079641e-01) (60, -5.94510164737244828359e+00) (61, -1.34422318231772919717e+02) (62, -4.64422857478552487009e+02) (63, 9.07284727265041190947e+00) (64, -1.25281645603017963708e+02) (65, -2.61666385339201895022e+02) (66, 1.50000000000000000000e+03) (67, -1.49130883632036193021e+00) (68, 1.50000000000000000000e+03) (69, 5.75660253455138217760e+02) (0, 2.54746135749776385637e+01) (1, 4.60823402703823532534e+01) (2, 7.27909340622286027411e+00) (3, 1.50000000000000000000e+03) (4, 2.08447198178455899154e+01) (5, -2.21383992039918275907e+01) (6, 1.74364540888101693383e+00) (7, -7.03947603730085713636e+00) (8, -2.94978627818546090822e+00) (9, 1.22517548046448787602e+01) (10, 2.55067742403603947565e+00) (11, 3.98767334964727160340e+00) (12, -3.93609733103322056991e+00) (13, 3.09130242516695297184e+00) (14, 3.04817672868667788322e+00) (15, -6.12297959299677927447e+01) (16, -1.07486608589167098593e+00) (17, -5.49552786084917865850e+00) (18, 1.54213637698742260795e+01) (19, -2.15851336782256819635e-01) (20, 3.04640736480652041251e+00) (21, 5.33811523135715448873e-01) (22, -1.15420643888442264746e+00) (23, 1.72953409088582055197e+00) (24, 1.50000000000000000000e+03) (25, 6.46660860717112395690e+00) (26, -3.50799729095478696195e+00) (27, -3.18969970725707385739e+00) (28, -8.17653641953747789550e-01) (29, 8.29757850975033739438e-01) (30, -3.38882858898466032826e-01) (31, 2.20493653351588614342e+00) (32, -3.10648480093381795797e+00) (33, -2.26565941318579477937e+00) (34, 2.74533487512810925324e+00) (35, 2.74016043945296505768e+00) (36, 1.77771619154003013286e+00) (37, 8.35249813596323442688e-01) (38, -8.81399736817654577692e+00) (39, 1.39303986073642449561e+00) (40, 5.31039428800314983192e+00) (41, 2.76278870209201077301e+00) (42, 1.04701923883231629020e+01) (43, 5.86500829448634330987e+00) (44, 2.03086004996482643037e+01) (45, 1.50000000000000000000e+03) (46, -5.07520289245544020673e+00) (47, -4.53536377697787713714e+01) (48, -9.53005631906290595623e+00) (49, 1.16772351939906897655e+01) (50, 7.31441754419303435952e+00) (51, -1.71520429372974181348e+00) (52, 1.25047435003301412593e+01) (53, -2.81895034055661575234e-01) (54, 1.43859353351373053798e+00) (55, 3.01157647421060659099e+00) (56, 3.09422951986490524234e+00) (57, 6.68491206195481968422e-01) (58, -8.07265095068727456251e-01) (59, 1.10314713591526647463e+00) (60, 7.40837293833095156259e+00) (61, 3.17795227505132515944e+00) (62, 3.09250628997980392398e+00) (63, 1.18624272468117144541e+01) (64, 4.87205774775858202474e+00) (65, 9.92956720677888426962e+00) (66, 1.50000000000000000000e+03) (67, -3.12880820109057600220e+00) (68, -1.20227362424637118643e+00) (69, -1.80931557676626098008e+00) (0, 1.70297120300808515481e+01) (1, 1.86166682785236226039e+01) (2, 3.41002031278009738458e+01) (3, 1.50000000000000000000e+03) (4, 3.75782564770255760322e+01) (5, -2.56538809235074189985e+01) (6, -4.93841868164377402195e+01) (7, 1.51936527477438030331e+01) (8, 1.85403180076408302668e+00) (9, 6.50711519679852745668e-01) (10, -4.94339259179676115963e+00) (11, -4.54412503774624898512e+00) (12, -1.73793925549895500460e+00) (13, 6.86938707603159581794e+00) (14, 6.93729023708048497809e+00) (15, 2.59185791880558991096e+00) (16, 2.66893383843960130264e+00) (17, -7.72724340480676064047e-02) (18, 1.73774942968150654110e+01) (19, 1.45722158912644985662e+01) (20, 6.95619088483992253913e+00) (21, 1.73630509467760738573e+01) (22, 2.94028278877961835036e+00) (23, 3.13822436532823267896e+00) (24, 1.50000000000000000000e+03) (25, 1.06928198215247878267e+01) (26, 4.42113259797133508755e+01) (27, 3.29644638683131407930e+00) (28, 5.18809650815094247633e+00) (29, 2.89229049048989939052e+00) (30, -4.20474257170474485790e-01) (31, 9.05284007060712769821e-01) (32, -1.16268714446607734914e+01) (33, 2.86165759299498889678e-01) (34, 9.61265426916582299555e+00) (35, 9.76316572768194390619e+00) (36, 1.72756175193860741501e+01) (37, 1.61968871583752727084e-01) (38, -2.14189950138506679522e+00) (39, 3.70963174837375120330e-01) (40, -9.20337056649379370299e+00) (41, 9.71470017773611260736e+00) (42, 6.44483649382602852285e+00) (43, 9.35908746387792334076e+00) (44, 1.16208623885347002158e+01) (45, 1.50000000000000000000e+03) (46, -1.60577600339773685079e+00) (47, 1.68191024418017214259e+01) (48, 7.88488197645213073628e+00) (49, 2.87219775031916029207e+01) (50, -6.02715094567615849996e+00) (51, 9.32077711213289750170e-01) (52, 3.62537763709525595601e+00) (53, 2.37456247673866815973e+00) (54, 1.06482505411598094014e+00) (55, 9.78218321544630242670e+00) (56, 9.63627050114376260126e+00) (57, 6.47604233902004722268e+01) (58, -7.90485440219419133179e-01) (59, -1.20892628607401508845e+00) (60, 3.77984465308570483089e+00) (61, -3.27507595947728102903e-01) (62, 9.62328930986625863397e+00) (63, 4.34440071497744355611e+01) (64, -7.32227998523090395366e-01) (65, 1.06359370023762211943e+00) (66, 1.50000000000000000000e+03) (67, -1.44066410661456050235e+01) (68, 2.54535591510173659913e+01) (69, -3.89354661659630352233e+00) (0, 3.75587000692921506584e+01) (1, 3.81663467045087401175e+01) (2, 6.76341436569337250972e+00) (3, 1.50000000000000000000e+03) (4, -1.02692333735820895413e+00) (5, -4.52710019686191067478e+00) (6, -2.05691422853343824917e-01) (7, 9.90635741756247523160e-02) (8, 1.98978931439015416238e+00) (9, 1.40516032423934031925e+01) (10, -1.00646703999961384390e+00) (11, -6.66004270980797041801e+00) (12, -4.79893168575498663131e+00) (13, 3.78234784806656820777e+00) (14, 3.69696758443999273780e+00) (15, -2.99791674088425104117e+01) (16, -1.19511162675426052537e+00) (17, -6.61163349006127809560e+00) (18, 1.09899545577577235633e+01) (19, 5.17407095780237646920e+00) (20, 3.59291308874773962501e+00) (21, -5.66194880764971708587e-01) (22, -4.18907760766272385666e+00) (23, 3.32164239886262135926e+00) (24, 1.50000000000000000000e+03) (25, 7.36215169767819066493e+00) (26, -9.42704704682940930471e-02) (27, -4.08366925304710859379e-01) (28, -1.06166994976523310079e+00) (29, -8.33081074516582309464e-01) (30, -7.31011077395218977770e-01) (31, 4.95281363854162215432e+00) (32, 3.01377281561926713138e+00) (33, -8.94593303263550299054e-02) (34, 4.66022650719003905806e+00) (35, 4.74579305023269704122e+00) (36, -9.46164747518500348633e+00) (37, 3.31837570566572548358e+00) (38, -1.49820407041586136643e+01) (39, 9.62795020025694170407e-01) (40, 8.29023223147655663468e+00) (41, 4.78223623156862309713e+00) (42, 1.67459088486241847171e+00) (43, 1.21412025007611372729e+01) (44, 9.30349491399065797737e+00) (45, 1.50000000000000000000e+03) (46, 3.56729491893493921850e+00) (47, -6.03669186679188030098e+01) (48, -3.46701507919457041496e+00) (49, 1.85180293083661808851e+01) (50, 1.93202696817102781424e+00) (51, 1.53319448808468039580e+00) (52, 1.37145115936418022784e+01) (53, 1.10728134380219618293e+01) (54, -1.95866862387701279324e+00) (55, 4.10853890917028152785e+00) (56, 4.09077581605638318507e+00) (57, -5.22302054514063751611e+00) (58, 6.01978004393823962204e+00) (59, 1.68964349914818678933e+00) (60, 1.48687039000407850153e+01) (61, 1.99392848039051995279e+00) (62, 4.17447879007781796901e+00) (63, 1.07444526177116053134e+01) (64, 8.71813951459425773294e+00) (65, 7.67140237870749364113e-01) (66, 1.50000000000000000000e+03) (67, -5.00770765707235776532e-01) (68, 1.13208345214668337775e+00) (69, -2.27761778551210847255e+00) (0, 9.30495870086694409906e+00) (1, 1.41521701516972683521e+02) (2, -8.58293839189779419030e+02) (3, 1.50000000000000000000e+03) (4, 1.63065241278397721203e+01) (5, 3.49040989974503668147e-01) (6, 1.00194541695151677629e+01) (7, 2.61243759728229889561e+01) (8, -3.16465472694755645122e+00) (9, 1.00608656224541768154e+01) (10, -1.50152515791358950992e+02) (11, 2.79107002867954534508e+01) (12, 8.52600027608872096607e+02) (13, -9.18555982434658744751e+02) (14, -9.18610426468311288772e+02) (15, 1.31145125531354733539e+03) (16, -3.07340023623704627909e+00) (17, -1.76568470284427974093e+01) (18, -1.50000000000000000000e+03) (19, -8.01317459370320150924e+00) (20, -9.18613472161351182876e+02) (21, 6.66830124674360980030e-01) (22, -4.49515281044433390178e-01) (23, -7.58538870330285021737e+02) (24, 1.50000000000000000000e+03) (25, 5.49506249371215726995e-01) (26, 2.07887962582427803682e+02) (27, 1.11537129747407379909e+03) (28, -1.01654083961497212840e+03) (29, 1.85879384576478207114e-01) (30, 8.25438932822817150736e+00) (31, 1.78006809748390253390e+02) (32, -1.17265953378390895523e+03) (33, 8.10401379661553136202e+01) (34, -1.22757426249083073344e+03) (35, -1.22756751512583286967e+03) (36, 5.01212946881233676777e+02) (37, -1.20758102132549272056e+01) (38, -1.55325325235350319986e+01) (39, -3.10045070859132465557e-01) (40, -5.39256292203186603729e+02) (41, -1.22769097182001860347e+03) (42, 1.22922333784978512483e+01) (43, -1.86721227745621803251e+02) (44, -1.15087054331001490937e+03) (45, 1.50000000000000000000e+03) (46, -9.42467990604203123439e+02) (47, 9.84200009202957289745e+02) (48, 6.62570841973507356215e+01) (49, -1.49192021771267491204e+00) (50, -4.75837479317756273378e-01) (51, -8.30840543727792035789e-01) (52, -9.59200009202957289745e+02) (53, 5.36450888738818143509e+00) (54, -9.71563268324813655852e+00) (55, -9.71200008093974247458e+02) (56, -9.71080117232761040214e+02) (57, 1.22570388384060538556e+03) (58, 1.39136128336977265008e+01) (59, -1.93233867593784824912e+00) (60, -1.50777633554658008208e+00) (61, 8.10897977475007136761e-01) (62, -9.71202130801639214042e+02) (63, 8.14218958528487313231e+00) (64, 3.38431930378223171374e+01) (65, -1.16744797349300006317e+03) (66, 1.50000000000000000000e+03) (67, -8.99246948103399645902e+00) (68, 1.25681846817576251851e+03) (69, 1.06602815088877241578e+03) (0, 3.41711399026072903951e+00) (1, 2.54878594100224242780e+00) (2, 1.32760845312597075552e-01) (3, 1.50000000000000000000e+03) (4, -5.79231612228279790777e-01) (5, -9.47935092224031050634e-01) (6, -2.30297445205372630639e+00) (7, 6.15129294090422007457e+00) (8, 2.86424955454182050829e+00) (9, 2.11884303799439788207e+00) (10, -5.49438159322126917772e+00) (11, 1.28630121325195556636e+00) (12, 5.66487379189773410104e+00) (13, 3.97566411996851387656e-02) (14, 2.42704008127222516100e-02) (15, 9.73465571630403370129e-01) (16, 1.75715440422012814103e-01) (17, 1.31372059244925565302e+00) (18, 1.13592614355413457083e+00) (19, 4.01889174515129887766e+00) (20, 2.06586424613963044739e-02) (21, -1.80376552545001200833e+00) (22, 4.05761167291468771712e-01) (23, 1.92965613660545487473e-01) (24, 1.50000000000000000000e+03) (25, 7.79375942908988039726e-01) (26, -4.22388674279145115431e-01) (27, 2.80666805848229250486e+00) (28, 3.19249760001164872847e+00) (29, -9.81047481949014033020e-01) (30, -8.94938091276284652942e-01) (31, 8.94327252793410132359e-02) (32, -1.02527540768542668737e+00) (33, 2.49203376306862650624e-01) (34, 7.36438221979368676934e-03) (35, 5.32374270010223336197e-03) (36, -2.00002715645648043719e+00) (37, 6.12277792737266901568e-02) (38, 2.32368975198079391609e-01) (39, 5.01690148356399912011e-01) (40, -5.02873100142598228324e-01) (41, -6.73507552618957394674e-02) (42, 1.89982569734287121133e-01) (43, 1.72459111312270957361e-01) (44, -5.74428114433980438469e-02) (45, 1.50000000000000000000e+03) (46, -6.38836018397952565273e-01) (47, 1.95820731281167503823e+00) (48, -2.28171816147908268491e+00) (49, 4.52544299898976021268e+00) (50, 1.86521491857360066646e+00) (51, -1.99569277487715857067e-01) (52, 2.91782296351896475173e+00) (53, 1.68154526902108969466e+00) (54, 8.59170597289225623783e-01) (55, 3.03639040838342526285e-02) (56, 1.19139866481882371330e-02) (57, 1.56222938860181326248e+00) (58, -2.24252996242547864014e+00) (59, 7.73168944170540606287e-01) (60, -5.15655799829118285937e-02) (61, -3.45133765771144185308e+00) (62, -1.50845781458797513833e-03) (63, 1.18052007478417875230e-01) (64, -3.67633048190971223335e+00) (65, 6.96326271482165526372e-01) (66, 1.50000000000000000000e+03) (67, -1.56169334644319390826e+00) (68, 8.62363997065553888888e-01) (69, 5.25207844069241591711e-01) (0, 1.80970793757487768971e+00) (1, 4.83850020685933479569e+00) (2, -2.09064216971292876623e-01) (3, 1.50000000000000000000e+03) (4, 3.30029055040753149797e+00) (5, 4.91805830976170721414e+00) (6, 6.40865812493575437436e-01) (7, -2.50048114659427644924e+00) (8, -1.20166426834604456175e+00) (9, 3.61431858831178454139e+00) (10, -3.13986206388017530244e+00) (11, 1.37224410474940189397e-01) (12, 5.63671566500130838406e-01) (13, -1.28452403853640012565e-01) (14, -7.10684716803876709301e-02) (15, 1.12738123943192416476e+01) (16, 1.39348523080556119247e+00) (17, 1.54633532936336726138e+00) (18, -3.10797788639089023199e-01) (19, -4.56959450206035544539e+00) (20, -3.12035068971960108386e-02) (21, -2.06865767403419997805e+00) (22, -1.36663814661061078226e+00) (23, 8.80543581265973873684e-01) (24, 1.50000000000000000000e+03) (25, -3.79837586878142619007e-01) (26, -7.28047705031369951634e-01) (27, -4.22994790003033838133e+00) (28, 2.13628721370579022221e+00) (29, 4.95124966737497729241e-01) (30, 1.62358972605962925684e+00) (31, 1.01683949768969195127e+00) (32, -4.29028020297081869039e-01) (33, 2.43684554420061916247e+00) (34, 4.85193285836346410722e-02) (35, -5.58224465952745982356e-02) (36, 3.96349269796164305202e-01) (37, 4.75495497545110001880e-01) (38, -5.83639883992291719217e-01) (39, -1.29695505173829855883e-01) (40, -3.61546015527084918517e+00) (41, -7.44964216159217512692e-02) (42, 1.76764914204436268674e-01) (43, 1.09383128545754093608e+00) (44, 5.33529145243110758737e-04) (45, 1.50000000000000000000e+03) (46, 8.68253646150749236465e-02) (47, 2.03310355957945798622e+00) (48, 4.28953555053837864985e-01) (49, -1.79671460857701359437e+00) (50, -5.37360403442225242898e-01) (51, -6.29618542312927909066e-01) (52, -7.24525658874801581355e-01) (53, 9.08983075383552940885e-01) (54, -3.17331377372270129200e-01) (55, 2.51520428551800477590e-02) (56, 1.03000554932720696927e-02) (57, 1.34426013330161109316e+00) (58, -7.34650444472012331687e-01) (59, 8.14052787010108525045e-01) (60, 5.21516127441978616375e-01) (61, 5.04807614257239412048e-01) (62, 1.84765492812465612939e-03) (63, -3.41895580259337014684e-02) (64, 2.28274971439192997380e+00) (65, -2.59140575537279649332e-01) (66, 1.50000000000000000000e+03) (67, -1.18537457687407599138e+00) (68, 3.18156032184226855719e+00) (69, 4.14217475353180375475e-01) (0, 3.56030200172299970962e-01) (1, 8.10639242955315753036e-01) (2, 5.06094892269808305230e-01) (3, 1.50000000000000000000e+03) (4, -3.15761205739477812671e+00) (5, 1.04373100448242528415e+00) (6, -3.01470660859690431366e+00) (7, 5.95889936191211422312e+00) (8, -8.30423310543368264902e-01) (9, -5.60160399660874719352e-01) (10, -1.39574386091583901859e+00) (11, 1.92547717702709686449e+00) (12, 3.61487808317825187743e+00) (13, 9.43882797579518109665e-03) (14, 4.98884025655246254871e-02) (15, 4.29507697734391943878e-02) (16, 1.81951412526144595816e+00) (17, 1.92421155669627164109e+00) (18, 1.62922957525396072676e+00) (19, 6.26920127622829070901e+00) (20, 9.09148681602930941459e-02) (21, -3.43904688515884793265e-01) (22, 1.69293015695891224670e-01) (23, -2.17031980521153938790e-01) (24, 1.50000000000000000000e+03) (25, -1.70899502519411883306e-01) (26, -1.29751557760389046869e+00) (27, 4.30220027200643673204e-01) (28, -3.97208915698508358005e+00) (29, 5.06268477996955068576e-01) (30, -1.26488127970637576070e-01) (31, -6.04655378264172149727e-01) (32, 3.02338782670164063493e-01) (33, 2.25279294735519064474e+00) (34, 1.28320359035537123749e-01) (35, 9.17990732632135986169e-02) (36, 1.05774593196502175729e+00) (37, 1.03914147442005289079e+00) (38, -2.89234265121654288144e-01) (39, -8.86135463329920797237e-02) (40, -4.15438622572220683793e+00) (41, 1.09931208535239605117e-01) (42, 1.90812780821447192103e+00) (43, 1.14045171299849021351e-01) (44, -1.69202558067338054704e-01) (45, 1.50000000000000000000e+03) (46, 1.51967053692830833533e+00) (47, 3.47086344505822541606e+00) (48, -1.19326053831720102494e+00) (49, -3.42611214465397551088e-02) (50, -4.08841368471676336327e+00) (51, 3.05128757572622200112e-01) (52, -9.34876629743932929806e-01) (53, 1.72472378135389647902e+00) (54, 2.04247330890284661820e+00) (55, 9.99500978432154574271e-02) (56, 7.27548230133508999629e-02) (57, 2.38301008222938620618e-01) (58, -7.47945514434305291918e-02) (59, -7.72534418994414329163e-01) (60, 4.35358461701980670178e-02) (61, -1.26965878704282242317e+00) (62, 1.11931898041770339081e-01) (63, 2.34997644672572958413e+00) (64, -2.51685146953265981296e+00) (65, -5.28958903435727337272e-02) (66, 1.50000000000000000000e+03) (67, 1.49767003084008054614e+00) (68, 1.38263046023779856419e+00) (69, 4.68714277718791538785e-01) (0, 1.17080210280743255424e+01) (1, 2.01232168082739057979e+01) (2, 2.69483530522897538617e+01) (3, 1.50000000000000000000e+03) (4, 7.43907618048838603642e+00) (5, -6.54263267826997996224e+00) (6, 1.56161536733860035753e+01) (7, 1.02318378296122229898e+01) (8, -2.29516689693018582918e-01) (9, 2.37340095070398016119e+00) (10, 1.57252389667403225104e+00) (11, 2.05335206571676698317e+00) (12, -5.11521249870480243516e+00) (13, 1.42478192023747318729e+01) (14, 1.42620723493211620791e+01) (15, -4.05313717739379967497e+02) (16, 2.67353028550998361723e+00) (17, -3.66611940118232482178e+00) (18, 1.27737083528386463627e+01) (19, -5.90185923257172984080e+00) (20, 1.42856653429382198794e+01) (21, -2.92610939744838594034e-01) (22, -3.99842432633238709094e-01) (23, 2.36003700578047626024e+00) (24, 1.50000000000000000000e+03) (25, 1.02613747053163706369e+01) (26, -1.96743911217670786051e+00) (27, -2.84957034434837064296e+00) (28, 3.41417337826700784120e+00) (29, 1.53311211393383461932e+00) (30, -2.03130643869128757473e+00) (31, 6.76706271476673748566e+00) (32, 6.46896926053624143904e-01) (33, -4.71616061932179508887e+00) (34, 4.95445190140636810838e+01) (35, 4.93463075900109657823e+01) (36, 7.60335746621988040062e+00) (37, 5.24151377940843321568e+00) (38, -7.25966242972989839188e+00) (39, 5.66710833459385288080e+00) (40, 1.84087427603203868109e+00) (41, 4.93585151577027687608e+01) (42, 1.25275229278516171405e+01) (43, 6.28352727370056740597e+00) (44, 1.08816073521372764787e+01) (45, 1.50000000000000000000e+03) (46, 4.36398442777033768181e-01) (47, 3.09517266278654235023e+00) (48, -6.09339170953412612164e+00) (49, -1.04189687813168219144e+00) (50, -3.22950797636795705614e+00) (51, -1.78352690054339468873e+00) (52, 8.62738340893824329214e+00) (53, -1.53795173049163391710e+00) (54, 7.83038810896525938610e-01) (55, 1.43129974700324886783e+01) (56, 1.43131500877254360660e+01) (57, -7.04971321893632740796e+00) (58, -8.52250862475527726225e-01) (59, -1.91672004883767921335e+00) (60, 8.30983099458950436045e-01) (61, 1.28905200633283492095e+01) (62, 1.41877857319825047000e+01) (63, 1.35938665029034524423e+01) (64, 5.81260887418323601850e+00) (65, 6.84707299374705247175e+00) (66, 1.50000000000000000000e+03) (67, -1.29485780486927670729e+00) (68, -1.23434320683428175869e+01) (69, -9.53818477937813824497e+00) (0, 2.21861056002957610644e+01) (1, 7.83855221725341522188e+00) (2, 1.68250844197384950007e+01) (3, 1.50000000000000000000e+03) (4, 1.75269958259471114737e+00) (5, -1.68367466043963425193e+01) (6, 5.22147296635818580768e+00) (7, 1.64366847959290964809e+01) (8, 1.40626543219025146314e+00) (9, 1.72426516816583164093e+00) (10, 2.59589677288965781088e+00) (11, 6.61202892443207534967e+00) (12, -1.40574832395323179313e+00) (13, 1.90142356745770113591e+00) (14, 1.90288459651043551091e+00) (15, -1.77695712863665917780e+01) (16, 2.91693836755180324616e+00) (17, -2.08586097651544344345e+00) (18, 1.29740526860903067075e+01) (19, -1.07105019954250995085e+01) (20, 1.87201327599456468498e+00) (21, 1.37231562476804658246e+00) (22, 4.24361082722014959501e+00) (23, 7.48439239012757351333e+00) (24, 1.50000000000000000000e+03) (25, 1.11609357761364265116e+01) (26, -1.23919653078761200504e+01) (27, -7.45904155338477004022e+00) (28, 5.22878236726542677815e+00) (29, -1.10457761852472205466e-01) (30, 2.66837272654211021816e+00) (31, 1.80323193189570862849e+00) (32, 3.87836306762169380491e+00) (33, -1.39647434555687799396e+00) (34, 3.92239620523947696284e+00) (35, 3.92308715345758418636e+00) (36, 1.46931208548625802379e+00) (37, 8.11122792475612186536e+00) (38, -4.18928282013187125443e+00) (39, 1.38024781996349377167e+00) (40, 1.89642369880936700888e+00) (41, 4.01626749324101428584e+00) (42, -1.89644302645094753323e+00) (43, 2.52117679006940731412e+00) (44, 4.95349865190817073568e+00) (45, 1.50000000000000000000e+03) (46, 7.81840098390471527345e-01) (47, 1.12850601777002985671e+01) (48, -9.61652209471782759564e-01) (49, 1.35059825126114141369e+00) (50, -3.77832721539411364731e+00) (51, 1.64273866535913426468e+00) (52, 9.19259049922092685847e+00) (53, 7.55421801348022015077e+00) (54, -4.07757189970778100019e+00) (55, 1.54620733550673916668e+00) (56, 1.63510782710200697210e+00) (57, -8.82865709542552501432e+00) (58, -1.12988765480170783029e+00) (59, -6.93143641612684463515e-02) (60, 1.00839397784746775955e+00) (61, 7.11944006299019793715e+00) (62, 1.65648148647433668401e+00) (63, -2.99629523586236867772e+00) (64, 5.63700806766789686009e+00) (65, 3.08105876644092013805e+00) (66, 1.50000000000000000000e+03) (67, -2.28286269492656668234e+00) (68, 1.10008184706355982563e-01) (69, -1.18414750579362437755e+00) (0, 2.21359723869780999905e+01) (1, 1.43555871671583172855e+01) (2, 4.32842397250735100300e+00) (3, 1.50000000000000000000e+03) (4, 2.14928927082447565056e+01) (5, -2.10934531340086657281e+01) (6, -8.19389421304378307020e-01) (7, 2.64018912406882222399e+00) (8, 9.44310885715129111340e-01) (9, 1.38421270593952385752e+01) (10, 7.92189644127691483533e+00) (11, 2.03445731601382817644e+00) (12, 4.18701816002864601884e-01) (13, 1.27683233790737027391e+00) (14, 1.32551703923087949022e+00) (15, -5.07391416391470713165e+01) (16, -3.63442281462231620015e-01) (17, -2.30972171287155658703e+00) (18, 2.52096785946613479723e+01) (19, -2.97373572405383201911e+00) (20, 1.16417825543027686486e+00) (21, 1.98163392273415861489e+00) (22, 9.43647680289600887527e-01) (23, 9.14748329504873503026e+00) (24, 1.50000000000000000000e+03) (25, 4.51178881222037375665e+00) (26, -5.43899440894147634395e+00) (27, 5.69053491984991444141e-01) (28, 1.15064193945468185021e+00) (29, -2.16253594773379154148e+00) (30, 1.88399780704050989755e+00) (31, 7.76702048485484564111e+00) (32, -1.95419101806332551341e+00) (33, -9.39624506204983056534e+00) (34, 1.24742029755044847583e+00) (35, 1.32522045968700319385e+00) (36, -4.47169841846223459214e+00) (37, 1.81131767261581955175e+00) (38, -3.76820697454527842041e+00) (39, 1.26048061977148440072e+00) (40, 4.05776292470871968732e+00) (41, 1.22521262018609888855e+00) (42, -4.57064199346590793738e+00) (43, 1.33473982324027007351e+00) (44, 5.56499789455146576245e+00) (45, 1.50000000000000000000e+03) (46, 2.02453888650378832637e+00) (47, -4.33497516488691125858e+00) (48, -4.41698869781966863002e+00) (49, 1.30235577159483408849e+01) (50, 6.00997757665112652958e-01) (51, -7.95756059428839446213e+00) (52, 6.49570268563287012142e+00) (53, 2.94684143947546051123e+00) (54, -3.10905402658393192894e+00) (55, 1.31636060350280637010e+00) (56, 1.27698017232757443651e+00) (57, -9.36826160454891976315e+00) (58, 7.93028760137413080145e-02) (59, -3.02533922036563540647e-01) (60, 1.23984932475815146091e+00) (61, 4.54323877252265795335e+00) (62, 1.17437120848041365306e+00) (63, -1.37295004738021741986e+00) (64, 5.66137554490618288838e+00) (65, 3.80082134676572946930e+00) (66, 1.50000000000000000000e+03) (67, -6.89367652876269332296e-01) (68, 1.25363268258749771533e+00) (69, -6.96617508358047365924e-01) (0, 1.74177454406785408025e+01) (1, 7.96939878449021676943e+00) (2, 1.38721454368552610248e+01) (3, 1.50000000000000000000e+03) (4, 7.76176928152232381564e+00) (5, -2.23997889042624862554e+01) (6, 8.27911762443310439430e-01) (7, 1.30957412553237411146e+01) (8, -1.98010175225064766202e+00) (9, 1.05299010056461650464e+01) (10, 6.27263729900206845613e-01) (11, 3.59901167425748047535e+00) (12, 3.84195212243129358143e+00) (13, 1.16819642609920126830e+00) (14, 1.21828098720874455907e+00) (15, -2.00680216234768842298e+01) (16, -1.86123172126097324863e+00) (17, -3.69522813521055182306e+00) (18, 1.84949423400497856562e+01) (19, -1.04428301980127251625e+01) (20, 1.33692556745376145422e+00) (21, -8.50560927813752365445e-01) (22, -6.49908399951996118560e-01) (23, 2.73437547446949835717e+00) (24, 1.50000000000000000000e+03) (25, 8.37039471657880262967e+00) (26, -2.61004265132007207129e+00) (27, -1.55827528233702428118e+00) (28, 5.20782213032584806456e+00) (29, 7.11130221114980476393e-01) (30, 7.30538807255074296165e+00) (31, 3.78044929076144731184e+00) (32, 4.44056703086129367364e+00) (33, -2.25629318275668655502e+00) (34, 1.16208631671037299071e+00) (35, 1.32559886700477158605e+00) (36, -2.39117721540790517665e+00) (37, 4.16856395012733660366e+00) (38, -1.80760790747172772619e+00) (39, 1.65297683633355152466e+00) (40, 5.60528988219679025207e+00) (41, 1.34929406768645798742e+00) (42, -7.96233983598767375289e-02) (43, 3.17891378739907315421e+00) (44, 3.89676357266408102120e+00) (45, 1.50000000000000000000e+03) (46, -3.32009878018704629454e+00) (47, 1.77716596291342021630e+00) (48, -3.08570703126292933405e+00) (49, 4.11388261764357299199e+00) (50, 6.10192566754150567121e-01) (51, -7.29778515033121744082e-01) (52, 8.29969981924517163918e+00) (53, -4.55308770001101426050e-01) (54, -5.39916388518185796919e-01) (55, 1.26804540470728377421e+00) (56, 1.26901579067596892436e+00) (57, -4.09612085995320995835e+00) (58, -5.30539731663237978943e-01) (59, -7.28842092827661325316e-01) (60, 1.44839419455551965399e+00) (61, 7.76734935436642537354e+00) (62, 1.28344505444654899406e+00) (63, -4.77153528676387439500e-01) (64, 1.17019138556187396460e+00) (65, 1.83112741109136334394e+00) (66, 1.50000000000000000000e+03) (67, -1.94985740848681410320e+00) (68, 1.51757547387337887734e+00) (69, -5.38060614146369298183e-01) (0, 1.77923090821476259649e+00) (1, 4.07297144149548628889e+00) (2, 5.91169288874075049556e-01) (3, 1.50000000000000000000e+03) (4, 1.83255205700906453892e+00) (5, 2.29281306217638292111e+00) (6, 9.10066764409546369308e-01) (7, -1.55645997382111977991e+00) (8, 9.15787254925235938430e-01) (9, 2.23399424511863814446e-01) (10, -1.45000947475295594025e+00) (11, 2.34749620310954654201e+00) (12, 5.72638466348337371592e-01) (13, 1.26961334623567373425e-01) (14, 8.34690025226992177165e-02) (15, 5.99314619120271396824e-01) (16, 8.00160077168624139787e-01) (17, -9.72566668778309884047e-01) (18, 3.04950515904073127249e-01) (19, -1.09107775016334729301e+00) (20, 6.90976968185823686719e-02) (21, 2.79394664195543263041e-01) (22, 1.03988527491011284454e-01) (23, 7.29333259978426573511e-01) (24, 1.50000000000000000000e+03) (25, -4.86186059213599863771e-01) (26, 1.51822392549653795157e+00) (27, -1.39603027767260939873e-01) (28, -2.19525436359734926750e-01) (29, -2.02344774640644198271e+00) (30, 2.44432583729973273989e+00) (31, 7.24863492629360339770e-01) (32, -3.28580789023853947484e+00) (33, 4.68741468418426149301e-02) (34, 7.09890720127362567782e-02) (35, 1.34316865044666916562e-01) (36, -6.13749618119782791581e-01) (37, -6.70847231448356340344e-01) (38, -7.83857920235602079195e-01) (39, 1.13659812097291545996e+00) (40, -3.69543737180529596742e+00) (41, 9.97263003764885941349e-02) (42, 1.06050572710561663570e+00) (43, -7.37048786816487444540e-01) (44, -4.97636233949418430034e-02) (45, 1.50000000000000000000e+03) (46, -2.67631284290683502114e-01) (47, -6.31152158093298276675e-01) (48, 1.68434471158647336431e+00) (49, -5.53151457995059825379e-01) (50, 5.57771258017759286041e-01) (51, 7.67091576310657163873e-01) (52, 4.58524199540968957489e-01) (53, 4.81642205083182617376e-01) (54, -6.14466172692532186517e+00) (55, 1.28875601726605226727e-01) (56, 3.32081277547615766332e-02) (57, 4.10309100091933132148e+00) (58, 4.83385042999372904760e-01) (59, 3.15821625666606708993e-01) (60, 3.27267828606209480388e-03) (61, -1.53929208670140393878e+00) (62, 1.45444456177784536832e-01) (63, 2.04442499451502879282e+00) (64, 2.16582615291757318854e-01) (65, 2.99198650304598967598e-01) (66, 1.50000000000000000000e+03) (67, -5.02958114156024649333e+00) (68, -5.86851862780314448287e+00) (69, 4.14784283576293766327e-01) (0, 5.16196316206595007259e+00) (1, 8.30003682580321999751e+00) (2, 9.54027021833387250949e-02) (3, 1.50000000000000000000e+03) (4, 2.99521595465271406322e-01) (5, 2.72181830925125067822e+00) (6, 2.44375949285733184979e+00) (7, 4.69766032417300638535e-01) (8, 7.98039690216741703921e-01) (9, 8.96280419331821787132e-01) (10, -9.58887848669389808443e-01) (11, 1.56089798937977475290e+00) (12, 4.85075166071027019665e-01) (13, 1.85080519831735230366e-04) (14, -2.20307999337548757190e-02) (15, 3.05084303189376293552e-01) (16, 4.08619931095920041475e-01) (17, -2.04675647273672245419e+00) (18, 1.23340618754848474481e+00) (19, 1.29730419554766185364e+00) (20, 3.84043387090330159972e-02) (21, 1.62411559793492354942e+00) (22, 5.17634116789729481489e-01) (23, 8.17808243897593101224e-02) (24, 1.50000000000000000000e+03) (25, -4.88839650694826222121e+00) (26, 1.71182278848431623786e+00) (27, -2.76012028940645581798e+00) (28, 1.57079911560618223909e+00) (29, 5.78870128028023178679e-01) (30, 3.64771111636697886738e+00) (31, 2.77354802169216885233e+00) (32, -3.22129505089917067551e+00) (33, -6.85560699593514732975e-01) (34, 2.93557988296257975358e-02) (35, 1.32249609548877350429e-01) (36, 9.96085142415685020900e-01) (37, -8.97908103547933045263e-01) (38, 1.49049225469717688819e-01) (39, -6.63916422937007033589e-01) (40, 1.47992090380186930298e-01) (41, 4.16927123258816201279e-02) (42, 7.90537984509719904302e-01) (43, -6.59647485389820209534e-01) (44, 8.80069118583509391041e-02) (45, 1.50000000000000000000e+03) (46, 1.01844263109288846181e+00) (47, -1.36114766704735168368e+00) (48, 4.03080157364196267622e+00) (49, -1.00753134268433131027e+00) (50, 5.49292958189937774449e+00) (51, 1.19681887047828694470e+00) (52, -2.48345539152882155420e+00) (53, 5.20231902877281826569e-01) (54, 6.76114373886302577610e-01) (55, 1.65913076121638775051e-01) (56, 5.02817714403378107635e-02) (57, 8.81152922128566218340e-01) (58, 1.90267265505338145637e+00) (59, 6.27086548980224312011e-01) (60, 1.53069496960530293528e-01) (61, -2.53719256011148797114e+00) (62, 1.67243527065026355294e-02) (63, 6.30735619390571944365e+00) (64, -5.86342882576036950049e-01) (65, 8.31827047180076079025e-03) (66, 1.50000000000000000000e+03) (67, -6.49099795656302824831e-01) (68, -7.25904893260412631406e+00) (69, 3.45229220364164368640e-01) (0, 4.31401726882882563530e+00) (1, 2.97149093077813430952e+00) (2, 1.18684337329519981608e-01) (3, 1.50000000000000000000e+03) (4, 4.09985587234277293334e+00) (5, -2.54494890033492238146e+00) (6, -2.28805762397325063162e+00) (7, -6.04760252625467842336e-01) (8, -1.21822213429954562258e+00) (9, 8.93585084220846037617e-01) (10, -1.37585680233620832880e+00) (11, -7.53359593357148527026e-01) (12, 2.40557802015033539433e+00) (13, 4.49981516418819990633e-02) (14, 7.14843845186595994168e-02) (15, -2.06580439167943996637e-01) (16, -7.80293112171134839450e-01) (17, -2.81885583212981361001e+00) (18, 2.51372955823402771669e-02) (19, -1.74519982076292112794e+00) (20, 7.98390334663754697164e-02) (21, 2.55672845093871758948e+00) (22, 5.80200936663367916601e-01) (23, 7.86272308849411238896e-01) (24, 1.50000000000000000000e+03) (25, -3.99935941472730871471e-01) (26, -1.37231660846508196627e+00) (27, -1.94438884524663579967e+00) (28, -5.41317179534572900934e+00) (29, 3.73208701272973453200e-01) (30, -1.13700286709052611478e+00) (31, -9.06523660090679084256e-01) (32, -3.39332540139298233228e+00) (33, 2.31104908848507584196e+00) (34, -2.47983844759101998423e-02) (35, 1.07312707284747620683e-03) (36, -6.84509929872739952827e+00) (37, -1.32095549562245584418e+00) (38, -2.87424094277728969793e-02) (39, -6.41208427576128709270e-05) (40, -2.97932438666509691316e+00) (41, 8.35070288000470117851e-02) (42, 1.62203067208924434084e+00) (43, -1.00327394476257114597e+00) (44, 1.47618434123469777219e+00) (45, 1.50000000000000000000e+03) (46, -2.77014561798679981308e+00) (47, -5.60074876352422990067e+00) (48, 1.62541165238161333662e+00) (49, 3.27051118390891515375e+00) (50, -2.06883741469685977776e+00) (51, -1.66753228266106279243e-01) (52, 7.88155967428843640121e-01) (53, -8.14161997026222328255e-02) (54, 1.62051635645439073841e+00) (55, 1.75727581797009251019e-02) (56, -6.70693168224926472565e-02) (57, 4.12648671071062000948e+00) (58, 5.42771891674914574999e-01) (59, -3.19526463940089516802e-02) (60, 6.86243168922156976386e-01) (61, -5.59786296232178570698e-01) (62, -5.91726848663922319616e-02) (63, 6.99844848728891832934e+00) (64, -2.89353743216796965854e-01) (65, -1.62457424060415300815e-01) (66, 1.50000000000000000000e+03) (67, -1.03477137062338897522e+00) (68, -9.98563300700738065707e-01) (69, 4.61028594840029781743e-01) (0, 3.42049567514959846903e+01) (1, 2.68804023515861345572e+01) (2, 1.39735207548947055756e+01) (3, 1.50000000000000000000e+03) (4, 6.98449489003351864369e+00) (5, 2.81029912842226836656e-01) (6, 1.22146405854070216890e+01) (7, 2.08467985805833109225e+01) (8, -9.77281550197417381298e+00) (9, 2.80837723152978946395e-01) (10, 6.40275110145183212751e+00) (11, 1.95987214850108859565e+00) (12, -1.21619884325006690773e+01) (13, 6.87328950568880969740e+01) (14, 6.88006441250290805556e+01) (15, -1.50000000000000000000e+03) (16, 7.88950251762890131246e-01) (17, -1.68867564854211451575e+01) (18, 3.47298756312668501778e+01) (19, 5.71678068663934238480e-02) (20, 6.87863305240716869093e+01) (21, 1.08614302874853922987e+01) (22, 7.01768757355971439793e-01) (23, 6.97092253556312897445e+01) (24, 1.50000000000000000000e+03) (25, 1.33511899449380333493e+01) (26, 1.39033905267007673601e+00) (27, 3.20549162336547821539e+00) (28, -5.73873118798450931877e-01) (29, -4.92242523571399193116e+00) (30, 1.30770401436801919637e+00) (31, 2.16534754693989519581e+01) (32, 1.40268728779955278441e+01) (33, -1.70023678812305654162e+01) (34, 1.56193960771314749536e+02) (35, 1.56200763270609030542e+02) (36, -1.09391088623567500626e+00) (37, 6.47187322979233226050e+00) (38, -5.72684141192119000152e+02) (39, 1.98397801495857106779e+00) (40, -9.14460372124864750987e-01) (41, 1.56200809851638922510e+02) (42, 3.66681667208055861451e+00) (43, 3.60873501546666086703e-01) (44, 2.35208680389831989999e+01) (45, 1.50000000000000000000e+03) (46, 1.53629262875915824083e+01) (47, -5.56017053186802057141e-01) (48, -4.15174935157602931213e+00) (49, -1.21820504511088465449e+01) (50, -2.48571961388428741557e+00) (51, 9.67628954295400633967e-01) (52, 7.40554074447835297690e+00) (53, 3.47404064657147682027e+00) (54, 2.97385972252397712268e+00) (55, 1.52582663055141125596e+02) (56, 1.52622477408130322374e+02) (57, -1.27750365781568024914e+01) (58, -1.70862266071061852379e+00) (59, -2.80921178177162156331e+00) (60, 4.90213990394138132700e+00) (61, 1.66726025223455067703e+01) (62, 1.52593027647216473497e+02) (63, 1.08796464268160928412e+01) (64, 1.62877022249522021013e+01) (65, 2.93019427393851081831e+01) (66, 1.50000000000000000000e+03) (67, -9.57346301084174622353e-01) (68, -1.52469225323789121518e+01) (69, -4.75084186903466658691e+01) (0, 2.37470003535317086829e+00) (1, 2.32046586363272595577e+01) (2, 6.48454568182451307479e+00) (3, 1.50000000000000000000e+03) (4, 6.31124913285574296040e-01) (5, -4.38847930639872458869e+01) (6, 1.39123090435212404259e+01) (7, -6.99539718650198505401e+00) (8, 5.95540947502909090439e-01) (9, -8.19649990525611493730e-01) (10, -3.46157373580578848760e+01) (11, -1.49742960275037239626e+03) (12, 1.50000000000000000000e+03) (13, -1.50000000000000000000e+03) (14, -1.50000000000000000000e+03) (15, 1.50000000000000000000e+03) (16, 4.89457776235632557871e+00) (17, 1.50000000000000000000e+03) (18, -9.11930059095011642967e+02) (19, -9.30740563440685697572e+00) (20, -1.50000000000000000000e+03) (21, 5.97188282217145882669e+00) (22, -1.17804439790489934303e-01) (23, -5.81913234041144960429e+02) (24, 1.50000000000000000000e+03) (25, 1.26400311427916633988e+00) (26, 1.43447999187469440585e+03) (27, 1.50000000000000000000e+03) (28, -1.50000000000000000000e+03) (29, 1.09291136512741413611e+01) (30, 5.42799702624668434225e+00) (31, 1.50000000000000000000e+03) (32, -1.50000000000000000000e+03) (33, 1.50000000000000000000e+03) (34, -1.50000000000000000000e+03) (35, -1.50000000000000000000e+03) (36, -1.68689448505617150431e+02) (37, -1.99986287581457901297e+02) (38, 1.50000000000000000000e+03) (39, -1.98906230982812792796e+00) (40, -1.34381296848989859427e+03) (41, -1.50000000000000000000e+03) (42, -1.07037511813814223416e+00) (43, -2.30401069341056121687e+01) (44, -6.76376029423881952596e+00) (45, 1.50000000000000000000e+03) (46, -1.31866469840189256502e+03) (47, 1.50000000000000000000e+03) (48, 1.50000000000000000000e+03) (49, 4.84303696452843510656e+01) (50, -3.02598044175342695272e-01) (51, 8.93597708508483745682e-01) (52, -1.50000000000000000000e+03) (53, -2.19673087395823207757e+00) (54, 3.30045563390709473239e+00) (55, -1.50000000000000000000e+03) (56, -1.50000000000000000000e+03) (57, 1.50000000000000000000e+03) (58, -1.19506902517088704485e+01) (59, -2.00471261146315482549e+00) (60, -4.81137289952234326051e+01) (61, -9.41329537660754454009e+01) (62, -1.50000000000000000000e+03) (63, 1.43864192666909822549e+01) (64, -9.93013213003511282295e+02) (65, -1.50000000000000000000e+03) (66, 1.50000000000000000000e+03) (67, -2.18560612972530918796e+01) (68, 1.50000000000000000000e+03) (69, 1.50000000000000000000e+03) (0, 3.03975030342645347048e+00) (1, 1.92438669493552327872e+00) (2, 1.36574293861276951922e-01) (3, 1.50000000000000000000e+03) (4, 6.41142214572684210339e+00) (5, -1.26089587843009631740e+00) (6, -3.62109736995773845436e+00) (7, -7.02998464577114479113e+00) (8, -9.52548971632380059305e-01) (9, 2.34598140540911392904e+00) (10, -3.50849044356534500722e+00) (11, 1.04564833239606924664e+00) (12, 2.92017289896426301965e+00) (13, 7.35745699196755503779e-02) (14, -3.88788013667165088805e-02) (15, 6.48297366136629982236e+00) (16, 1.07732343560470766874e+00) (17, -5.41941302742734221098e-01) (18, 2.47780302356738063585e-01) (19, -3.14960810225695952980e+00) (20, -8.72869520396292314368e-02) (21, -1.46791552258396840180e+00) (22, 3.03597749245773984583e-01) (23, -2.57901906905515176938e-01) (24, 1.50000000000000000000e+03) (25, 8.66781795915831376753e-01) (26, -9.25794622430919589284e-01) (27, 2.33269262306370750437e+00) (28, -3.96661074639658051133e-01) (29, -6.22382982726749411917e-01) (30, -1.59523995354002345870e+00) (31, 2.28376105526764683340e-01) (32, -1.49163528414702817315e+00) (33, 1.62585220008717090678e+00) (34, 4.99913456706198439106e-02) (35, 2.87728520898016711105e-02) (36, -1.06497203220942715518e+01) (37, -1.96407676465231217922e-01) (38, -1.65325282495879244404e-01) (39, 9.18413563265615739972e-01) (40, -1.98636522586985653227e+00) (41, 3.99528506068381333849e-02) (42, 1.02355895170770400116e-01) (43, -4.53431798593977919420e-01) (44, 5.02524313893775431694e+00) (45, 1.50000000000000000000e+03) (46, -2.11191644547372670004e+00) (47, -3.39737952555171274227e+00) (48, 4.06138647248572492998e+00) (49, 3.00914875183053887042e+00) (50, -1.70735436278478736050e+00) (51, 1.17374772717122655141e-01) (52, 6.99081868118175075999e-01) (53, -5.20456540564701475304e-01) (54, 3.05827487314367263416e-01) (55, -1.20800671311227722504e-02) (56, -5.41093322952668036308e-03) (57, 3.58680298779131412346e+00) (58, 1.25808458374411680225e+00) (59, -1.07323345867794281427e-01) (60, 2.26651277474627654840e+00) (61, -2.88381394942446578344e-01) (62, -4.04430193038788909909e-02) (63, -2.44763311233431896108e-01) (64, 1.36023333110747723929e+00) (65, 1.48258838628749511912e+00) (66, 1.50000000000000000000e+03) (67, 7.19725799559587153809e-01) (68, 1.13660061031279657762e+00) (69, 4.37264994477084334434e-01) (0, 1.47818661745695956178e+00) (1, 1.66259296000078538036e+00) (2, -8.90075083882917866829e-02) (3, 1.50000000000000000000e+03) (4, 1.19551171060329020079e+00) (5, -1.19741941009616104097e+00) (6, -1.77744545433688649894e+00) (7, 4.25512043743990187039e+00) (8, -2.72181220747770113988e+00) (9, -3.35122235882103058913e+00) (10, 7.75008769029931210426e-01) (11, 2.33885464404845855313e+00) (12, 4.02570784934024228363e+00) (13, -2.69939470105801937461e-02) (14, 3.33686229771936876398e-02) (15, 4.85441401527114735348e-01) (16, 8.87515199107454133554e-01) (17, -9.41284460278257628651e-01) (18, -8.72428779503458207145e-01) (19, 7.17516539224300586852e+00) (20, 4.63191625661219519294e-02) (21, -5.68373354073296477296e-01) (22, -1.23925387671590850336e-01) (23, 2.53419758488967264420e-02) (24, 1.50000000000000000000e+03) (25, 8.94524319585718430403e-01) (26, 1.40628746026954076775e+00) (27, -8.23856041474991362961e-01) (28, 2.11246521919376561982e+00) (29, -1.27303221015406475836e+00) (30, 1.61715283057625947016e+00) (31, 1.05338496590948271781e+00) (32, 2.21891410293064561543e+00) (33, 2.63192099377244348446e+00) (34, -7.91022497230207538577e-02) (35, 4.90869638509120048697e-02) (36, 4.92844493992884391531e+00) (37, -5.93002830267942870890e-01) (38, -7.95249136223706742932e-01) (39, -8.64146209063923254057e-01) (40, 9.47400530105396265768e-01) (41, -2.69928070717488644004e-02) (42, -1.24498194357170044455e+00) (43, -1.04627319146905928271e+00) (44, -1.89645499565541698905e-02) (45, 1.50000000000000000000e+03) (46, 2.80970781500944788434e+00) (47, 9.85070175678319781554e-01) (48, -3.07019386198961428958e-02) (49, -6.09221057130586274297e-01) (50, -2.33458505341071376193e+00) (51, 1.59524313106662884998e+00) (52, 1.10523055557201679150e-02) (53, 3.30188035235398746892e+00) (54, 1.70108946608911226761e+00) (55, -4.12446817434203999442e-02) (56, -1.04425821272171967524e-01) (57, 2.75389834650872078470e+00) (58, -5.52724784687160797247e-01) (59, 5.19885185893628198883e-01) (60, -1.75466276441528323815e+00) (61, 9.46540645326283125449e-01) (62, -1.96298172748459523462e-02) (63, -2.88731876833155931550e+00) (64, 9.14834597199187471439e-01) (65, -6.84798603744645514174e-03) (66, 1.50000000000000000000e+03) (67, -8.40847243276933165035e-02) (68, 1.78665251866710961259e+00) (69, 3.99674640389969193510e-01) (0, 1.01768401392981977516e+00) (1, 2.09299622987688671572e+00) (2, -4.03809180572744647053e-02) (3, 1.50000000000000000000e+03) (4, 3.41456211990270741552e+00) (5, -1.17856798958169783909e+00) (6, 1.12088093476808414728e+00) (7, 5.21792502659249013419e+00) (8, -1.66759916736831770301e+00) (9, 2.25719100764343066912e-01) (10, -3.74717163336643732663e-01) (11, 3.06012749932475491832e+00) (12, 2.74149809987223758156e+00) (13, -7.89079421813325687651e-02) (14, -1.55934018796189399758e-01) (15, 4.86492199643969003287e-01) (16, 2.02330544066656603519e+00) (17, 2.41840761072523030561e-02) (18, 1.66655341163480519295e-01) (19, -1.57473793280119767068e+00) (20, 2.04671865647001252619e-02) (21, -1.04185647098149392065e+00) (22, 5.79189723473857331904e-01) (23, 3.59400845149117700861e-02) (24, 1.50000000000000000000e+03) (25, -1.84579765581595167667e+00) (26, -5.68255582168650796859e+00) (27, 6.71273570152227883057e+00) (28, -2.71539989934465086918e+00) (29, -3.31738852364632519354e-01) (30, 2.87334575004205700077e-02) (31, 9.23016439794885235059e-01) (32, -9.68176787972920505077e-01) (33, 2.14551068157972801842e+00) (34, 1.28573026037054546911e-02) (35, -8.78418241167229496558e-02) (36, 1.97113012021234812465e+00) (37, 5.70151225745256007293e-01) (38, 5.46812174773707138087e-01) (39, 8.05199310174666171847e-01) (40, -3.80055500325543293982e+00) (41, -1.42496601166741426736e-01) (42, 9.99032497460689117297e-01) (43, -3.98283434683112558261e-01) (44, -1.02231850980274166507e-01) (45, 1.50000000000000000000e+03) (46, 1.09961060084862816133e+00) (47, 6.57562976783388908331e+00) (48, 2.58081644901157858385e+00) (49, -4.85595866255937314016e-02) (50, 2.65959787432855954137e+00) (51, -2.21925449920530004633e+00) (52, 1.11554518885584430521e-01) (53, 1.22710558831730187634e+00) (54, -7.00204139654339141607e-01) (55, 3.56379842703504548518e-02) (56, 1.74997097199125623002e-02) (57, 7.98951488414898047807e+00) (58, -1.40090119910020405314e+00) (59, -9.86772507143054422585e-01) (60, -8.29167130663367557553e-01) (61, -1.69302840706400448134e+00) (62, -6.72581771070795420009e-02) (63, 3.50046643285328551443e+00) (64, -4.27262635685090819138e-01) (65, -5.26563516702917566725e-01) (66, 1.50000000000000000000e+03) (67, 7.80175803973590542562e-01) (68, 4.40807084184889619305e-02) (69, 5.68952874253838447594e-01) (0, 2.76171126118499099533e+00) (1, 2.46655433442412874712e+00) (2, 3.75078118755900080661e-01) (3, 1.50000000000000000000e+03) (4, 1.34980470919439321520e+00) (5, -7.98604671793272880009e-01) (6, -1.68482043601824171830e+00) (7, 2.62933360565863027958e+00) (8, -1.02746623106834866768e+00) (9, -7.33628661099727352735e-01) (10, -1.40189346956596416760e+01) (11, 4.53127565974819512817e-01) (12, 4.68132509982096234324e+00) (13, -9.16080447269992104165e-02) (14, 4.50772335396694492915e-02) (15, -7.37005516588139175660e-01) (16, 8.76195611426357046092e-01) (17, 1.37200732506375056019e+00) (18, 2.94604760216113525928e+00) (19, 2.23716882238230851954e+00) (20, 1.37408217059062642829e-02) (21, 2.16125266647291169875e+00) (22, -7.14904730654235431864e-01) (23, -2.61502980071192520084e-02) (24, 1.50000000000000000000e+03) (25, 8.87482630706540875920e-01) (26, -4.35309172279362677216e+00) (27, 1.72818413201507425914e-01) (28, -1.77088243533949118991e+00) (29, -1.91854552600416239372e+00) (30, -2.88646085176906508352e+00) (31, 1.02473671350185502327e+00) (32, 1.96928962238093807624e-01) (33, 1.06750212150877210604e+00) (34, 1.43145161895031529722e-03) (35, 4.27273525598453676744e-02) (36, -1.89286348343976262854e+00) (37, -3.07643264130391003164e-01) (38, 5.72509820236383193404e-01) (39, -5.01888792406577008420e-02) (40, 4.91196706111499625802e-01) (41, 4.42692949178623354478e-02) (42, 9.22477077217556257205e-02) (43, 2.62508890716684865907e-02) (44, -3.48118445831396908230e-02) (45, 1.50000000000000000000e+03) (46, 1.18780006065344023725e+00) (47, 1.25896499386828186751e+00) (48, -1.50256802347077145221e+00) (49, 2.44818795392905386166e+00) (50, 5.10569167591116990224e+00) (51, -3.29833380488744776216e+00) (52, 1.30324161198247123750e+00) (53, 1.47763940509714042371e+00) (54, 7.99981013997941414750e-01) (55, -1.47075878231579769417e-02) (56, -8.34533350317535338458e-02) (57, 7.52115826705978957056e-02) (58, 1.29955405324376133125e-01) (59, -3.96784268427895325804e-01) (60, -2.65847913847193251247e-01) (61, -3.91553697753107887713e-01) (62, -1.45403005346541880360e-01) (63, 8.04371424998444606302e-01) (64, -2.38243006579798377587e+00) (65, 6.76683091167546879596e-01) (66, 1.50000000000000000000e+03) (67, 4.45987661838032733996e-01) (68, -5.51429152932408572774e-01) (69, 4.03334524597251165012e-01) (0, 3.14262637903798243144e+01) (1, 1.14741045411602904380e+01) (2, 7.87342754933168009757e+00) (3, 1.50000000000000000000e+03) (4, 2.09270410151691805822e+01) (5, -6.12020091104067631704e+00) (6, -7.69533928932356214858e+00) (7, -3.35372364789708088395e+00) (8, 4.54641275547181322736e+00) (9, 1.59117873305474990531e+01) (10, 1.01560499372027734921e+01) (11, 4.99225045102953579601e+00) (12, -1.35960819490259288145e+00) (13, 4.61084035330434804933e+00) (14, 4.73350922309776223074e+00) (15, -5.67973439561960233846e+01) (16, -8.25696404338870482142e-01) (17, -5.10995957467864148072e+00) (18, 2.94831962376719580732e+01) (19, -1.25071820574878400656e+00) (20, 4.66504223936220174807e+00) (21, 4.54892233088201525248e+00) (22, -3.30661920462340663818e+00) (23, 5.73633358135985194082e+00) (24, 1.50000000000000000000e+03) (25, -1.19668130883748968785e+00) (26, -1.33857713439493721808e+01) (27, 3.83431517654424780517e+00) (28, -3.28728991694549010916e+00) (29, -3.38867027831844813690e+00) (30, 1.07284950882160123875e+00) (31, 5.44208518527474183202e+00) (32, -4.98820591611971730917e-02) (33, -3.50849112156081011094e+00) (34, 4.72103701249075680124e+00) (35, 4.60678475067330150949e+00) (36, 7.26101393098774083867e-01) (37, 6.27140619409365740466e+00) (38, -3.95914377606800815812e+00) (39, 1.44307063973470461882e+00) (40, 3.98422278745907032516e+00) (41, 4.79380721316052138548e+00) (42, -4.25692003139394259392e+00) (43, 7.15289033189164413784e+00) (44, 1.01767715193287298092e+01) (45, 1.50000000000000000000e+03) (46, 4.42591813721534244053e+00) (47, -8.57205812837052105735e-01) (48, 2.91906670046448102340e+00) (49, 2.03801380909519700424e+01) (50, 1.28150436676495549371e+00) (51, -1.60330665856331200381e+00) (52, 8.39966269310308355500e+00) (53, 1.41638577659168660716e+01) (54, 2.18283793650612401027e-01) (55, 4.64765801199694639223e+00) (56, 4.72789446555992043386e+00) (57, -2.58222667112786439247e+01) (58, 1.67650858426835885906e-01) (59, 1.86665398073723601616e-03) (60, 4.86839400875932870605e+00) (61, 2.88496423978212712669e+00) (62, 4.67209100269695287722e+00) (63, 1.45502645918486539500e+00) (64, 3.66827279823808805048e+00) (65, 6.34486927762398345010e+00) (66, 1.50000000000000000000e+03) (67, -1.03059740828210344432e+00) (68, 3.42783302904190567695e-01) (69, -3.15323318702841337569e+00) (0, 3.25098923978652081246e+01) (1, 1.85035606647057875307e+01) (2, 3.15711174818180246859e+01) (3, 1.50000000000000000000e+03) (4, 1.01352887254085164415e+01) (5, -7.27730478946197791856e+01) (6, 1.43274607272433396332e+01) (7, 1.43223641116022637476e+01) (8, 2.63282356901832192975e+00) (9, 1.93721863314437356962e+01) (10, 5.84120786131912872463e-01) (11, 1.51038481839338043500e+01) (12, -5.73263358520946741947e+00) (13, 4.11101488387565083826e+00) (14, 4.17654922968129582728e+00) (15, -3.43688008381520901935e+01) (16, -5.85792126803168500260e+00) (17, -4.84353667551464628360e+00) (18, 4.43862069617482788431e+01) (19, -1.78333819429926769828e+01) (20, 4.16840620329956479395e+00) (21, 4.78326796692502931307e+00) (22, 8.61067345044693399636e-01) (23, 1.84358698588522407213e+00) (24, 1.50000000000000000000e+03) (25, 1.94091221424460336209e+01) (26, 4.51270503706572245761e+00) (27, -5.53189114988418317864e+00) (28, -5.88502229058434966902e+00) (29, 9.87429270048985618935e-01) (30, 1.75671964575488304128e+00) (31, -1.06100293735102475523e+01) (32, -3.02019985585786043814e+00) (33, -9.85232821288428084472e+00) (34, 4.50539367933806378375e+00) (35, 4.55826254476841885577e+00) (36, 4.16206305535549514474e+00) (37, 2.51253859749759644870e+00) (38, -7.55395548378198800066e+00) (39, 6.56449550341687726451e-01) (40, 2.47536357386835845773e+01) (41, 4.45297497426208455096e+00) (42, 3.75603874090047051837e+00) (43, 4.94723008395290175798e+00) (44, 1.76623771834042528894e+01) (45, 1.50000000000000000000e+03) (46, 1.69033257306915585261e+00) (47, -1.59502160910797670113e+01) (48, 2.46198913538920788335e-01) (49, 1.46907041561786311235e+01) (50, -3.20228674030928406324e+00) (51, -2.86364314340936054748e+00) (52, 1.36595307822199050207e+01) (53, 4.22677289957063617720e+00) (54, 1.64100856596074184957e+00) (55, 4.29961824379222523618e+00) (56, 4.15350582040207783052e+00) (57, -4.50783159081321116446e+00) (58, 3.18726049618613771486e+00) (59, 2.02023164061047122431e+00) (60, 6.36630253818614466610e+00) (61, 7.29013932915913898114e+00) (62, 4.16827829516785630659e+00) (63, 1.11025905718518025367e+01) (64, 7.08685683459440340926e+00) (65, 8.92189953203937591297e+00) (66, 1.50000000000000000000e+03) (67, -1.66517658970809812047e+01) (68, -1.63071943128509140308e+01) (69, -2.57346058869531546520e+00) (0, 1.45054658922375239172e+01) (1, 1.16941551460195167778e+01) (2, 4.35511807707858409344e+01) (3, 1.50000000000000000000e+03) (4, 8.96439290434542158437e+02) (5, -2.09341065206553373912e+01) (6, 2.71818954981571714313e+01) (7, -6.55970399743902987666e+01) (8, 2.78068347410410954268e+00) (9, 1.38896840494501390140e+01) (10, -5.72771066297648303589e+01) (11, -1.49742960275037239626e+03) (12, 1.50000000000000000000e+03) (13, -1.50000000000000000000e+03) (14, -1.50000000000000000000e+03) (15, 1.50000000000000000000e+03) (16, -5.83137017084755293617e-01) (17, 1.50000000000000000000e+03) (18, -1.50000000000000000000e+03) (19, 1.46047397280704188915e+02) (20, -1.50000000000000000000e+03) (21, 9.12362076515180859815e+01) (22, -1.13272754814511289467e+00) (23, -7.91015826956436171713e+02) (24, 1.50000000000000000000e+03) (25, 1.98865557975201134866e+00) (26, 1.43447999187469440585e+03) (27, 1.50000000000000000000e+03) (28, -1.50000000000000000000e+03) (29, -2.92523323481795050061e-01) (30, 5.10601406750132280621e+00) (31, 1.50000000000000000000e+03) (32, -1.50000000000000000000e+03) (33, 1.50000000000000000000e+03) (34, -1.50000000000000000000e+03) (35, -1.50000000000000000000e+03) (36, 2.39747301735244718657e+02) (37, -1.74760844612736150339e+02) (38, 9.44639764384811655873e+02) (39, -1.62307397929776641377e+02) (40, -1.50000000000000000000e+03) (41, -1.50000000000000000000e+03) (42, 5.82833943655205377610e+00) (43, -5.67210323669855966955e+01) (44, 2.31764592159823706652e+02) (45, 1.50000000000000000000e+03) (46, -1.50000000000000000000e+03) (47, 1.50000000000000000000e+03) (48, 1.50000000000000000000e+03) (49, 2.69950720921170024269e+01) (50, -5.50199250238534443014e-01) (51, -5.45218171487992631086e+00) (52, -1.50000000000000000000e+03) (53, 3.05365804489864700599e+01) (54, 1.93882523988618196142e+01) (55, -1.50000000000000000000e+03) (56, -1.50000000000000000000e+03) (57, 1.50000000000000000000e+03) (58, 9.95263226451307332354e+01) (59, 2.66610651580454565135e+01) (60, -1.34036618884807889884e+01) (61, -1.45214213602680558779e+02) (62, -1.50000000000000000000e+03) (63, 2.65475887465732860448e+01) (64, -8.78058906789454196584e-01) (65, -1.27294167824998271499e+03) (66, 1.50000000000000000000e+03) (67, -5.57302039064305443361e+00) (68, 1.50000000000000000000e+03) (69, 1.50000000000000000000e+03) (0, 4.13970063491378041931e+01) (1, 1.25792286750228701209e+01) (2, 8.81767119517137665241e+00) (3, 1.50000000000000000000e+03) (4, 6.27840590341502391425e+01) (5, 3.08580423871226905419e+01) (6, -5.74253664769548919367e+01) (7, 6.92036307448182430591e+00) (8, 8.28149825176123322024e+00) (9, -1.06625344022727386317e+00) (10, -5.33390926752215888129e-01) (11, 5.70745166236589156483e+01) (12, 3.74903645561748604109e+01) (13, 7.65098804567964485557e+00) (14, 7.78295962844999245078e+00) (15, 2.70084481426582136976e+01) (16, 5.31399597948954394155e+00) (17, 1.19007003975564238374e+01) (18, 1.84619746202650758526e+00) (19, 6.13216678856027463951e+00) (20, 7.64361150150211265952e+00) (21, 1.59148225394339011274e+01) (22, 2.26597742297767279496e+00) (23, 1.09666007115135166750e+00) (24, 1.50000000000000000000e+03) (25, 2.01311989206497301552e+01) (26, -9.54408634860247673259e+00) (27, -3.02553296118483139310e+00) (28, 8.74979210429688514239e+00) (29, -3.51491727018835042884e+00) (30, -1.90036309754358034851e-01) (31, 2.48768738233484443256e+00) (32, -1.05972354525445080498e+01) (33, -5.83506003273821738375e-01) (34, 7.66308169892929047506e+00) (35, 7.78368583402536362570e+00) (36, 1.80549712591808777518e+01) (37, 3.35379630713537713049e-01) (38, -2.45319854028930173229e+00) (39, 4.86683580835671758535e-01) (40, 2.11381448345858968807e+00) (41, 7.76486949703596085470e+00) (42, 3.06776365598074107766e+00) (43, 5.28281243709757819538e-01) (44, 8.76695528905359822147e+00) (45, 1.50000000000000000000e+03) (46, -1.42948489215381280282e+00) (47, 5.60725423548158552478e+00) (48, 2.72719211895000235302e+00) (49, 1.90926698905755181102e+01) (50, 3.62085882204379005955e+00) (51, 1.36260116544345444289e+00) (52, -1.69427626618579885154e+00) (53, 1.61933013663471014887e+00) (54, 1.04075458740934712054e+00) (55, 7.71336615911624878805e+00) (56, 7.71470249525211304586e+00) (57, 1.76302421118646854836e+01) (58, 1.39023489247246310185e+01) (59, 6.46582701232930268098e-01) (60, 9.60724785065680597640e-01) (61, 6.14231786818408953543e-01) (62, 7.64582467905185669821e+00) (63, 1.73670803551741990134e+01) (64, 1.74372298384402779625e+00) (65, 4.60222071026291601470e+00) (66, 1.50000000000000000000e+03) (67, -5.03628198852181885314e+00) (68, 2.60674463613052376232e+00) (69, -3.97639360100945982168e+00) (0, 1.42486494240272651979e+01) (1, 2.87228028845261711410e+01) (2, 9.68903291589810322648e+00) (3, 1.50000000000000000000e+03) (4, 2.21444906892460746661e+00) (5, -1.47048823106413060202e+01) (6, 3.07930062129105541757e+00) (7, 1.45743163610619639314e+01) (8, -2.78238367130615982248e+00) (9, 1.24233187782870171390e+01) (10, -4.38133803920371267537e+00) (11, -7.57439659977494628151e+00) (12, -4.95074857670285339850e+00) (13, 6.95958807745943985879e+00) (14, 7.08596937784920655190e+00) (15, -9.71722348669457280934e-01) (16, 6.21289447958166540786e+00) (17, -4.74908847601246453252e+00) (18, 2.60802028984426605973e+01) (19, -9.31381070026930402150e+00) (20, 6.94465993771325074135e+00) (21, -3.79034223860532071271e+00) (22, 6.29359991107247607189e-01) (23, 6.64870864938738215244e+00) (24, 1.50000000000000000000e+03) (25, 3.35206200419174438210e+00) (26, -1.25068263004870487975e+01) (27, -1.17653131693198762520e+01) (28, 8.54562367858889615491e+00) (29, 6.50778563456350434002e-01) (30, 9.68316159548515997813e+00) (31, -3.06400345392621309415e+00) (32, 6.00136562834480535855e+00) (33, 1.18931762552015984902e+00) (34, 1.01884425843795725086e+01) (35, 1.01247242281874587633e+01) (36, -1.00218520222835962841e+02) (37, 1.70571291894826715385e+00) (38, -4.16389291566334929229e+00) (39, 6.50241257545192241629e-01) (40, 1.34365815851848644513e+01) (41, 1.02275617087921091297e+01) (42, 8.33581772371889329065e+00) (43, 4.03169244674139726214e+00) (44, 1.21068230177491873434e+01) (45, 1.50000000000000000000e+03) (46, -6.05576237186866483952e-01) (47, 1.27531437103511252618e-01) (48, 7.63551813824112080020e-01) (49, 2.94104614869083524908e+00) (50, -6.19258918471225516811e+00) (51, -9.19630051364327982810e+00) (52, 1.17552186452948284057e+01) (53, -2.22985786283101106164e+00) (54, 4.56916780340300199281e-01) (55, 7.50800424936954158284e+00) (56, 7.62159873295370715596e+00) (57, -6.56487131672316692743e+00) (58, 6.14985448987085070449e-01) (59, -1.88274234560487951917e+00) (60, 1.85769122711970102735e+00) (61, 3.14056441175938338972e+00) (62, 7.54610641795937198140e+00) (63, 3.82232951253558761451e+00) (64, 1.92545956690907638098e+00) (65, 1.00842903236081280482e+01) (66, 1.50000000000000000000e+03) (67, -1.12701157118151296110e+00) (68, 1.85299831171674256325e+00) (69, -4.62911094264214106886e+00) (0, 2.04114859336219334196e+00) (1, 2.24524771967571146192e+00) (2, 1.96557016116963162444e-01) (3, 1.50000000000000000000e+03) (4, -5.50473990812932689742e-01) (5, -2.87038901186392836351e+00) (6, -1.11076150986275723476e+00) (7, -8.70021078578650935986e-02) (8, 1.17823908720627068547e+00) (9, 1.68628783330041120969e+00) (10, -2.81931352878819252439e+00) (11, 1.17621043822071014162e+00) (12, 2.74341192321302651536e+00) (13, -1.22472532292912481434e-05) (14, -8.48701446132868637939e-03) (15, 4.05743672274209199458e+00) (16, 1.10530535191797429917e+00) (17, 7.60950157730781784338e-01) (18, 4.37689104470211975961e-01) (19, 4.65178103726089275938e+00) (20, 9.32816803566910712764e-02) (21, -1.86134508664336423278e-01) (22, 4.26795471521462743691e-01) (23, -6.35032370024701253719e-02) (24, 1.50000000000000000000e+03) (25, 1.89638212073375722611e+00) (26, -2.44329074901724263569e+00) (27, -3.12766683183366034360e-01) (28, -2.22869673050887540100e+00) (29, 1.12983619711491137250e-01) (30, 1.31076637627766245942e+00) (31, 1.81678856014714285028e-01) (32, -2.30256768629338803844e-01) (33, 8.84462370967268207700e-01) (34, 6.31723046414353617273e-02) (35, -6.58386558182738612643e-02) (36, 4.88780357881902549622e-01) (37, 1.55822540059540715074e-01) (38, 7.21740576848703851986e-01) (39, 1.34025835455239161753e+00) (40, -3.53666338268081303919e-01) (41, 9.66523826233841865108e-02) (42, 4.80215010800711161743e-01) (43, -3.67648585370146552265e-01) (44, -4.70832992877769973550e-01) (45, 1.50000000000000000000e+03) (46, 7.29668220102403175531e-01) (47, 2.98400085700607320405e+00) (48, 5.73743872191418313733e-01) (49, 1.11377395982373750272e+00) (50, -1.02426192004843708006e+00) (51, -2.06904239495457575870e+00) (52, 1.04217818509881654521e+00) (53, 7.49255756371904624302e+00) (54, 3.67203694039030592577e+00) (55, -5.04719152935048584463e-02) (56, -8.40279817469619383363e-02) (57, 6.44415369870734799917e+00) (58, -1.31098361063243684654e+00) (59, 9.02778886839799427078e-02) (60, -1.98583700840853683012e+00) (61, -3.21773777399095139984e+00) (62, -4.00854259617825850470e-02) (63, 7.36585552001118082366e-01) (64, -2.44181062955976324602e+00) (65, -1.81335565731895048680e-01) (66, 1.50000000000000000000e+03) (67, 2.26099219545817931021e+00) (68, 6.23644524996655347238e-01) (69, 3.62103029538777099194e-01) (0, -1.39227787134571578953e+00) (1, 2.38146684423383492302e+00) (2, 3.85068962836373818170e-01) (3, 1.50000000000000000000e+03) (4, 9.14294718655177807154e-02) (5, 7.34614256255025921405e+00) (6, -6.56663480857219594711e-01) (7, 1.35034068087429792726e+00) (8, 4.31058296440139487871e-01) (9, -1.15912802301395201354e+00) (10, 5.24236843563472465490e+00) (11, 1.85455197001034099991e+00) (12, 5.15495792729128599063e+00) (13, 3.45274178383371821432e-02) (14, 1.23359282135727235663e-01) (15, 1.22601847847350420295e+00) (16, -2.25750285873796885383e+00) (17, 8.45940760569414695880e-01) (18, 1.66244701462522082025e+00) (19, 6.71999484413772996128e-01) (20, 9.86767007110139621195e-02) (21, -2.21232726478416547033e-01) (22, 5.48134740084615157407e-01) (23, 4.74078801746162167841e-02) (24, 1.50000000000000000000e+03) (25, 2.75628568963828568528e+00) (26, -8.27161111025953688092e-01) (27, 5.15971154261118947204e-01) (28, -9.83137832827675417491e-01) (29, -8.02540181581372635833e+00) (30, 3.86670588487370403552e-01) (31, -4.50357271079544596581e-01) (32, -1.22224978535045747385e+00) (33, -3.09173875719224555692e-01) (34, 1.88189244285659779132e-01) (35, 1.11320725098685999188e-01) (36, -3.61601494227359054889e+00) (37, 1.73209976450283109628e+00) (38, 6.46259352674360076918e-01) (39, -3.71044036157132717246e-01) (40, 1.93976645677055348216e+00) (41, 9.08643178795144751403e-02) (42, 3.18444439329148565321e-01) (43, -2.83350500385275760884e-01) (44, -1.88049223656290592777e-01) (45, 1.50000000000000000000e+03) (46, 2.93214202817910885024e-01) (47, 3.30472707272593169137e+00) (48, -2.85227954612174483540e-01) (49, 3.93883267709289208724e+00) (50, -1.84211037675371480660e+00) (51, -3.38676425175427464609e+00) (52, 5.93586566491575845506e-02) (53, 1.05875141541281836410e+00) (54, 3.97565243461059758534e-01) (55, 3.31799704779428064616e-02) (56, 1.66434254695219281672e-02) (57, 4.27517267752639895662e+00) (58, 1.57209448861089118310e-01) (59, -1.96178553234918395809e-01) (60, 4.15785905674718292424e-01) (61, 1.03175002814030447595e+00) (62, -1.57923009048658163911e-02) (63, 3.36835609801652724471e-01) (64, 5.58136264646845958737e-01) (65, -2.18625936022093167455e-02) (66, 1.50000000000000000000e+03) (67, -9.74827223177268886722e-01) (68, 1.74814491890070144997e-01) (69, 3.22134199015976563363e-01) (0, 3.49923482015070863582e+00) (1, 3.63045508464970101414e+00) (2, 9.86097864251278821701e-02) (3, 1.50000000000000000000e+03) (4, 1.95524957711304270269e+00) (5, -1.36175197643535872416e+00) (6, -5.85649735798527970587e-01) (7, -1.71428394336323020042e+00) (8, -3.03883591225584481776e+00) (9, 3.30802998607024001387e+00) (10, -3.79510291702872371022e-01) (11, 4.35520360690360330835e+00) (12, 2.10449452722382313041e+00) (13, -4.60862285654605741136e-02) (14, -1.01430534497982310915e-01) (15, -1.82426010771744007144e+00) (16, -8.48178602188125130290e-01) (17, -1.16171241234974864653e+00) (18, 6.92889275359149792166e-01) (19, -7.54813933328449038207e-01) (20, 7.30937205989301841402e-02) (21, 2.24880223211187013632e+00) (22, -6.45657529643844707579e-01) (23, 8.39631288702557959658e-02) (24, 1.50000000000000000000e+03) (25, -2.80703858265484829104e+00) (26, -1.01532054006971697580e-01) (27, -8.65177873346601677973e-01) (28, -4.11113941794463677581e+00) (29, -1.60522935802339405953e+00) (30, 6.50188039833507769316e+00) (31, -9.25369428791673609425e-02) (32, -4.02495922432932395907e+00) (33, -2.63643179797369786588e-01) (34, 4.69017326835732897838e-02) (35, -9.35513749714751846609e-02) (36, -2.32217501749532262423e+00) (37, 2.21192224586997471247e-01) (38, 6.12684533133364267465e-02) (39, -2.66291527796163995934e-01) (40, -4.48159218001043591073e+00) (41, 2.94198393825631718257e-02) (42, 2.15676393555522505352e+00) (43, -2.89073144111766433539e+00) (44, -8.61838870023872716253e-01) (45, 1.50000000000000000000e+03) (46, -6.50059459529120475807e-01) (47, -1.08356587339199039732e+00) (48, 2.16644750455378298781e+00) (49, -3.82308890204252405098e-01) (50, -1.15018268759204933538e+00) (51, 7.06851059699956096871e-01) (52, -6.54886926317800321939e-01) (53, 9.92858930338150647010e-01) (54, 1.52988444909452558917e+00) (55, -7.15878382321257639154e-02) (56, 5.21807968620400519644e-02) (57, 6.23262209206523021265e+00) (58, 1.04079952866819613888e+00) (59, -1.82864649199433293436e-01) (60, 1.65493252716932937041e-01) (61, -1.87868695870800306302e+00) (62, -7.05797225197748318015e-03) (63, 1.65128837218630319938e+00) (64, -2.85668755193795864677e-01) (65, 3.68552052717146527705e-02) (66, 1.50000000000000000000e+03) (67, -1.61659140140774582051e+00) (68, -1.19264177946802139019e+01) (69, 5.31125760324490214792e-01) (0, -8.49739414136287285473e-01) (1, 5.05867683896726472170e+00) (2, 3.88483057567241885089e-01) (3, 1.50000000000000000000e+03) (4, 4.00791648914695097794e-02) (5, 2.68350495630286944859e+00) (6, -1.33307870478492995758e+00) (7, -1.68447313325332537204e+00) (8, -2.63948955108921401447e+00) (9, 9.88926031657525461682e-01) (10, -4.20468351631257952761e+00) (11, -1.89058431870341131509e-01) (12, 8.12771153901520215790e-01) (13, 9.15472633047728079347e-02) (14, 3.84673154755263910221e-02) (15, 7.98338753541590318008e+00) (16, -3.96741031965617385602e-01) (17, 1.18858506325408086468e+00) (18, 4.78047406664263530018e+00) (19, -4.17647334498426836547e+00) (20, 4.79468977852493191683e-02) (21, -2.84211907084410153601e+00) (22, 3.19851667152797267124e-02) (23, 5.74696926663170459815e-02) (24, 1.50000000000000000000e+03) (25, 1.87169635510657927924e+00) (26, 4.00336489602041545321e-01) (27, -6.14544797174713552934e-01) (28, 1.54779191249497549698e+00) (29, 8.53064184156280158611e-01) (30, 2.29426433696267118023e+00) (31, 2.16320968203157137921e+00) (32, 4.04110909935550433048e-01) (33, 4.18484767730710593980e+00) (34, 7.15099340429421748144e-02) (35, -2.68462160477523255342e-02) (36, 7.75515865810840199224e-01) (37, 2.56780813791793693923e+00) (38, 1.30236898394685374214e+00) (39, -1.48345919197119091582e-01) (40, -3.80786986514342373766e+00) (41, -2.47897812971953866723e-02) (42, -2.59808196824205528408e-02) (43, 4.78782986390796472254e-01) (44, -1.17770818653268785625e-01) (45, 1.50000000000000000000e+03) (46, 1.92215974094515229531e+00) (47, 5.58519693029380537297e+00) (48, -2.85611180069465953046e-01) (49, -3.06144509055590274826e+00) (50, 1.14479253660496693712e+00) (51, -2.75146737654820672248e+00) (52, -7.18986755634098417822e-01) (53, 2.14643001648119380320e+00) (54, 3.27200115931254931212e+00) (55, -5.05698868231148138119e-02) (56, 7.56100988789229766507e-02) (57, 9.74341899776464126504e-01) (58, -1.06407279539405694169e-01) (59, 1.77163863356134182458e-01) (60, -6.09958208855687189498e-01) (61, 1.54221466361363246378e+00) (62, -7.89479487733215912204e-02) (63, 3.36311374729463086197e+00) (64, 2.48698817599977717308e+00) (65, 1.19078103256183200770e-02) (66, 1.50000000000000000000e+03) (67, -1.85343326677260256119e+00) (68, 4.13734340870186390049e+00) (69, 4.36626951306898603011e-01) (0, 3.54387498824635294170e+00) (1, -7.26208314266638232937e-01) (2, 7.32707131031612557415e-01) (3, 1.50000000000000000000e+03) (4, -1.27473989129368664441e-01) (5, 6.37351507103365078066e-01) (6, 7.27456049012055849801e-01) (7, 4.68283729897786749063e+00) (8, -4.00526357102235675001e+00) (9, -1.99012583162478939869e+00) (10, -1.79175030890611663992e+00) (11, 4.19363882507363427976e+00) (12, 7.80977973157869787002e+00) (13, -3.13682080720209047198e-02) (14, 1.25938458825804143471e-02) (15, 1.35701021653170106340e+00) (16, -4.16046251872124128734e-01) (17, 8.83129697727121909523e-01) (18, 1.25972999142760555547e-01) (19, 6.24537919999664481452e+00) (20, 4.12131203796125486494e-02) (21, 2.49356569615927492478e+00) (22, -4.56199697703589535092e-01) (23, 2.89870815364195351382e-02) (24, 1.50000000000000000000e+03) (25, 9.80008236265466070591e-01) (26, 2.08871629597817776158e+00) (27, 8.04793298281791386062e-02) (28, -9.43113858570330365616e-01) (29, -3.03033334857751190938e+00) (30, 2.21320866609966815375e+00) (31, 5.84382651991415702497e-01) (32, 4.09581824604861743921e+00) (33, -1.43473799576440685932e+00) (34, -1.04989890894725532156e-01) (35, 5.30092074062085763519e-02) (36, 8.63082105710032299051e-01) (37, 6.73620488215920520947e-02) (38, -6.85429054417492800155e-01) (39, 5.21387014010779248352e-01) (40, 1.52248474839592248115e-02) (41, 7.22478880073285922858e-02) (42, 2.44757302710424351488e+00) (43, -2.39164977845462001227e+00) (44, -2.95817104787136631039e-01) (45, 1.50000000000000000000e+03) (46, 4.85474078239929429657e+00) (47, -6.75536989590378111892e-01) (48, 2.19282883685476148727e+00) (49, -1.71516987917718699563e+00) (50, -3.69504024084254778515e+00) (51, -1.02090843062139069453e+00) (52, 6.81767514501768867596e-01) (53, 4.10010553427971924378e+00) (54, 4.94022321935109065549e+00) (55, 3.97354467298246596951e-02) (56, 5.17895324613309518402e-02) (57, -4.35058439436647514942e-01) (58, -9.23647975357044515032e-02) (59, 1.08532236246346869279e+00) (60, -4.42482315032951045719e-01) (61, -1.85653351827660650919e+00) (62, 7.26050539399839267585e-02) (63, 8.34110722782690272581e-01) (64, 1.70576506538321037709e+00) (65, 1.38119183255315663983e-01) (66, 1.50000000000000000000e+03) (67, -2.14541420922540737592e+00) (68, 2.00958387995730891618e+00) (69, 3.53726344004284876110e-01) (0, 9.30514064729576650947e-01) (1, 3.17599773039112243112e+00) (2, 1.17729311316804266530e-01) (3, 1.50000000000000000000e+03) (4, 4.89923948237729334210e+00) (5, 1.57019004883903939840e-01) (6, 7.21489602442944577554e-01) (7, 6.57018350855897853569e-02) (8, 3.61469445611523054751e-02) (9, 1.83328250764256317495e+00) (10, 5.96429139172877431641e-01) (11, 1.53790638305225435545e+00) (12, 1.58283285589415956274e+00) (13, -4.94940495560227677885e-02) (14, -1.34401558942562143750e-01) (15, 4.41440566416373592062e+00) (16, -1.26646689361959952080e+00) (17, -8.31119709612742063598e-01) (18, 2.13895769401904217721e-01) (19, 2.27239280976478319474e+00) (20, -1.62815942473178904004e-01) (21, -3.05163691254935898201e+00) (22, -7.75429843090265524808e-01) (23, -3.13141363213099502283e-02) (24, 1.50000000000000000000e+03) (25, 3.98157879877531928337e-01) (26, -2.75910082603500084186e-01) (27, 1.54888087709253025048e-01) (28, 1.99651802390099586404e+00) (29, -3.42632151492887970790e+00) (30, 3.34554612618136515412e-01) (31, -1.74854553500697051938e+00) (32, -7.22939388687267592282e-01) (33, 4.18535454017558361528e+00) (34, -1.64513738246043289548e-01) (35, -7.28739885402522880042e-02) (36, 8.01452917249240587294e-02) (37, 1.18496265703548542270e+00) (38, 6.74775415570691428080e-01) (39, 5.08020843891287751659e-02) (40, 5.63651864225727217139e-01) (41, -8.47698984456859705450e-02) (42, 8.16410377905639861318e-01) (43, -1.52147085165698192633e+00) (44, -2.79518320655599894486e-01) (45, 1.50000000000000000000e+03) (46, 1.74240659816649112734e+00) (47, 6.78697307830981433341e+00) (48, 1.00908241503667817085e+00) (49, -7.32748226954110459808e-01) (50, 5.04741813541483286265e-01) (51, 6.99352502179852786313e-01) (52, -1.75335342873409039122e+00) (53, -4.88563673083014127219e-01) (54, -1.35931838223078793604e+00) (55, -2.44060719342606424753e-02) (56, -3.59005892606155882496e-02) (57, -1.50217723980072097312e-02) (58, 1.39391976079860507864e-01) (59, 5.32757933072464107127e-01) (60, -3.14036094418118028049e-01) (61, -2.43962371578984926757e-01) (62, -2.95735562177079254476e-02) (63, 1.20353896557457029637e+00) (64, 1.43361320134628100753e+00) (65, 1.13588011115130327333e+00) (66, 1.50000000000000000000e+03) (67, -1.17049835830252146884e+00) (68, 8.29383039954805001415e-01) (69, 4.74380533923330516277e-01) (70, 9.75796134823693677163e+01) (71, 4.14558757859344780172e+02) (72, -1.50000000000000000000e+03) (73, -1.50000000000000000000e+03) (74, 7.34474248783790244488e+02) (75, -1.06730941550257875861e+03) (76, -7.73623452291288799643e+02) (77, -9.49581537115049741260e+02) (78, 5.99432265603814812494e+02) (79, -1.50000000000000000000e+03) (80, 1.50000000000000000000e+03) (81, -1.50000000000000000000e+03) (82, 5.78755613645832681868e+02) (83, -1.40821915543626445810e+01) (84, -6.02520246084922064256e+02) (85, -7.87921883042897661653e+02) (86, -1.50000000000000000000e+03) (87, -1.50000000000000000000e+03) (88, -1.50000000000000000000e+03) (89, -1.50000000000000000000e+03) (90, -1.21747818731386246327e+03) (91, -1.50000000000000000000e+03) (92, -7.71279809051569941403e+02) (93, -1.36579999079704271026e+03) (94, 1.22126048858959779864e+03) (95, -1.43846442992995343957e+03) (96, -9.98457533560366300662e+02) (97, -5.35484140143745435125e+02) (98, -9.99874900038028272320e+02) (99, -1.50000000000000000000e+03) (100, -1.50000000000000000000e+03) (101, 9.53390261531023497810e+02) (102, 1.50000000000000000000e+03) (103, -1.50000000000000000000e+03) (104, -1.59261081059967040119e+02) (105, -7.49569182262728190835e+02) (106, -2.59233352438708131160e+00) (107, -2.98416916359339609244e+02) (108, -5.30248504227619665841e+00) (109, -4.16517783558306064151e+02) (110, 1.50000000000000000000e+03) 
